<?xml version="1.0" encoding="ISO-8859-1"?>
<smile version="1.0" id="diabetes" numsamples="1000" discsamples="10000">
	<nodes>
		<cpt id="cho_init">
			<state id="x6_0mmol_kg" label="F17" />
			<state id="x5_6mmol_kg" label="F18" />
			<state id="x5_2mmol_kg" label="F19" />
			<state id="x4_8mmol_kg" label="F20" />
			<state id="x4_4mmol_kg" label="F21" />
			<state id="x4_0mmol_kg" label="F22" />
			<state id="x3_6mmol_kg" label="F23" />
			<state id="x3_2mmol_kg" label="F24" />
			<state id="x2_8mmol_kg" label="F25" />
			<state id="x2_4mmol_kg" label="F26" />
			<state id="x2_0mmol_kg" label="F27" />
			<state id="x1_6mmol_kg" label="F28" />
			<state id="x1_2mmol_kg" label="F29" />
			<state id="x0_8mmol_kg" label="F30" />
			<state id="x0_4mmol_kg" label="F31" />
			<state id="x0_0mmol_kg" label="F32" />
			<probabilities>0.01 0.01 0.01 0.01 0.01 0.01 0.01 0.01 0.01 0.01 0.01 0.01 0.01 0.01 0.01 0.85</probabilities>
		</cpt>
		<cpt id="ins_sens">
			<state id="incr__1_41" label="F33" />
			<state id="normal_1_00" label="F34" />
			<state id="s_red__0_71" label="F35" />
			<state id="reduced_0_50" label="F36" />
			<state id="v_red__0_35" label="F37" />
			<probabilities>0.2 0.2 0.2 0.2 0.2</probabilities>
		</cpt>
		<cpt id="meal_0">
			<state id="x100g" label="F43" />
			<state id="x95g" label="F44" />
			<state id="x90g" label="F45" />
			<state id="x85g" label="F46" />
			<state id="x80g" label="F47" />
			<state id="x75g" label="F48" />
			<state id="x70g" label="F49" />
			<state id="x65g" label="F50" />
			<state id="x60g" label="F51" />
			<state id="x55g" label="F52" />
			<state id="x50g" label="F53" />
			<state id="x45g" label="F54" />
			<state id="x40g" label="F55" />
			<state id="x35g" label="F56" />
			<state id="x30g" label="F57" />
			<state id="x25g" label="F58" />
			<state id="x20g" label="F59" />
			<state id="x15g" label="F60" />
			<state id="x10g" label="F61" />
			<state id="x5g" label="F62" />
			<state id="x0g" label="F63" />
			<probabilities>0.01 0.01 0.01 0.01 0.01 0.01 0.01 0.01 0.01 0.01 0.01 0.01 0.01 0.01 0.01 0.01 0.01 0.01 0.01 0.01 0.8</probabilities>
		</cpt>
		<cpt id="cho_0">
			<state id="x8_0mmol_kg" label="F64" />
			<state id="x7_6mmol_kg" label="F65" />
			<state id="x7_2mmol_kg" label="F66" />
			<state id="x6_8mmol_kg" label="F67" />
			<state id="x6_4mmol_kg" label="F68" />
			<state id="x6_0mmol_kg" label="F69" />
			<state id="x5_6mmol_kg" label="F70" />
			<state id="x5_2mmol_kg" label="F71" />
			<state id="x4_8mmol_kg" label="F72" />
			<state id="x4_4mmol_kg" label="F73" />
			<state id="x4_0mmol_kg" label="F74" />
			<state id="x3_6mmol_kg" label="F75" />
			<state id="x3_2mmol_kg" label="F76" />
			<state id="x2_8mmol_kg" label="F77" />
			<state id="x2_4mmol_kg" label="F78" />
			<state id="x2_0mmol_kg" label="F79" />
			<state id="x1_6mmol_kg" label="F80" />
			<state id="x1_2mmol_kg" label="F81" />
			<state id="x0_8mmol_kg" label="F82" />
			<state id="x0_4mmol_kg" label="F83" />
			<state id="x0_0mmol_kg" label="F84" />
			<parents>meal_0 cho_init</parents>
			<probabilities>1 0 0 0 0 0 0 0 0 0 0 0 0 0 0 0 0 0 0 0 0 1 0 0 0 0 0 0 0 0 0 0 0 0 0 0 0 0 0 0 0 0 1 0 0 0 0 0 0 0 0 0 0 0 0 0 0 0 0 0 0 0 0 1 0 0 0 0 0 0 0 0 0 0 0 0 0 0 0 0 0 0 0 0 1 0 0 0 0 0 0 0 0 0 0 0 0 0 0 0 0 0 0 0 0 1 0 0 0 0 0 0 0 0 0 0 0 0 0 0 0 0 0 0 0 0 0.9999 0.0001 0 0 0 0 0 0 0 0 0 0 0 0 0 0 0 0 0 0 0 0.9998 0.0002 0 0 0 0 0 0 0 0 0 0 0 0 0 0 0 0 0 0 0 0.9994 0.0006000000000000004 0 0 0 0 0 0 0 0 0 0 0 0 0 0 0 0 0 0 0 0.9985000000000001 0.0015 0 0 0 0 0 0 0 0 0 0 0 0 0 0 0 0 0 0 0 0.9959 0.0041 0 0 0 0 0 0 0 0 0 0 0 0 0 0 0 0 0 0 0 0.989 0.011 0 0 0 0 0 0 0 0 0 0 0 0 0 0 0 0 0 0 0 0.9704 0.0293 0.0003 0 0 0 0 0 0 0 0 0 0 0 0 0 0 0 0 0 0 0.922 0.0757 0.0023 0 0 0 0 0 0 0 0 0 0 0 0 0 0 0 0 0 0 0.80518052 0.17971797 0.01470147 0.0004000400000000002 0 0 0 0 0 0 0 0 0 0 0 0 0 0 0 0 0 0.57035704 0.34593459 0.07720771999999999 0.006300630000000002 0.00020002 0 0 0 0 0 0 0 0 0 0 0 0 0 0 0 0 1 0 0 0 0 0 0 0 0 0 0 0 0 0 0 0 0 0 0 0 0 1 0 0 0 0 0 0 0 0 0 0 0 0 0 0 0 0 0 0 0 0 1 0 0 0 0 0 0 0 0 0 0 0 0 0 0 0 0 0 0 0 0 1 0 0 0 0 0 0 0 0 0 0 0 0 0 0 0 0 0 0 0 0 1 0 0 0 0 0 0 0 0 0 0 0 0 0 0 0 0 0 0 0 0 0.9999 0.0001 0 0 0 0 0 0 0 0 0 0 0 0 0 0 0 0 0 0 0 0.9998 0.0002 0 0 0 0 0 0 0 0 0 0 0 0 0 0 0 0 0 0 0 0.9994 0.0006000000000000004 0 0 0 0 0 0 0 0 0 0 0 0 0 0 0 0 0 0 0 0.9985000000000001 0.0015 0 0 0 0 0 0 0 0 0 0 0 0 0 0 0 0 0 0 0 0.9959 0.0041 0 0 0 0 0 0 0 0 0 0 0 0 0 0 0 0 0 0 0 0.989 0.011 0 0 0 0 0 0 0 0 0 0 0 0 0 0 0 0 0 0 0 0.9704 0.0293 0.0003 0 0 0 0 0 0 0 0 0 0 0 0 0 0 0 0 0 0 0.922 0.0757 0.0023 0 0 0 0 0 0 0 0 0 0 0 0 0 0 0 0 0 0 0.80518052 0.17971797 0.01470147 0.0004000400000000002 0 0 0 0 0 0 0 0 0 0 0 0 0 0 0 0 0 0.57035704 0.34593459 0.07720771999999999 0.006300630000000002 0.00020002 0 0 0 0 0 0 0 0 0 0 0 0 0 0 0 0 0.2570257 0.42384238 0.2570257 0.05730573 0.004700470000000002 0.00010001 0 0 0 0 0 0 0 0 0 0 0 0 0 0 0 1 0 0 0 0 0 0 0 0 0 0 0 0 0 0 0 0 0 0 0 0 1 0 0 0 0 0 0 0 0 0 0 0 0 0 0 0 0 0 0 0 0 1 0 0 0 0 0 0 0 0 0 0 0 0 0 0 0 0 0 0 0 0 1 0 0 0 0 0 0 0 0 0 0 0 0 0 0 0 0 0 0 0 0 0.9999 0.0001 0 0 0 0 0 0 0 0 0 0 0 0 0 0 0 0 0 0 0 0.9998 0.0002 0 0 0 0 0 0 0 0 0 0 0 0 0 0 0 0 0 0 0 0.9994 0.0006000000000000004 0 0 0 0 0 0 0 0 0 0 0 0 0 0 0 0 0 0 0 0.9985000000000001 0.0015 0 0 0 0 0 0 0 0 0 0 0 0 0 0 0 0 0 0 0 0.9959 0.0041 0 0 0 0 0 0 0 0 0 0 0 0 0 0 0 0 0 0 0 0.989 0.011 0 0 0 0 0 0 0 0 0 0 0 0 0 0 0 0 0 0 0 0.9704 0.0293 0.0003 0 0 0 0 0 0 0 0 0 0 0 0 0 0 0 0 0 0 0.922 0.0757 0.0023 0 0 0 0 0 0 0 0 0 0 0 0 0 0 0 0 0 0 0.80518052 0.17971797 0.01470147 0.0004000400000000002 0 0 0 0 0 0 0 0 0 0 0 0 0 0 0 0 0 0.57035704 0.34593459 0.07720771999999999 0.006300630000000002 0.00020002 0 0 0 0 0 0 0 0 0 0 0 0 0 0 0 0 0.2570257 0.42384238 0.2570257 0.05730573 0.004700470000000002 0.00010001 0 0 0 0 0 0 0 0 0 0 0 0 0 0 0 0.0542 0.2431 0.4008 0.2431 0.0542 0.0045 0.0001 0 0 0 0 0 0 0 0 0 0 0 0 0 0 1 0 0 0 0 0 0 0 0 0 0 0 0 0 0 0 0 0 0 0 0 1 0 0 0 0 0 0 0 0 0 0 0 0 0 0 0 0 0 0 0 0 1 0 0 0 0 0 0 0 0 0 0 0 0 0 0 0 0 0 0 0 0 0.9999 0.0001 0 0 0 0 0 0 0 0 0 0 0 0 0 0 0 0 0 0 0 0.9998 0.0002 0 0 0 0 0 0 0 0 0 0 0 0 0 0 0 0 0 0 0 0.9994 0.0006000000000000004 0 0 0 0 0 0 0 0 0 0 0 0 0 0 0 0 0 0 0 0.9985000000000001 0.0015 0 0 0 0 0 0 0 0 0 0 0 0 0 0 0 0 0 0 0 0.9959 0.0041 0 0 0 0 0 0 0 0 0 0 0 0 0 0 0 0 0 0 0 0.989 0.011 0 0 0 0 0 0 0 0 0 0 0 0 0 0 0 0 0 0 0 0.9704 0.0293 0.0003 0 0 0 0 0 0 0 0 0 0 0 0 0 0 0 0 0 0 0.922 0.0757 0.0023 0 0 0 0 0 0 0 0 0 0 0 0 0 0 0 0 0 0 0.80518052 0.17971797 0.01470147 0.0004000400000000002 0 0 0 0 0 0 0 0 0 0 0 0 0 0 0 0 0 0.57035704 0.34593459 0.07720771999999999 0.006300630000000002 0.00020002 0 0 0 0 0 0 0 0 0 0 0 0 0 0 0 0 0.2570257 0.42384238 0.2570257 0.05730573 0.004700470000000002 0.00010001 0 0 0 0 0 0 0 0 0 0 0 0 0 0 0 0.0542 0.2431 0.4008 0.2431 0.0542 0.0045 0.0001 0 0 0 0 0 0 0 0 0 0 0 0 0 0 0.00440044 0.0540054 0.2420242 0.3990399 0.2420242 0.0540054 0.00440044 0.00010001 0 0 0 0 0 0 0 0 0 0 0 0 0 1 0 0 0 0 0 0 0 0 0 0 0 0 0 0 0 0 0 0 0 0 1 0 0 0 0 0 0 0 0 0 0 0 0 0 0 0 0 0 0 0 0 0.9999 0.0001 0 0 0 0 0 0 0 0 0 0 0 0 0 0 0 0 0 0 0 0.9998 0.0002 0 0 0 0 0 0 0 0 0 0 0 0 0 0 0 0 0 0 0 0.9994 0.0006000000000000004 0 0 0 0 0 0 0 0 0 0 0 0 0 0 0 0 0 0 0 0.9985000000000001 0.0015 0 0 0 0 0 0 0 0 0 0 0 0 0 0 0 0 0 0 0 0.9959 0.0041 0 0 0 0 0 0 0 0 0 0 0 0 0 0 0 0 0 0 0 0.989 0.011 0 0 0 0 0 0 0 0 0 0 0 0 0 0 0 0 0 0 0 0.9704 0.0293 0.0003 0 0 0 0 0 0 0 0 0 0 0 0 0 0 0 0 0 0 0.922 0.0757 0.0023 0 0 0 0 0 0 0 0 0 0 0 0 0 0 0 0 0 0 0.80518052 0.17971797 0.01470147 0.0004000400000000002 0 0 0 0 0 0 0 0 0 0 0 0 0 0 0 0 0 0.57035704 0.34593459 0.07720771999999999 0.006300630000000002 0.00020002 0 0 0 0 0 0 0 0 0 0 0 0 0 0 0 0 0.2570257 0.42384238 0.2570257 0.05730573 0.004700470000000002 0.00010001 0 0 0 0 0 0 0 0 0 0 0 0 0 0 0 0.0542 0.2431 0.4008 0.2431 0.0542 0.0045 0.0001 0 0 0 0 0 0 0 0 0 0 0 0 0 0 0.00440044 0.0540054 0.2420242 0.3990399 0.2420242 0.0540054 0.00440044 0.00010001 0 0 0 0 0 0 0 0 0 0 0 0 0 0.00010001 0.00440044 0.0540054 0.2420242 0.39893989 0.2420242 0.0540054 0.00440044 0.00010001 0 0 0 0 0 0 0 0 0 0 0 0 1 0 0 0 0 0 0 0 0 0 0 0 0 0 0 0 0 0 0 0 0 0.9999 0.0001 0 0 0 0 0 0 0 0 0 0 0 0 0 0 0 0 0 0 0 0.9998 0.0002 0 0 0 0 0 0 0 0 0 0 0 0 0 0 0 0 0 0 0 0.9994 0.0006000000000000004 0 0 0 0 0 0 0 0 0 0 0 0 0 0 0 0 0 0 0 0.9985000000000001 0.0015 0 0 0 0 0 0 0 0 0 0 0 0 0 0 0 0 0 0 0 0.9959 0.0041 0 0 0 0 0 0 0 0 0 0 0 0 0 0 0 0 0 0 0 0.989 0.011 0 0 0 0 0 0 0 0 0 0 0 0 0 0 0 0 0 0 0 0.9704 0.0293 0.0003 0 0 0 0 0 0 0 0 0 0 0 0 0 0 0 0 0 0 0.922 0.0757 0.0023 0 0 0 0 0 0 0 0 0 0 0 0 0 0 0 0 0 0 0.80518052 0.17971797 0.01470147 0.0004000400000000002 0 0 0 0 0 0 0 0 0 0 0 0 0 0 0 0 0 0.57035704 0.34593459 0.07720771999999999 0.006300630000000002 0.00020002 0 0 0 0 0 0 0 0 0 0 0 0 0 0 0 0 0.2570257 0.42384238 0.2570257 0.05730573 0.004700470000000002 0.00010001 0 0 0 0 0 0 0 0 0 0 0 0 0 0 0 0.0542 0.2431 0.4008 0.2431 0.0542 0.0045 0.0001 0 0 0 0 0 0 0 0 0 0 0 0 0 0 0.00440044 0.0540054 0.2420242 0.3990399 0.2420242 0.0540054 0.00440044 0.00010001 0 0 0 0 0 0 0 0 0 0 0 0 0 0.00010001 0.00440044 0.0540054 0.2420242 0.39893989 0.2420242 0.0540054 0.00440044 0.00010001 0 0 0 0 0 0 0 0 0 0 0 0 0 0.00010001 0.00440044 0.0540054 0.2420242 0.39893989 0.2420242 0.0540054 0.00440044 0.00010001 0 0 0 0 0 0 0 0 0 0 0 0.9999 0.0001 0 0 0 0 0 0 0 0 0 0 0 0 0 0 0 0 0 0 0 0.9998 0.0002 0 0 0 0 0 0 0 0 0 0 0 0 0 0 0 0 0 0 0 0.9994 0.0006000000000000004 0 0 0 0 0 0 0 0 0 0 0 0 0 0 0 0 0 0 0 0.9985000000000001 0.0015 0 0 0 0 0 0 0 0 0 0 0 0 0 0 0 0 0 0 0 0.9959 0.0041 0 0 0 0 0 0 0 0 0 0 0 0 0 0 0 0 0 0 0 0.989 0.011 0 0 0 0 0 0 0 0 0 0 0 0 0 0 0 0 0 0 0 0.9704 0.0293 0.0003 0 0 0 0 0 0 0 0 0 0 0 0 0 0 0 0 0 0 0.922 0.0757 0.0023 0 0 0 0 0 0 0 0 0 0 0 0 0 0 0 0 0 0 0.80518052 0.17971797 0.01470147 0.0004000400000000002 0 0 0 0 0 0 0 0 0 0 0 0 0 0 0 0 0 0.57035704 0.34593459 0.07720771999999999 0.006300630000000002 0.00020002 0 0 0 0 0 0 0 0 0 0 0 0 0 0 0 0 0.2570257 0.42384238 0.2570257 0.05730573 0.004700470000000002 0.00010001 0 0 0 0 0 0 0 0 0 0 0 0 0 0 0 0.0542 0.2431 0.4008 0.2431 0.0542 0.0045 0.0001 0 0 0 0 0 0 0 0 0 0 0 0 0 0 0.00440044 0.0540054 0.2420242 0.3990399 0.2420242 0.0540054 0.00440044 0.00010001 0 0 0 0 0 0 0 0 0 0 0 0 0 0.00010001 0.00440044 0.0540054 0.2420242 0.39893989 0.2420242 0.0540054 0.00440044 0.00010001 0 0 0 0 0 0 0 0 0 0 0 0 0 0.00010001 0.00440044 0.0540054 0.2420242 0.39893989 0.2420242 0.0540054 0.00440044 0.00010001 0 0 0 0 0 0 0 0 0 0 0 0 0 0.00010001 0.00440044 0.0540054 0.2420242 0.39893989 0.2420242 0.0540054 0.00440044 0.00010001 0 0 0 0 0 0 0 0 0 0 0.9998 0.0002 0 0 0 0 0 0 0 0 0 0 0 0 0 0 0 0 0 0 0 0.9994 0.0006000000000000004 0 0 0 0 0 0 0 0 0 0 0 0 0 0 0 0 0 0 0 0.9985000000000001 0.0015 0 0 0 0 0 0 0 0 0 0 0 0 0 0 0 0 0 0 0 0.9959 0.0041 0 0 0 0 0 0 0 0 0 0 0 0 0 0 0 0 0 0 0 0.989 0.011 0 0 0 0 0 0 0 0 0 0 0 0 0 0 0 0 0 0 0 0.9704 0.0293 0.0003 0 0 0 0 0 0 0 0 0 0 0 0 0 0 0 0 0 0 0.922 0.0757 0.0023 0 0 0 0 0 0 0 0 0 0 0 0 0 0 0 0 0 0 0.80518052 0.17971797 0.01470147 0.0004000400000000002 0 0 0 0 0 0 0 0 0 0 0 0 0 0 0 0 0 0.57035704 0.34593459 0.07720771999999999 0.006300630000000002 0.00020002 0 0 0 0 0 0 0 0 0 0 0 0 0 0 0 0 0.2570257 0.42384238 0.2570257 0.05730573 0.004700470000000002 0.00010001 0 0 0 0 0 0 0 0 0 0 0 0 0 0 0 0.0542 0.2431 0.4008 0.2431 0.0542 0.0045 0.0001 0 0 0 0 0 0 0 0 0 0 0 0 0 0 0.00440044 0.0540054 0.2420242 0.3990399 0.2420242 0.0540054 0.00440044 0.00010001 0 0 0 0 0 0 0 0 0 0 0 0 0 0.00010001 0.00440044 0.0540054 0.2420242 0.39893989 0.2420242 0.0540054 0.00440044 0.00010001 0 0 0 0 0 0 0 0 0 0 0 0 0 0.00010001 0.00440044 0.0540054 0.2420242 0.39893989 0.2420242 0.0540054 0.00440044 0.00010001 0 0 0 0 0 0 0 0 0 0 0 0 0 0.00010001 0.00440044 0.0540054 0.2420242 0.39893989 0.2420242 0.0540054 0.00440044 0.00010001 0 0 0 0 0 0 0 0 0 0 0 0 0 0.00010001 0.00440044 0.0540054 0.2420242 0.39893989 0.2420242 0.0540054 0.00440044 0.00010001 0 0 0 0 0 0 0 0 0 0.9994 0.0006000000000000004 0 0 0 0 0 0 0 0 0 0 0 0 0 0 0 0 0 0 0 0.9985000000000001 0.0015 0 0 0 0 0 0 0 0 0 0 0 0 0 0 0 0 0 0 0 0.9959 0.0041 0 0 0 0 0 0 0 0 0 0 0 0 0 0 0 0 0 0 0 0.989 0.011 0 0 0 0 0 0 0 0 0 0 0 0 0 0 0 0 0 0 0 0.9704 0.0293 0.0003 0 0 0 0 0 0 0 0 0 0 0 0 0 0 0 0 0 0 0.922 0.0757 0.0023 0 0 0 0 0 0 0 0 0 0 0 0 0 0 0 0 0 0 0.80518052 0.17971797 0.01470147 0.0004000400000000002 0 0 0 0 0 0 0 0 0 0 0 0 0 0 0 0 0 0.57035704 0.34593459 0.07720771999999999 0.006300630000000002 0.00020002 0 0 0 0 0 0 0 0 0 0 0 0 0 0 0 0 0.2570257 0.42384238 0.2570257 0.05730573 0.004700470000000002 0.00010001 0 0 0 0 0 0 0 0 0 0 0 0 0 0 0 0.0542 0.2431 0.4008 0.2431 0.0542 0.0045 0.0001 0 0 0 0 0 0 0 0 0 0 0 0 0 0 0.00440044 0.0540054 0.2420242 0.3990399 0.2420242 0.0540054 0.00440044 0.00010001 0 0 0 0 0 0 0 0 0 0 0 0 0 0.00010001 0.00440044 0.0540054 0.2420242 0.39893989 0.2420242 0.0540054 0.00440044 0.00010001 0 0 0 0 0 0 0 0 0 0 0 0 0 0.00010001 0.00440044 0.0540054 0.2420242 0.39893989 0.2420242 0.0540054 0.00440044 0.00010001 0 0 0 0 0 0 0 0 0 0 0 0 0 0.00010001 0.00440044 0.0540054 0.2420242 0.39893989 0.2420242 0.0540054 0.00440044 0.00010001 0 0 0 0 0 0 0 0 0 0 0 0 0 0.00010001 0.00440044 0.0540054 0.2420242 0.39893989 0.2420242 0.0540054 0.00440044 0.00010001 0 0 0 0 0 0 0 0 0 0 0 0 0 0.00010001 0.00440044 0.0540054 0.2420242 0.39893989 0.2420242 0.0540054 0.00440044 0.00010001 0 0 0 0 0 0 0 0 0.9985000000000001 0.0015 0 0 0 0 0 0 0 0 0 0 0 0 0 0 0 0 0 0 0 0.9959 0.0041 0 0 0 0 0 0 0 0 0 0 0 0 0 0 0 0 0 0 0 0.989 0.011 0 0 0 0 0 0 0 0 0 0 0 0 0 0 0 0 0 0 0 0.9704 0.0293 0.0003 0 0 0 0 0 0 0 0 0 0 0 0 0 0 0 0 0 0 0.922 0.0757 0.0023 0 0 0 0 0 0 0 0 0 0 0 0 0 0 0 0 0 0 0.80518052 0.17971797 0.01470147 0.0004000400000000002 0 0 0 0 0 0 0 0 0 0 0 0 0 0 0 0 0 0.57035704 0.34593459 0.07720771999999999 0.006300630000000002 0.00020002 0 0 0 0 0 0 0 0 0 0 0 0 0 0 0 0 0.2570257 0.42384238 0.2570257 0.05730573 0.004700470000000002 0.00010001 0 0 0 0 0 0 0 0 0 0 0 0 0 0 0 0.0542 0.2431 0.4008 0.2431 0.0542 0.0045 0.0001 0 0 0 0 0 0 0 0 0 0 0 0 0 0 0.00440044 0.0540054 0.2420242 0.3990399 0.2420242 0.0540054 0.00440044 0.00010001 0 0 0 0 0 0 0 0 0 0 0 0 0 0.00010001 0.00440044 0.0540054 0.2420242 0.39893989 0.2420242 0.0540054 0.00440044 0.00010001 0 0 0 0 0 0 0 0 0 0 0 0 0 0.00010001 0.00440044 0.0540054 0.2420242 0.39893989 0.2420242 0.0540054 0.00440044 0.00010001 0 0 0 0 0 0 0 0 0 0 0 0 0 0.00010001 0.00440044 0.0540054 0.2420242 0.39893989 0.2420242 0.0540054 0.00440044 0.00010001 0 0 0 0 0 0 0 0 0 0 0 0 0 0.00010001 0.00440044 0.0540054 0.2420242 0.39893989 0.2420242 0.0540054 0.00440044 0.00010001 0 0 0 0 0 0 0 0 0 0 0 0 0 0.00010001 0.00440044 0.0540054 0.2420242 0.39893989 0.2420242 0.0540054 0.00440044 0.00010001 0 0 0 0 0 0 0 0 0 0 0 0 0 0.00010001 0.00440044 0.0540054 0.2420242 0.39893989 0.2420242 0.0540054 0.00440044 0.00010001 0 0 0 0 0 0 0 0.9959 0.0041 0 0 0 0 0 0 0 0 0 0 0 0 0 0 0 0 0 0 0 0.989 0.011 0 0 0 0 0 0 0 0 0 0 0 0 0 0 0 0 0 0 0 0.9704 0.0293 0.0003 0 0 0 0 0 0 0 0 0 0 0 0 0 0 0 0 0 0 0.922 0.0757 0.0023 0 0 0 0 0 0 0 0 0 0 0 0 0 0 0 0 0 0 0.80518052 0.17971797 0.01470147 0.0004000400000000002 0 0 0 0 0 0 0 0 0 0 0 0 0 0 0 0 0 0.57035704 0.34593459 0.07720771999999999 0.006300630000000002 0.00020002 0 0 0 0 0 0 0 0 0 0 0 0 0 0 0 0 0.2570257 0.42384238 0.2570257 0.05730573 0.004700470000000002 0.00010001 0 0 0 0 0 0 0 0 0 0 0 0 0 0 0 0.0542 0.2431 0.4008 0.2431 0.0542 0.0045 0.0001 0 0 0 0 0 0 0 0 0 0 0 0 0 0 0.00440044 0.0540054 0.2420242 0.3990399 0.2420242 0.0540054 0.00440044 0.00010001 0 0 0 0 0 0 0 0 0 0 0 0 0 0.00010001 0.00440044 0.0540054 0.2420242 0.39893989 0.2420242 0.0540054 0.00440044 0.00010001 0 0 0 0 0 0 0 0 0 0 0 0 0 0.00010001 0.00440044 0.0540054 0.2420242 0.39893989 0.2420242 0.0540054 0.00440044 0.00010001 0 0 0 0 0 0 0 0 0 0 0 0 0 0.00010001 0.00440044 0.0540054 0.2420242 0.39893989 0.2420242 0.0540054 0.00440044 0.00010001 0 0 0 0 0 0 0 0 0 0 0 0 0 0.00010001 0.00440044 0.0540054 0.2420242 0.39893989 0.2420242 0.0540054 0.00440044 0.00010001 0 0 0 0 0 0 0 0 0 0 0 0 0 0.00010001 0.00440044 0.0540054 0.2420242 0.39893989 0.2420242 0.0540054 0.00440044 0.00010001 0 0 0 0 0 0 0 0 0 0 0 0 0 0.00010001 0.00440044 0.0540054 0.2420242 0.39893989 0.2420242 0.0540054 0.00440044 0.00010001 0 0 0 0 0 0 0 0 0 0 0 0 0 0.00010001 0.00440044 0.0540054 0.2420242 0.39893989 0.2420242 0.0540054 0.00440044 0.00010001 0 0 0 0 0 0 0.989 0.011 0 0 0 0 0 0 0 0 0 0 0 0 0 0 0 0 0 0 0 0.9704 0.0293 0.0003 0 0 0 0 0 0 0 0 0 0 0 0 0 0 0 0 0 0 0.922 0.0757 0.0023 0 0 0 0 0 0 0 0 0 0 0 0 0 0 0 0 0 0 0.80518052 0.17971797 0.01470147 0.0004000400000000002 0 0 0 0 0 0 0 0 0 0 0 0 0 0 0 0 0 0.57035704 0.34593459 0.07720771999999999 0.006300630000000002 0.00020002 0 0 0 0 0 0 0 0 0 0 0 0 0 0 0 0 0.2570257 0.42384238 0.2570257 0.05730573 0.004700470000000002 0.00010001 0 0 0 0 0 0 0 0 0 0 0 0 0 0 0 0.0542 0.2431 0.4008 0.2431 0.0542 0.0045 0.0001 0 0 0 0 0 0 0 0 0 0 0 0 0 0 0.00440044 0.0540054 0.2420242 0.3990399 0.2420242 0.0540054 0.00440044 0.00010001 0 0 0 0 0 0 0 0 0 0 0 0 0 0.00010001 0.00440044 0.0540054 0.2420242 0.39893989 0.2420242 0.0540054 0.00440044 0.00010001 0 0 0 0 0 0 0 0 0 0 0 0 0 0.00010001 0.00440044 0.0540054 0.2420242 0.39893989 0.2420242 0.0540054 0.00440044 0.00010001 0 0 0 0 0 0 0 0 0 0 0 0 0 0.00010001 0.00440044 0.0540054 0.2420242 0.39893989 0.2420242 0.0540054 0.00440044 0.00010001 0 0 0 0 0 0 0 0 0 0 0 0 0 0.00010001 0.00440044 0.0540054 0.2420242 0.39893989 0.2420242 0.0540054 0.00440044 0.00010001 0 0 0 0 0 0 0 0 0 0 0 0 0 0.00010001 0.00440044 0.0540054 0.2420242 0.39893989 0.2420242 0.0540054 0.00440044 0.00010001 0 0 0 0 0 0 0 0 0 0 0 0 0 0.00010001 0.00440044 0.0540054 0.2420242 0.39893989 0.2420242 0.0540054 0.00440044 0.00010001 0 0 0 0 0 0 0 0 0 0 0 0 0 0.00010001 0.00440044 0.0540054 0.2420242 0.39893989 0.2420242 0.0540054 0.00440044 0.00010001 0 0 0 0 0 0 0 0 0 0 0 0 0 0.00010001 0.00440044 0.0540054 0.2420242 0.39893989 0.2420242 0.0540054 0.00440044 0.00010001 0 0 0 0 0 0.9704 0.0293 0.0003 0 0 0 0 0 0 0 0 0 0 0 0 0 0 0 0 0 0 0.922 0.0757 0.0023 0 0 0 0 0 0 0 0 0 0 0 0 0 0 0 0 0 0 0.80518052 0.17971797 0.01470147 0.0004000400000000002 0 0 0 0 0 0 0 0 0 0 0 0 0 0 0 0 0 0.57035704 0.34593459 0.07720771999999999 0.006300630000000002 0.00020002 0 0 0 0 0 0 0 0 0 0 0 0 0 0 0 0 0.2570257 0.42384238 0.2570257 0.05730573 0.004700470000000002 0.00010001 0 0 0 0 0 0 0 0 0 0 0 0 0 0 0 0.0542 0.2431 0.4008 0.2431 0.0542 0.0045 0.0001 0 0 0 0 0 0 0 0 0 0 0 0 0 0 0.00440044 0.0540054 0.2420242 0.3990399 0.2420242 0.0540054 0.00440044 0.00010001 0 0 0 0 0 0 0 0 0 0 0 0 0 0.00010001 0.00440044 0.0540054 0.2420242 0.39893989 0.2420242 0.0540054 0.00440044 0.00010001 0 0 0 0 0 0 0 0 0 0 0 0 0 0.00010001 0.00440044 0.0540054 0.2420242 0.39893989 0.2420242 0.0540054 0.00440044 0.00010001 0 0 0 0 0 0 0 0 0 0 0 0 0 0.00010001 0.00440044 0.0540054 0.2420242 0.39893989 0.2420242 0.0540054 0.00440044 0.00010001 0 0 0 0 0 0 0 0 0 0 0 0 0 0.00010001 0.00440044 0.0540054 0.2420242 0.39893989 0.2420242 0.0540054 0.00440044 0.00010001 0 0 0 0 0 0 0 0 0 0 0 0 0 0.00010001 0.00440044 0.0540054 0.2420242 0.39893989 0.2420242 0.0540054 0.00440044 0.00010001 0 0 0 0 0 0 0 0 0 0 0 0 0 0.00010001 0.00440044 0.0540054 0.2420242 0.39893989 0.2420242 0.0540054 0.00440044 0.00010001 0 0 0 0 0 0 0 0 0 0 0 0 0 0.00010001 0.00440044 0.0540054 0.2420242 0.39893989 0.2420242 0.0540054 0.00440044 0.00010001 0 0 0 0 0 0 0 0 0 0 0 0 0 0.00010001 0.00440044 0.0540054 0.2420242 0.39893989 0.2420242 0.0540054 0.00440044 0.00010001 0 0 0 0 0 0 0 0 0 0 0 0 0 0.00010001 0.00440044 0.0540054 0.2420242 0.39893989 0.2420242 0.0540054 0.00440044 0.00010001 0 0 0 0 0.922 0.0757 0.0023 0 0 0 0 0 0 0 0 0 0 0 0 0 0 0 0 0 0 0.80518052 0.17971797 0.01470147 0.0004000400000000002 0 0 0 0 0 0 0 0 0 0 0 0 0 0 0 0 0 0.57035704 0.34593459 0.07720771999999999 0.006300630000000002 0.00020002 0 0 0 0 0 0 0 0 0 0 0 0 0 0 0 0 0.2570257 0.42384238 0.2570257 0.05730573 0.004700470000000002 0.00010001 0 0 0 0 0 0 0 0 0 0 0 0 0 0 0 0.0542 0.2431 0.4008 0.2431 0.0542 0.0045 0.0001 0 0 0 0 0 0 0 0 0 0 0 0 0 0 0.00440044 0.0540054 0.2420242 0.3990399 0.2420242 0.0540054 0.00440044 0.00010001 0 0 0 0 0 0 0 0 0 0 0 0 0 0.00010001 0.00440044 0.0540054 0.2420242 0.39893989 0.2420242 0.0540054 0.00440044 0.00010001 0 0 0 0 0 0 0 0 0 0 0 0 0 0.00010001 0.00440044 0.0540054 0.2420242 0.39893989 0.2420242 0.0540054 0.00440044 0.00010001 0 0 0 0 0 0 0 0 0 0 0 0 0 0.00010001 0.00440044 0.0540054 0.2420242 0.39893989 0.2420242 0.0540054 0.00440044 0.00010001 0 0 0 0 0 0 0 0 0 0 0 0 0 0.00010001 0.00440044 0.0540054 0.2420242 0.39893989 0.2420242 0.0540054 0.00440044 0.00010001 0 0 0 0 0 0 0 0 0 0 0 0 0 0.00010001 0.00440044 0.0540054 0.2420242 0.39893989 0.2420242 0.0540054 0.00440044 0.00010001 0 0 0 0 0 0 0 0 0 0 0 0 0 0.00010001 0.00440044 0.0540054 0.2420242 0.39893989 0.2420242 0.0540054 0.00440044 0.00010001 0 0 0 0 0 0 0 0 0 0 0 0 0 0.00010001 0.00440044 0.0540054 0.2420242 0.39893989 0.2420242 0.0540054 0.00440044 0.00010001 0 0 0 0 0 0 0 0 0 0 0 0 0 0.00010001 0.00440044 0.0540054 0.2420242 0.39893989 0.2420242 0.0540054 0.00440044 0.00010001 0 0 0 0 0 0 0 0 0 0 0 0 0 0.00010001 0.00440044 0.0540054 0.2420242 0.39893989 0.2420242 0.0540054 0.00440044 0.00010001 0 0 0 0 0 0 0 0 0 0 0 0 0 0.00010001 0.00440044 0.0540054 0.2420242 0.39893989 0.2420242 0.0540054 0.00440044 0.00010001 0 0 0 0.80518052 0.17971797 0.01470147 0.0004000400000000002 0 0 0 0 0 0 0 0 0 0 0 0 0 0 0 0 0 0.57035704 0.34593459 0.07720771999999999 0.006300630000000002 0.00020002 0 0 0 0 0 0 0 0 0 0 0 0 0 0 0 0 0.2570257 0.42384238 0.2570257 0.05730573 0.004700470000000002 0.00010001 0 0 0 0 0 0 0 0 0 0 0 0 0 0 0 0.0542 0.2431 0.4008 0.2431 0.0542 0.0045 0.0001 0 0 0 0 0 0 0 0 0 0 0 0 0 0 0.00440044 0.0540054 0.2420242 0.3990399 0.2420242 0.0540054 0.00440044 0.00010001 0 0 0 0 0 0 0 0 0 0 0 0 0 0.00010001 0.00440044 0.0540054 0.2420242 0.39893989 0.2420242 0.0540054 0.00440044 0.00010001 0 0 0 0 0 0 0 0 0 0 0 0 0 0.00010001 0.00440044 0.0540054 0.2420242 0.39893989 0.2420242 0.0540054 0.00440044 0.00010001 0 0 0 0 0 0 0 0 0 0 0 0 0 0.00010001 0.00440044 0.0540054 0.2420242 0.39893989 0.2420242 0.0540054 0.00440044 0.00010001 0 0 0 0 0 0 0 0 0 0 0 0 0 0.00010001 0.00440044 0.0540054 0.2420242 0.39893989 0.2420242 0.0540054 0.00440044 0.00010001 0 0 0 0 0 0 0 0 0 0 0 0 0 0.00010001 0.00440044 0.0540054 0.2420242 0.39893989 0.2420242 0.0540054 0.00440044 0.00010001 0 0 0 0 0 0 0 0 0 0 0 0 0 0.00010001 0.00440044 0.0540054 0.2420242 0.39893989 0.2420242 0.0540054 0.00440044 0.00010001 0 0 0 0 0 0 0 0 0 0 0 0 0 0.00010001 0.00440044 0.0540054 0.2420242 0.39893989 0.2420242 0.0540054 0.00440044 0.00010001 0 0 0 0 0 0 0 0 0 0 0 0 0 0.00010001 0.00440044 0.0540054 0.2420242 0.39893989 0.2420242 0.0540054 0.00440044 0.00010001 0 0 0 0 0 0 0 0 0 0 0 0 0 0.00010001 0.00440044 0.0540054 0.2420242 0.39893989 0.2420242 0.0540054 0.00440044 0.00010001 0 0 0 0 0 0 0 0 0 0 0 0 0 0.00010001 0.00440044 0.0540054 0.2420242 0.39893989 0.2420242 0.0540054 0.00440044 0.00010001 0 0 0 0 0 0 0 0 0 0 0 0 0 0.00010001 0.00440044 0.0540054 0.2420242 0.39893989 0.2420242 0.0540054 0.00440044 0.00010001 0 0 0.57035704 0.34593459 0.07720771999999999 0.006300630000000002 0.00020002 0 0 0 0 0 0 0 0 0 0 0 0 0 0 0 0 0.2570257 0.42384238 0.2570257 0.05730573 0.004700470000000002 0.00010001 0 0 0 0 0 0 0 0 0 0 0 0 0 0 0 0.0542 0.2431 0.4008 0.2431 0.0542 0.0045 0.0001 0 0 0 0 0 0 0 0 0 0 0 0 0 0 0.00440044 0.0540054 0.2420242 0.3990399 0.2420242 0.0540054 0.00440044 0.00010001 0 0 0 0 0 0 0 0 0 0 0 0 0 0.00010001 0.00440044 0.0540054 0.2420242 0.39893989 0.2420242 0.0540054 0.00440044 0.00010001 0 0 0 0 0 0 0 0 0 0 0 0 0 0.00010001 0.00440044 0.0540054 0.2420242 0.39893989 0.2420242 0.0540054 0.00440044 0.00010001 0 0 0 0 0 0 0 0 0 0 0 0 0 0.00010001 0.00440044 0.0540054 0.2420242 0.39893989 0.2420242 0.0540054 0.00440044 0.00010001 0 0 0 0 0 0 0 0 0 0 0 0 0 0.00010001 0.00440044 0.0540054 0.2420242 0.39893989 0.2420242 0.0540054 0.00440044 0.00010001 0 0 0 0 0 0 0 0 0 0 0 0 0 0.00010001 0.00440044 0.0540054 0.2420242 0.39893989 0.2420242 0.0540054 0.00440044 0.00010001 0 0 0 0 0 0 0 0 0 0 0 0 0 0.00010001 0.00440044 0.0540054 0.2420242 0.39893989 0.2420242 0.0540054 0.00440044 0.00010001 0 0 0 0 0 0 0 0 0 0 0 0 0 0.00010001 0.00440044 0.0540054 0.2420242 0.39893989 0.2420242 0.0540054 0.00440044 0.00010001 0 0 0 0 0 0 0 0 0 0 0 0 0 0.00010001 0.00440044 0.0540054 0.2420242 0.39893989 0.2420242 0.0540054 0.00440044 0.00010001 0 0 0 0 0 0 0 0 0 0 0 0 0 0.00010001 0.00440044 0.0540054 0.2420242 0.39893989 0.2420242 0.0540054 0.00440044 0.00010001 0 0 0 0 0 0 0 0 0 0 0 0 0 0.00010001 0.00440044 0.0540054 0.2420242 0.39893989 0.2420242 0.0540054 0.00440044 0.00010001 0 0 0 0 0 0 0 0 0 0 0 0 0 0.00010001 0.00440044 0.0540054 0.2420242 0.39893989 0.2420242 0.0540054 0.00440044 0.00010001 0 0 0 0 0 0 0 0 0 0 0 0 0 0.00010001 0.00440044 0.0540054 0.2420242 0.39893989 0.2420242 0.0540054 0.00440044 0.00010001 0 0.2570257 0.42384238 0.2570257 0.05730573 0.004700470000000002 0.00010001 0 0 0 0 0 0 0 0 0 0 0 0 0 0 0 0.0542 0.2431 0.4008 0.2431 0.0542 0.0045 0.0001 0 0 0 0 0 0 0 0 0 0 0 0 0 0 0.00440044 0.0540054 0.2420242 0.3990399 0.2420242 0.0540054 0.00440044 0.00010001 0 0 0 0 0 0 0 0 0 0 0 0 0 0.00010001 0.00440044 0.0540054 0.2420242 0.39893989 0.2420242 0.0540054 0.00440044 0.00010001 0 0 0 0 0 0 0 0 0 0 0 0 0 0.00010001 0.00440044 0.0540054 0.2420242 0.39893989 0.2420242 0.0540054 0.00440044 0.00010001 0 0 0 0 0 0 0 0 0 0 0 0 0 0.00010001 0.00440044 0.0540054 0.2420242 0.39893989 0.2420242 0.0540054 0.00440044 0.00010001 0 0 0 0 0 0 0 0 0 0 0 0 0 0.00010001 0.00440044 0.0540054 0.2420242 0.39893989 0.2420242 0.0540054 0.00440044 0.00010001 0 0 0 0 0 0 0 0 0 0 0 0 0 0.00010001 0.00440044 0.0540054 0.2420242 0.39893989 0.2420242 0.0540054 0.00440044 0.00010001 0 0 0 0 0 0 0 0 0 0 0 0 0 0.00010001 0.00440044 0.0540054 0.2420242 0.39893989 0.2420242 0.0540054 0.00440044 0.00010001 0 0 0 0 0 0 0 0 0 0 0 0 0 0.00010001 0.00440044 0.0540054 0.2420242 0.39893989 0.2420242 0.0540054 0.00440044 0.00010001 0 0 0 0 0 0 0 0 0 0 0 0 0 0.00010001 0.00440044 0.0540054 0.2420242 0.39893989 0.2420242 0.0540054 0.00440044 0.00010001 0 0 0 0 0 0 0 0 0 0 0 0 0 0.00010001 0.00440044 0.0540054 0.2420242 0.39893989 0.2420242 0.0540054 0.00440044 0.00010001 0 0 0 0 0 0 0 0 0 0 0 0 0 0.00010001 0.00440044 0.0540054 0.2420242 0.39893989 0.2420242 0.0540054 0.00440044 0.00010001 0 0 0 0 0 0 0 0 0 0 0 0 0 0.00010001 0.00440044 0.0540054 0.2420242 0.39893989 0.2420242 0.0540054 0.00440044 0.00010001 0 0 0 0 0 0 0 0 0 0 0 0 0 0.00010001 0.00440044 0.0540054 0.2420242 0.39893989 0.2420242 0.0540054 0.00440044 0.00010001 0 0 0 0 0 0 0 0 0 0 0 0 0 0.00010001 0.00440044 0.0540054 0.2420242 0.39893989 0.2420242 0.0540054 0.00440044 0.00010001 0.0542 0.2431 0.4008 0.2431 0.0542 0.0045 0.0001 0 0 0 0 0 0 0 0 0 0 0 0 0 0 0.00440044 0.0540054 0.2420242 0.3990399 0.2420242 0.0540054 0.00440044 0.00010001 0 0 0 0 0 0 0 0 0 0 0 0 0 0.00010001 0.00440044 0.0540054 0.2420242 0.39893989 0.2420242 0.0540054 0.00440044 0.00010001 0 0 0 0 0 0 0 0 0 0 0 0 0 0.00010001 0.00440044 0.0540054 0.2420242 0.39893989 0.2420242 0.0540054 0.00440044 0.00010001 0 0 0 0 0 0 0 0 0 0 0 0 0 0.00010001 0.00440044 0.0540054 0.2420242 0.39893989 0.2420242 0.0540054 0.00440044 0.00010001 0 0 0 0 0 0 0 0 0 0 0 0 0 0.00010001 0.00440044 0.0540054 0.2420242 0.39893989 0.2420242 0.0540054 0.00440044 0.00010001 0 0 0 0 0 0 0 0 0 0 0 0 0 0.00010001 0.00440044 0.0540054 0.2420242 0.39893989 0.2420242 0.0540054 0.00440044 0.00010001 0 0 0 0 0 0 0 0 0 0 0 0 0 0.00010001 0.00440044 0.0540054 0.2420242 0.39893989 0.2420242 0.0540054 0.00440044 0.00010001 0 0 0 0 0 0 0 0 0 0 0 0 0 0.00010001 0.00440044 0.0540054 0.2420242 0.39893989 0.2420242 0.0540054 0.00440044 0.00010001 0 0 0 0 0 0 0 0 0 0 0 0 0 0.00010001 0.00440044 0.0540054 0.2420242 0.39893989 0.2420242 0.0540054 0.00440044 0.00010001 0 0 0 0 0 0 0 0 0 0 0 0 0 0.00010001 0.00440044 0.0540054 0.2420242 0.39893989 0.2420242 0.0540054 0.00440044 0.00010001 0 0 0 0 0 0 0 0 0 0 0 0 0 0.00010001 0.00440044 0.0540054 0.2420242 0.39893989 0.2420242 0.0540054 0.00440044 0.00010001 0 0 0 0 0 0 0 0 0 0 0 0 0 0.00010001 0.00440044 0.0540054 0.2420242 0.39893989 0.2420242 0.0540054 0.00440044 0.00010001 0 0 0 0 0 0 0 0 0 0 0 0 0 0.00010001 0.00440044 0.0540054 0.2420242 0.39893989 0.2420242 0.0540054 0.00440044 0.00010001 0 0 0 0 0 0 0 0 0 0 0 0 0 0.00010001 0.00440044 0.0540054 0.2420242 0.39893989 0.2420242 0.0540054 0.00440044 0.00010001 0 0 0 0 0 0 0 0 0 0 0 0 0 0.00010001 0.00440044 0.0540054 0.2420242 0.3990399 0.2420242 0.0540054 0.00440044 0.00440044 0.0540054 0.2420242 0.3990399 0.2420242 0.0540054 0.00440044 0.00010001 0 0 0 0 0 0 0 0 0 0 0 0 0 0.00010001 0.00440044 0.0540054 0.2420242 0.39893989 0.2420242 0.0540054 0.00440044 0.00010001 0 0 0 0 0 0 0 0 0 0 0 0 0 0.00010001 0.00440044 0.0540054 0.2420242 0.39893989 0.2420242 0.0540054 0.00440044 0.00010001 0 0 0 0 0 0 0 0 0 0 0 0 0 0.00010001 0.00440044 0.0540054 0.2420242 0.39893989 0.2420242 0.0540054 0.00440044 0.00010001 0 0 0 0 0 0 0 0 0 0 0 0 0 0.00010001 0.00440044 0.0540054 0.2420242 0.39893989 0.2420242 0.0540054 0.00440044 0.00010001 0 0 0 0 0 0 0 0 0 0 0 0 0 0.00010001 0.00440044 0.0540054 0.2420242 0.39893989 0.2420242 0.0540054 0.00440044 0.00010001 0 0 0 0 0 0 0 0 0 0 0 0 0 0.00010001 0.00440044 0.0540054 0.2420242 0.39893989 0.2420242 0.0540054 0.00440044 0.00010001 0 0 0 0 0 0 0 0 0 0 0 0 0 0.00010001 0.00440044 0.0540054 0.2420242 0.39893989 0.2420242 0.0540054 0.00440044 0.00010001 0 0 0 0 0 0 0 0 0 0 0 0 0 0.00010001 0.00440044 0.0540054 0.2420242 0.39893989 0.2420242 0.0540054 0.00440044 0.00010001 0 0 0 0 0 0 0 0 0 0 0 0 0 0.00010001 0.00440044 0.0540054 0.2420242 0.39893989 0.2420242 0.0540054 0.00440044 0.00010001 0 0 0 0 0 0 0 0 0 0 0 0 0 0.00010001 0.00440044 0.0540054 0.2420242 0.39893989 0.2420242 0.0540054 0.00440044 0.00010001 0 0 0 0 0 0 0 0 0 0 0 0 0 0.00010001 0.00440044 0.0540054 0.2420242 0.39893989 0.2420242 0.0540054 0.00440044 0.00010001 0 0 0 0 0 0 0 0 0 0 0 0 0 0.00010001 0.00440044 0.0540054 0.2420242 0.39893989 0.2420242 0.0540054 0.00440044 0.00010001 0 0 0 0 0 0 0 0 0 0 0 0 0 0.00010001 0.00440044 0.0540054 0.2420242 0.39893989 0.2420242 0.0540054 0.00440044 0.00010001 0 0 0 0 0 0 0 0 0 0 0 0 0 0.00010001 0.00440044 0.0540054 0.2420242 0.3990399 0.2420242 0.0540054 0.00440044 0 0 0 0 0 0 0 0 0 0 0 0 0 0 0.0001 0.0045 0.0542 0.2431 0.4008 0.2431 0.0542 0.00010001 0.00440044 0.0540054 0.2420242 0.39893989 0.2420242 0.0540054 0.00440044 0.00010001 0 0 0 0 0 0 0 0 0 0 0 0 0 0.00010001 0.00440044 0.0540054 0.2420242 0.39893989 0.2420242 0.0540054 0.00440044 0.00010001 0 0 0 0 0 0 0 0 0 0 0 0 0 0.00010001 0.00440044 0.0540054 0.2420242 0.39893989 0.2420242 0.0540054 0.00440044 0.00010001 0 0 0 0 0 0 0 0 0 0 0 0 0 0.00010001 0.00440044 0.0540054 0.2420242 0.39893989 0.2420242 0.0540054 0.00440044 0.00010001 0 0 0 0 0 0 0 0 0 0 0 0 0 0.00010001 0.00440044 0.0540054 0.2420242 0.39893989 0.2420242 0.0540054 0.00440044 0.00010001 0 0 0 0 0 0 0 0 0 0 0 0 0 0.00010001 0.00440044 0.0540054 0.2420242 0.39893989 0.2420242 0.0540054 0.00440044 0.00010001 0 0 0 0 0 0 0 0 0 0 0 0 0 0.00010001 0.00440044 0.0540054 0.2420242 0.39893989 0.2420242 0.0540054 0.00440044 0.00010001 0 0 0 0 0 0 0 0 0 0 0 0 0 0.00010001 0.00440044 0.0540054 0.2420242 0.39893989 0.2420242 0.0540054 0.00440044 0.00010001 0 0 0 0 0 0 0 0 0 0 0 0 0 0.00010001 0.00440044 0.0540054 0.2420242 0.39893989 0.2420242 0.0540054 0.00440044 0.00010001 0 0 0 0 0 0 0 0 0 0 0 0 0 0.00010001 0.00440044 0.0540054 0.2420242 0.39893989 0.2420242 0.0540054 0.00440044 0.00010001 0 0 0 0 0 0 0 0 0 0 0 0 0 0.00010001 0.00440044 0.0540054 0.2420242 0.39893989 0.2420242 0.0540054 0.00440044 0.00010001 0 0 0 0 0 0 0 0 0 0 0 0 0 0.00010001 0.00440044 0.0540054 0.2420242 0.39893989 0.2420242 0.0540054 0.00440044 0.00010001 0 0 0 0 0 0 0 0 0 0 0 0 0 0.00010001 0.00440044 0.0540054 0.2420242 0.39893989 0.2420242 0.0540054 0.00440044 0.00010001 0 0 0 0 0 0 0 0 0 0 0 0 0 0.00010001 0.00440044 0.0540054 0.2420242 0.3990399 0.2420242 0.0540054 0.00440044 0 0 0 0 0 0 0 0 0 0 0 0 0 0 0.0001 0.0045 0.0542 0.2431 0.4008 0.2431 0.0542 0 0 0 0 0 0 0 0 0 0 0 0 0 0 0 0.00010001 0.004700470000000002 0.05730573 0.2570257 0.42384238 0.2570257 0 0.00010001 0.00440044 0.0540054 0.2420242 0.39893989 0.2420242 0.0540054 0.00440044 0.00010001 0 0 0 0 0 0 0 0 0 0 0 0 0 0.00010001 0.00440044 0.0540054 0.2420242 0.39893989 0.2420242 0.0540054 0.00440044 0.00010001 0 0 0 0 0 0 0 0 0 0 0 0 0 0.00010001 0.00440044 0.0540054 0.2420242 0.39893989 0.2420242 0.0540054 0.00440044 0.00010001 0 0 0 0 0 0 0 0 0 0 0 0 0 0.00010001 0.00440044 0.0540054 0.2420242 0.39893989 0.2420242 0.0540054 0.00440044 0.00010001 0 0 0 0 0 0 0 0 0 0 0 0 0 0.00010001 0.00440044 0.0540054 0.2420242 0.39893989 0.2420242 0.0540054 0.00440044 0.00010001 0 0 0 0 0 0 0 0 0 0 0 0 0 0.00010001 0.00440044 0.0540054 0.2420242 0.39893989 0.2420242 0.0540054 0.00440044 0.00010001 0 0 0 0 0 0 0 0 0 0 0 0 0 0.00010001 0.00440044 0.0540054 0.2420242 0.39893989 0.2420242 0.0540054 0.00440044 0.00010001 0 0 0 0 0 0 0 0 0 0 0 0 0 0.00010001 0.00440044 0.0540054 0.2420242 0.39893989 0.2420242 0.0540054 0.00440044 0.00010001 0 0 0 0 0 0 0 0 0 0 0 0 0 0.00010001 0.00440044 0.0540054 0.2420242 0.39893989 0.2420242 0.0540054 0.00440044 0.00010001 0 0 0 0 0 0 0 0 0 0 0 0 0 0.00010001 0.00440044 0.0540054 0.2420242 0.39893989 0.2420242 0.0540054 0.00440044 0.00010001 0 0 0 0 0 0 0 0 0 0 0 0 0 0.00010001 0.00440044 0.0540054 0.2420242 0.39893989 0.2420242 0.0540054 0.00440044 0.00010001 0 0 0 0 0 0 0 0 0 0 0 0 0 0.00010001 0.00440044 0.0540054 0.2420242 0.39893989 0.2420242 0.0540054 0.00440044 0.00010001 0 0 0 0 0 0 0 0 0 0 0 0 0 0.00010001 0.00440044 0.0540054 0.2420242 0.3990399 0.2420242 0.0540054 0.00440044 0 0 0 0 0 0 0 0 0 0 0 0 0 0 0.0001 0.0045 0.0542 0.2431 0.4008 0.2431 0.0542 0 0 0 0 0 0 0 0 0 0 0 0 0 0 0 0.00010001 0.004700470000000002 0.05730573 0.2570257 0.42384238 0.2570257 0 0 0 0 0 0 0 0 0 0 0 0 0 0 0 0 0.00020002 0.006300630000000002 0.07720771999999999 0.34593459 0.57035704</probabilities>
		</cpt>
		<cpt id="bg_0">
			<state id="x20mmol_l" label="F85" />
			<state id="x18mmol_l" label="F86" />
			<state id="x16mmol_l" label="F87" />
			<state id="x14mmol_l" label="F88" />
			<state id="x12mmol_l" label="F89" />
			<state id="x10mmol_l" label="F90" />
			<state id="x8mmol_l" label="F91" />
			<state id="x6mmol_l" label="F92" />
			<state id="x4mmol_l" label="F93" />
			<state id="x2mmol_l" label="F94" />
			<state id="x1mmol_l" label="F95" />
			<probabilities>0.01 0.01 0.02 0.07000000000000001 0.15 0.3 0.2 0.15 0.07000000000000001 0.01 0.01</probabilities>
		</cpt>
		<cpt id="ins_abs_0">
			<state id="x100_0mU_kg_h" label="F96" />
			<state id="x70_7mU_kg_h" label="F97" />
			<state id="x50_0mU_kg_h" label="F98" />
			<state id="x35_5mU_kg_h" label="F99" />
			<state id="x25_0mU_kg_h" label="F100" />
			<state id="x17_7mU_kg_h" label="F101" />
			<state id="x12_5mU_kg_h" label="F102" />
			<state id="x8_9mU_kg_h" label="F103" />
			<state id="x6_4mU_kg_h" label="F104" />
			<state id="x3_2mU_kg_h" label="F105" />
			<state id="x1_6mU_kg_h" label="F106" />
			<probabilities>0.03 0.04 0.04 0.04 0.1 0.15 0.2 0.2 0.1 0.06 0.04</probabilities>
		</cpt>
		<cpt id="activ_ins_0">
			<state id="x80mU_l" label="F107" />
			<state id="x56mU_l" label="F108" />
			<state id="x40mU_l" label="F109" />
			<state id="x28mU_l" label="F110" />
			<state id="x20mU_l" label="F111" />
			<state id="x14mU_l" label="F112" />
			<state id="x10mU_l" label="F113" />
			<state id="x7mU_l" label="F114" />
			<state id="x5mU_l" label="F115" />
			<state id="x2mU_l" label="F116" />
			<parents>ins_abs_0 ins_sens</parents>
			<probabilities>1 0 0 0 0 0 0 0 0 0 1 0 0 0 0 0 0 0 0 0 0.9956 0.0044 0 0 0 0 0 0 0 0 0.00079992 0.99070093 0.008499150000000002 0 0 0 0 0 0 0 0 0.0011 0.9944 0.0045 0 0 0 0 0 0 1 0 0 0 0 0 0 0 0 0 0.9956 0.0044 0 0 0 0 0 0 0 0 0.00109989 0.99280072 0.00609939 0 0 0 0 0 0 0 0 0.0008 0.9928 0.0064 0 0 0 0 0 0 0 0 0.0007000000000000001 0.9932 0.0061 0 0 0 0 0 0.9956 0.0044 0 0 0 0 0 0 0 0 0.00109989 0.99280072 0.00609939 0 0 0 0 0 0 0 0 0.0011 0.9944 0.0045 0 0 0 0 0 0 0 0 0.0005000000000000001 0.991 0.008500000000000001 0 0 0 0 0 0 0 0 0.0011 0.9927 0.006200000000000002 0 0 0 0 0.00109989 0.99280072 0.00609939 0 0 0 0 0 0 0 0 0.0011 0.9944 0.0045 0 0 0 0 0 0 0 0 0.0007000000000000001 0.9932 0.0061 0 0 0 0 0 0 0 0 0.0008 0.9903999999999999 0.008800000000000001 0 0 0 0 0 0 0 0 0.00079992 0.99070093 0.008499150000000002 0 0 0 0 0.0016 0.9953 0.0031 0 0 0 0 0 0 0 0 0.0011 0.9946 0.0043 0 0 0 0 0 0 0 0 0.00159984 0.9940006 0.00439956 0 0 0 0 0 0 0 0 0.00079992 0.99070093 0.008499150000000002 0 0 0 0 0 0 0 0 0.0011 0.9927 0.006200000000000002 0 0 0 0 0.0011 0.9946 0.0043 0 0 0 0 0 0 0 0 0.00159984 0.9940006 0.00439956 0 0 0 0 0 0 0 0 0.00109989 0.99280072 0.00609939 0 0 0 0 0 0 0 0 0.0008 0.9903999999999999 0.008800000000000001 0 0 0 0 0 0 0 0 0.00079992 0.98950105 0.009699030000000004 0 0 0 0 0.0022 0.9947 0.0031 0 0 0 0 0 0 0 0 0.0015 0.9942 0.0043 0 0 0 0 0 0 0 0 0.00159984 0.9940006 0.00439956 0 0 0 0 0 0 0 0 0.00079992 0.98950105 0.009699030000000004 0 0 0 0 0 0 0 0 0.001 0.999 0 0 0 0 0 0.00219978 0.99470053 0.00309969 0 0 0 0 0 0 0 0 0.0022 0.9947 0.0031 0 0 0 0 0 0 0 0 0.00150015 0.99359936 0.00490049 0 0 0 0 0 0 0 0 0.001 0.999 0 0 0 0 0 0 0 0 0 0.9994 0.0006000000000000004 0 0 0 0 0 0.0043 0.9942 0.0015 0 0 0 0 0 0 0 0 0.0031 0.9944 0.002500000000000001 0 0 0 0 0 0 0 0 0.0027 0.9973 0 0 0 0 0 0 0 0 0 0.9997 0.0003 0 0 0 0 0 0 0 0 0 1 0 0 0 0 0 0.00270027 0.05020502 0.30443044 0.62016202 0.02250225 0 0 0 0 0 9.999e-05 0.00349965 0.07229277000000001 0.48415158 0.439956 0 0 0 0 0 0 0 0.00190019 0.0420042 0.95609561 0 0 0 0 0 0 0 0 0.0016 0.9984 0 0 0 0 0 0 0 0 0.0001 0.9999 0 0 0 0 0 0 0 0.0022 0.0459 0.9519 0 0 0 0 0 0 0 0 0.0019 0.9981 0 0 0 0 0 0 0 0 0.0001 0.9999 0 0 0 0 0 0 0 0 0 1 0 0 0 0 0 0 0 0 0 1</probabilities>
		</cpt>
		<cpt id="gut_abs_0">
			<state id="x2_0mmol_kg_h" label="F117" />
			<state id="x1_6mmol_kg_h" label="F118" />
			<state id="x1_2mmol_kg_h" label="F119" />
			<state id="x0_8mmol_kg_h" label="F120" />
			<state id="x0_4mmol_kg_h" label="F121" />
			<state id="x0_0mmol_kg_h" label="F122" />
			<parents>cho_0</parents>
			<probabilities>0.5171 0.3736 0.0993 0.0097 0.0003 0 0.5167 0.3914 0.0863 0.005500000000000001 0.0001 0 0.5074 0.3964 0.0901 0.006 0.0001 0 0.4222 0.4354 0.1307 0.0114 0.0003 0 0.4031 0.4422 0.1412 0.0131 0.0004 0 0.3714 0.507 0.117 0.0046 0 0 0.33453345 0.52185219 0.13751375 0.00610061 0 0 0.2120212 0.53925393 0.23172317 0.01680168 0.00020002 0 0.1334 0.5062 0.3246 0.0352 0.0006000000000000004 0 0.07729227 0.48485151 0.39536046 0.04189581 0.0005999400000000002 0 0.0574 0.4421 0.4421 0.0574 0.001 0 0.008400000000000001 0.2886 0.6196 0.0827 0.0007000000000000001 0 0.0026 0.1655 0.6637999999999999 0.1655 0.0026 0 0 0.0396 0.7194 0.2395 0.0015 0 0 0.0057 0.4172 0.5632 0.0139 0 0 0.0015 0.2395 0.7194 0.0396 0 0 0 0.0157 0.9386 0.0457 0 0 0 0.0005000000000000001 0.5439000000000001 0.4553 0.0003 0 0 0 0.027 0.946 0.027 0 0 0 0.0004 0.4998 0.4998 0 0 0 0 0.0003 0.9997</probabilities>
		</cpt>
		<cpt id="renal_cl_0">
			<state id="x0_8mmol_kg_h" label="F123" />
			<state id="x0_4mmol_kg_h" label="F124" />
			<state id="x0_0mmol_kg_h" label="F125" />
			<parents>bg_0</parents>
			<probabilities>0 1 0 0 1 0 0 1 0 0 0 1 0 0 1 0 0 1 0 0 1 0 0 1 0 0 1 0 0 1 0 0 1</probabilities>
		</cpt>
		<cpt id="ins_indep_util_0">
			<state id="x0_8mmol_kg_h" label="F126" />
			<state id="x0_4mmol_kg_h" label="F127" />
			<state id="x0_0mmol_kg_h" label="F128" />
			<parents>bg_0</parents>
			<probabilities>1 0 0 1 0 0 1 0 0 0.9997 0.0003 0 0.9963 0.0037 0 0.951 0.049 0 0.5 0.5 0 0.0796 0.9204 0 0.0072 0.9927 0.0001 0.01330133 0.96339634 0.02330233 0.00039996 0.19728027 0.80231977</probabilities>
		</cpt>
		<cpt id="ins_dep_util_0">
			<state id="x2_8mmol_kg_h" label="F129" />
			<state id="x2_4mmol_kg_h" label="F130" />
			<state id="x2_0mmol_kg_h" label="F131" />
			<state id="x1_6mmol_kg_h" label="F132" />
			<state id="x1_2mmol_kg_h" label="F133" />
			<state id="x0_8mmol_kg_h" label="F134" />
			<state id="x0_4mmol_kg_h" label="F135" />
			<state id="x0_0mmol_kg_h" label="F136" />
			<parents>bg_0 activ_ins_0</parents>
			<probabilities>0.5883 0.3452 0.0645 0.002 0 0 0 0 0.08488302 0.27684463 0.45470906 0.17866427 0.004899020000000001 0 0 0 0.0005000000000000001 0.008500000000000001 0.1148 0.5198 0.3541 0.0023 0 0 0 0 0.0004999500000000002 0.02759724 0.5690431 0.40285971 0 0 0 0 0 0 0.0163 0.981 0.0027 0 0 0 0 0 0 0.1074 0.8925999999999999 0 0 0 0 0 0 0.0001 0.9999 0 0 0 0 0 0 0 0.971 0.029 0 0 0 0 0 0 0.0003 0.9997 0 0 0 0 0 0 0.0007000000000000001 0.9993 0.45364536 0.40774077 0.13081308 0.00780078 0 0 0 0 0.03220322 0.16081608 0.45344534 0.33293329 0.02060206 0 0 0 0.0001 0.0019 0.0436 0.3692 0.5737 0.0115 0 0 0 0 9.999e-05 0.00659934 0.30966903 0.68363164 0 0 0 0 0 0 0.00519948 0.9750025 0.01979802 0 0 0 0 0 0 0.0162 0.9838 0 0 0 0 0 0 0 1 0 0 0 0 0 0 0 0.6287 0.3713 0 0 0 0 0 0 0 1 0 0 0 0 0 0 0.0004 0.9996 0.2969 0.4177 0.2514 0.0337 0.0003 0 0 0 0.01039896 0.07349265000000001 0.34216578 0.48965103 0.08419158 9.999e-05 0 0 0 0.0004 0.0142 0.2025 0.7236 0.0593 0 0 0 0 0 0.0014 0.1267 0.8718 0.0001 0 0 0 0 0 0.0018 0.8344 0.1638 0 0 0 0 0 0 0.0027 0.9973 0 0 0 0 0 0 0 0.9998 0.0002 0 0 0 0 0 0 0.0725 0.9275 0 0 0 0 0 0 0 1 0 0 0 0 0 0 0.0002 0.9998 0.15638436 0.34246575 0.38356164 0.11468853 0.00289971 0 0 0 0.002500000000000001 0.025 0.1915 0.5299 0.2495 0.0016 0 0 0 0.0001 0.003500000000000001 0.0843 0.6858 0.2263 0 0 0 0 0 0.0003 0.045 0.9529 0.0018 0 0 0 0 0 0.0003 0.3511 0.6486 0 0 0 0 0 0 0.0005000000000000001 0.9995000000000001 0 0 0 0 0 0 0 0.9935 0.006500000000000002 0 0 0 0 0 0 0.0037 0.9963 0 0 0 0 0 0 0 1 0 0 0 0 0 0 0.0001 0.9999 0.0619 0.2087 0.4278 0.2792 0.0224 0 0 0 0.0004 0.0061 0.076 0.3999 0.5014999999999999 0.0161 0 0 0 0 0.0006000000000000004 0.0236 0.4282 0.5476 0 0 0 0 0 0 0.0152 0.96 0.0248 0 0 0 0 0 0 0.0576 0.9424 0 0 0 0 0 0 0.0001 0.9999 0 0 0 0 0 0 0 0.804 0.196 0 0 0 0 0 0 0.0002 0.9998 0 0 0 0 0 0 0 1 0 0 0 0 0 0 0.0001 0.9999 0.0190019 0.08980898 0.31563156 0.44724472 0.12751275 0.0008000800000000001 0 0 9.999e-05 0.00139986 0.02319768 0.20487951 0.65093491 0.11948805 0 0 0 0 0.00010001 0.00530053 0.17611761 0.81768177 0.0008000800000000001 0 0 0 0 0 0.005099490000000002 0.7181281900000001 0.27677232 0 0 0 0 0 0 0.008999999999999999 0.991 0 0 0 0 0 0 0 0.9983 0.0017 0 0 0 0 0 0 0.1095 0.8905 0 0 0 0 0 0 0 1 0 0 0 0 0 0 0 1 0 0 0 0 0 0 0 1 0.00539946 0.03059694 0.15618438 0.41455854 0.37166283 0.02159784 0 0 0 0.0003 0.0064 0.07539999999999999 0.4873 0.4305 0.0001 0 0 0 0 0.0016 0.0723 0.9004 0.0257 0 0 0 0 0 0.001 0.2065 0.7925 0 0 0 0 0 0 0.002500000000000001 0.9974 0.0001 0 0 0 0 0 0 0.89108911 0.10891089 0 0 0 0 0 0 0.007800000000000001 0.9922 0 0 0 0 0 0 0 1 0 0 0 0 0 0 0 1 0 0 0 0 0 0 0 1 0.0012 0.007800000000000001 0.0539 0.2358 0.5274 0.1739 0 0 0 0.0001 0.0014 0.0209 0.2369 0.7338 0.006900000000000001 0 0 0 0 0.0005000000000000001 0.0251 0.6836 0.2908 0 0 0 0 0 0.00010001 0.040004 0.95989599 0 0 0 0 0 0 0.0009 0.9888 0.0103 0 0 0 0 0 0 0.2112 0.7887999999999999 0 0 0 0 0 0 0.0009 0.9991 0 0 0 0 0 0 0 1 0 0 0 0 0 0 0 1 0 0 0 0 0 0 0 1 0 0.0004999500000000002 0.006799320000000001 0.06419358 0.39646035 0.53084692 0.00119988 0 0 0 0.0001 0.0021 0.0667 0.839 0.0921 0 0 0 0 0 0.0015 0.168 0.8305 0 0 0 0 0 0 0.00359964 0.9950005 0.00139986 0 0 0 0 0 9.999e-05 0.70732927 0.29257074 0 0 0 0 0 0 0.006700000000000001 0.9933 0 0 0 0 0 0 0 1 0 0 0 0 0 0 0 1 0 0 0 0 0 0 0 1 0 0 0 0 0 0 0 1 0 0 0.0002 0.0046 0.1048 0.8475 0.0429 0 0 0 0 0 0.0037 0.2804 0.7159 0 0 0 0 0 0 0.0086 0.991 0.0004 0 0 0 0 0 0.0001 0.8668 0.1331 0 0 0 0 0 0 0.0211 0.9789 0 0 0 0 0 0 0.0001 0.9999 0 0 0 0 0 0 0 1 0 0 0 0 0 0 0 1 0 0 0 0 0 0 0 1 0 0 0 0 0 0 0 1 0 0 0 0.00050005 0.02830283 0.7100710099999999 0.26112611 0 0 0 0 0 0.0002 0.0512 0.9486 0 0 0 0 0 0 0.0012 0.9918 0.007000000000000001 0 0 0 0 0 0 0.2498 0.7502 0 0 0 0 0 0 0.0011 0.9989 0 0 0 0 0 0 0 1 0 0 0 0 0 0 0 1 0 0 0 0 0 0 0 1 0 0 0 0 0 0 0 1 0 0 0 0 0 0 0 1</probabilities>
		</cpt>
		<cpt id="glu_prod_0">
			<state id="x2_0mmol_kg_h" label="F137" />
			<state id="x1_6mmol_kg_h" label="F138" />
			<state id="x1_2mmol_kg_h" label="F139" />
			<state id="x0_8mmol_kg_h" label="F140" />
			<state id="x0_4mmol_kg_h" label="F141" />
			<state id="x0_0mmol_kg_h" label="F142" />
			<parents>activ_ins_0 bg_0</parents>
			<probabilities>0 0 0 0 0 1 0 0 0 0 0 1 0 0 0 0 0 1 0 0 0 0 0 1 0 0 0 0 0 1 0 0 0 0 0 1 0 0 0 0 0 1 0 0 0 0 0 1 0 0 0 0 0 1 0 0 0 0 0 1 0 0 0 0 0 1 0 0 0 0 0 1 0 0 0 0 0 1 0 0 0 0 0 1 0 0 0 0 0 1 0 0 0 0 0 1 0 0 0 0 0 1 0 0 0 0 0 1 0 0 0 0 0 1 0 0 0 0 0 1 0 0 0 0 0 1 0 0 0 0 0 1 0 0 0 0 0 1 0 0 0 0 0 1 0 0 0 0 0 1 0 0 0 0 0 1 0 0 0 0 0 1 0 0 0 0 0 1 0 0 0 0 0 1 0 0 0 0 0 1 0 0 0 0 0 1 0 0 0 0 0 1 0 0 0 0 0 1 0 0 0 0 0 1 0 0 0 0 0 1 0 0 0 0 0 1 0 0 0 0 0 1 0 0 0 0 0 1 0 0 0 0 0 1 0 0 0 0 0 1 0 0 0 0 0 1 0 0 0 0 0.0001 0.9999 0 0 0 0 1 0 0 0 0 0 1 0 0 0 0 0 0 1 0 0 0 0 0 1 0 0 0 0 0 1 0 0 0 0 0 1 0 0 0 0 0 1 0 0 0 0 0.0001 0.9999 0 0 0 0 0.9997 0.0003 0 0 0 0 0.9999 0.0001 0 0 0 0 1 0 0 0 0 0.1852 0.8148 0 0 0 0 0.8393 0.1607 0 0 0 0 0 0.5 0.5 0 0 0 0 0.9981 0.0019 0 0 0 0.00030003 0.99939994 0.00030003 0 0 0 0.0585 0.9413 0.0002 0 0 0.0004 0.4996 0.4996 0.0004 0 0 0.0124 0.7896 0.1978 0.0002 0 0.0002999400000000001 0.1064787 0.78644271 0.1064787 0.0002999400000000001 0 0.0006000000000000004 0.1561 0.7731 0.0701 0.0001 0 0.00340034 0.25142514 0.6779678 0.0670067 0.00020002 0.0001 0.0212 0.4207 0.5181 0.0397 0.0002 0.003500000000000001 0.09909999999999999 0.4694 0.3759 0.0509 0.0012 0 0 0 0 1 0 0 0 0 0.0002 0.9993 0.0005000000000000001 0 0 0 0.045 0.9547 0.0003 0 0 0.0003 0.4553 0.5439000000000001 0.0005000000000000001 0 0 0.0052 0.7732 0.2215 0.0001 0 0 0.0639 0.8542 0.0818 0.0001 0 0.0006000000000000004 0.1561 0.7731 0.0701 0.0001 0 0.0008 0.1865 0.7564 0.0562 0.0001 0 0.00530053 0.30453045 0.64066407 0.04940494 0.00010001 0.0002 0.0359 0.4639 0.4639 0.0359 0.0002 0.0004999500000000002 0.0619938 0.54594541 0.37186281 0.01959804 9.999e-05 0 0.0007000700000000002 0.17081708 0.76557656 0.06280628000000001 0.00010001 0 0.00459954 0.28627137 0.65413459 0.05479452 0.00019998 0.0001 0.0293 0.4706 0.4706 0.0293 0.0001 0.001 0.0864 0.5891999999999999 0.3107 0.0127 0 0.00730073 0.19721972 0.5909591 0.19721972 0.00730073 0 0.0350035 0.32283228 0.50355036 0.13271327 0.005900590000000001 0 0.0635 0.3684 0.4478 0.1141 0.0061 0.0001 0.0719928 0.38626137 0.43425657 0.10228977 0.005099490000000002 9.999e-05 0.11037792 0.4110178 0.3835233 0.08968205999999999 0.00529894 9.998e-05 0.1724 0.4353 0.3197 0.0683 0.004200000000000002 0.0001 0.21612161 0.4320432 0.28512851 0.06210621 0.004500450000000001 0.00010001 0 0.0177 0.4823 0.4823 0.0177 0 0.0003 0.0482 0.5476 0.3869 0.017 0 0.001 0.0864 0.5891999999999999 0.3107 0.0127 0 0.00290029 0.13721372 0.60236024 0.24792479 0.00960096 0 0.01249875 0.25507449 0.58084192 0.14738526 0.004199580000000001 0 0.0299 0.3458 0.5201 0.1016 0.0026 0 0.0547 0.3868 0.462 0.09329999999999999 0.0032 0 0.0863 0.4118 0.4118 0.0863 0.0038 0 0.1405 0.4263 0.3504 0.078 0.0047 0.0001 0.2127 0.4416 0.2849 0.0571 0.0036 0.0001 0.2570257 0.42384238 0.2570257 0.05730573 0.004700470000000002 0.00010001 0.1224 0.3707 0.3707 0.1224 0.0133 0.0005000000000000001 0.14781478 0.37283728 0.34583458 0.1180118 0.01480148 0.0007000700000000002 0.159 0.3814 0.3366 0.1093 0.0131 0.0006000000000000004 0.1952 0.3853 0.3072 0.0988 0.0128 0.0007000000000000001 0.24782478 0.39043904 0.26922692 0.08120811999999999 0.01070107 0.00060006 0.2858 0.392 0.244 0.0689 0.008800000000000001 0.0005000000000000001 0.305 0.3943 0.2313 0.0616 0.0074 0.0004 0.3353 0.3901 0.213 0.0546 0.006600000000000001 0.0004 0.37266273 0.37916208 0.19268073 0.04889511 0.006199380000000001 0.00039996 0.43905609 0.36236376 0.15768423 0.03619638 0.00439956 0.00029997 0.4672 0.3559 0.143 0.0303 0.0034 0.0002</probabilities>
		</cpt>
		<cpt id="ins_indep_0">
			<state id="x1_6mmol_kg_h" label="F143" />
			<state id="x1_2mmol_kg_h" label="F144" />
			<state id="x0_8mmol_kg_h" label="F145" />
			<state id="x0_4mmol_kg_h" label="F146" />
			<state id="x0_0mmol_kg_h" label="F147" />
			<parents>renal_cl_0 ins_indep_util_0</parents>
			<probabilities>0.9997 0.0003 0 0 0 0.00030003 0.99939994 0.00030003 0 0 0 0.00030003 0.99939994 0.00030003 0 0.00030003 0.99939994 0.00030003 0 0 0 0.00030003 0.99939994 0.00030003 0 0 0 0.00030003 0.99939994 0.00030003 0 0.00030003 0.99939994 0.00030003 0 0 0 0.00030003 0.99939994 0.00030003 0 0 0 0.0003 0.9997</probabilities>
		</cpt>
		<cpt id="ins_dep_0">
			<state id="x2_0mmol_kg_h" label="F148" />
			<state id="x1_6mmol_kg_h" label="F149" />
			<state id="x1_2mmol_kg_h" label="F150" />
			<state id="x0_8mmol_kg_h" label="F151" />
			<state id="x0_4mmol_kg_h" label="F152" />
			<state id="x0_0mmol_kg_h" label="F153" />
			<state id="x_0_4mmol_kg_h" label="F154" />
			<state id="x_0_8mmol_kg_h" label="F155" />
			<state id="x_1_2mmol_kg_h" label="F156" />
			<state id="x_1_6mmol_kg_h" label="F157" />
			<state id="x_2_0mmol_kg_h" label="F158" />
			<state id="x_2_4mmol_kg_h" label="F159" />
			<state id="x_2_8mmol_kg_h" label="F160" />
			<parents>ins_dep_util_0 glu_prod_0</parents>
			<probabilities>0 0 0 0 0 0 0.00030003 0.99939994 0.00030003 0 0 0 0 0 0 0 0 0 0 0 0.00030003 0.99939994 0.00030003 0 0 0 0 0 0 0 0 0 0 0 0.00030003 0.99939994 0.00030003 0 0 0 0 0 0 0 0 0 0 0 0.00030003 0.99939994 0.00030003 0 0 0 0 0 0 0 0 0 0 0 0.00030003 0.99939994 0.00030003 0 0 0 0 0 0 0 0 0 0 0 0.0003 0.9997 0 0 0 0 0 0.00030003 0.99939994 0.00030003 0 0 0 0 0 0 0 0 0 0 0 0.00030003 0.99939994 0.00030003 0 0 0 0 0 0 0 0 0 0 0 0.00030003 0.99939994 0.00030003 0 0 0 0 0 0 0 0 0 0 0 0.00030003 0.99939994 0.00030003 0 0 0 0 0 0 0 0 0 0 0 0.00030003 0.99939994 0.00030003 0 0 0 0 0 0 0 0 0 0 0 0.00030003 0.99939994 0.00030003 0 0 0 0 0.00030003 0.99939994 0.00030003 0 0 0 0 0 0 0 0 0 0 0 0.00030003 0.99939994 0.00030003 0 0 0 0 0 0 0 0 0 0 0 0.00030003 0.99939994 0.00030003 0 0 0 0 0 0 0 0 0 0 0 0.00030003 0.99939994 0.00030003 0 0 0 0 0 0 0 0 0 0 0 0.00030003 0.99939994 0.00030003 0 0 0 0 0 0 0 0 0 0 0 0.00030003 0.99939994 0.00030003 0 0 0 0 0.00030003 0.99939994 0.00030003 0 0 0 0 0 0 0 0 0 0 0 0.00030003 0.99939994 0.00030003 0 0 0 0 0 0 0 0 0 0 0 0.00030003 0.99939994 0.00030003 0 0 0 0 0 0 0 0 0 0 0 0.00030003 0.99939994 0.00030003 0 0 0 0 0 0 0 0 0 0 0 0.00030003 0.99939994 0.00030003 0 0 0 0 0 0 0 0 0 0 0 0.00030003 0.99939994 0.00030003 0 0 0 0 0.00030003 0.99939994 0.00030003 0 0 0 0 0 0 0 0 0 0 0 0.00030003 0.99939994 0.00030003 0 0 0 0 0 0 0 0 0 0 0 0.00030003 0.99939994 0.00030003 0 0 0 0 0 0 0 0 0 0 0 0.00030003 0.99939994 0.00030003 0 0 0 0 0 0 0 0 0 0 0 0.00030003 0.99939994 0.00030003 0 0 0 0 0 0 0 0 0 0 0 0.00030003 0.99939994 0.00030003 0 0 0 0 0.00030003 0.99939994 0.00030003 0 0 0 0 0 0 0 0 0 0 0 0.00030003 0.99939994 0.00030003 0 0 0 0 0 0 0 0 0 0 0 0.00030003 0.99939994 0.00030003 0 0 0 0 0 0 0 0 0 0 0 0.00030003 0.99939994 0.00030003 0 0 0 0 0 0 0 0 0 0 0 0.00030003 0.99939994 0.00030003 0 0 0 0 0 0 0 0 0 0 0 0.00030003 0.99939994 0.00030003 0 0 0 0 0.00030003 0.99939994 0.00030003 0 0 0 0 0 0 0 0 0 0 0 0.00030003 0.99939994 0.00030003 0 0 0 0 0 0 0 0 0 0 0 0.00030003 0.99939994 0.00030003 0 0 0 0 0 0 0 0 0 0 0 0.00030003 0.99939994 0.00030003 0 0 0 0 0 0 0 0 0 0 0 0.00030003 0.99939994 0.00030003 0 0 0 0 0 0 0 0 0 0 0 0.00030003 0.99939994 0.00030003 0 0 0 0 0 0.9997 0.0003 0 0 0 0 0 0 0 0 0 0 0 0.00030003 0.99939994 0.00030003 0 0 0 0 0 0 0 0 0 0 0 0.00030003 0.99939994 0.00030003 0 0 0 0 0 0 0 0 0 0 0 0.00030003 0.99939994 0.00030003 0 0 0 0 0 0 0 0 0 0 0 0.00030003 0.99939994 0.00030003 0 0 0 0 0 0 0 0 0 0 0 0.00030003 0.99939994 0.00030003 0 0 0 0 0 0</probabilities>
		</cpt>
		<cpt id="endo_bal_0">
			<state id="x2_0mmol_kg_h" label="F161" />
			<state id="x1_6mmol_kg_h" label="F162" />
			<state id="x1_2mmol_kg_h" label="F163" />
			<state id="x0_8mmol_kg_h" label="F164" />
			<state id="x0_4mmol_kg_h" label="F165" />
			<state id="x0_0mmol_kg_h" label="F166" />
			<state id="x_0_4mmol_kg_h" label="F167" />
			<state id="x_0_8mmol_kg_h" label="F168" />
			<state id="x_1_2mmol_kg_h" label="F169" />
			<state id="x_1_6mmol_kg_h" label="F170" />
			<state id="x_2_0mmol_kg_h" label="F171" />
			<state id="x_2_4mmol_kg_h" label="F172" />
			<state id="x_2_8mmol_kg_h" label="F173" />
			<state id="x_3_2mmol_kg_h" label="F174" />
			<state id="x_3_6mmol_kg_h" label="F175" />
			<state id="x_4_0mmol_kg_h" label="F176" />
			<state id="x_4_4mmol_kg_h" label="F177" />
			<parents>ins_indep_0 ins_dep_0</parents>
			<probabilities>0 0 0 0.00030003 0.99939994 0.00030003 0 0 0 0 0 0 0 0 0 0 0 0 0 0 0 0.00030003 0.99939994 0.00030003 0 0 0 0 0 0 0 0 0 0 0 0 0 0 0 0.00030003 0.99939994 0.00030003 0 0 0 0 0 0 0 0 0 0 0 0 0 0 0 0.00030003 0.99939994 0.00030003 0 0 0 0 0 0 0 0 0 0 0 0 0 0 0 0.00030003 0.99939994 0.00030003 0 0 0 0 0 0 0 0 0 0 0 0 0 0 0 0.00030003 0.99939994 0.00030003 0 0 0 0 0 0 0 0 0 0 0 0 0 0 0 0.00030003 0.99939994 0.00030003 0 0 0 0 0 0 0 0 0 0 0 0 0 0 0 0.00030003 0.99939994 0.00030003 0 0 0 0 0 0 0 0 0 0 0 0 0 0 0 0.00030003 0.99939994 0.00030003 0 0 0 0 0 0 0 0 0 0 0 0 0 0 0 0.00030003 0.99939994 0.00030003 0 0 0 0 0 0 0 0 0 0 0 0 0 0 0 0.00030003 0.99939994 0.00030003 0 0 0 0 0 0 0 0 0 0 0 0 0 0 0 0.00030003 0.99939994 0.00030003 0 0 0 0 0 0 0 0 0 0 0 0 0 0 0 0.0003 0.9997 0 0 0.00030003 0.99939994 0.00030003 0 0 0 0 0 0 0 0 0 0 0 0 0 0 0 0.00030003 0.99939994 0.00030003 0 0 0 0 0 0 0 0 0 0 0 0 0 0 0 0.00030003 0.99939994 0.00030003 0 0 0 0 0 0 0 0 0 0 0 0 0 0 0 0.00030003 0.99939994 0.00030003 0 0 0 0 0 0 0 0 0 0 0 0 0 0 0 0.00030003 0.99939994 0.00030003 0 0 0 0 0 0 0 0 0 0 0 0 0 0 0 0.00030003 0.99939994 0.00030003 0 0 0 0 0 0 0 0 0 0 0 0 0 0 0 0.00030003 0.99939994 0.00030003 0 0 0 0 0 0 0 0 0 0 0 0 0 0 0 0.00030003 0.99939994 0.00030003 0 0 0 0 0 0 0 0 0 0 0 0 0 0 0 0.00030003 0.99939994 0.00030003 0 0 0 0 0 0 0 0 0 0 0 0 0 0 0 0.00030003 0.99939994 0.00030003 0 0 0 0 0 0 0 0 0 0 0 0 0 0 0 0.00030003 0.99939994 0.00030003 0 0 0 0 0 0 0 0 0 0 0 0 0 0 0 0.00030003 0.99939994 0.00030003 0 0 0 0 0 0 0 0 0 0 0 0 0 0 0 0.00030003 0.99939994 0.00030003 0 0.00030003 0.99939994 0.00030003 0 0 0 0 0 0 0 0 0 0 0 0 0 0 0 0.00030003 0.99939994 0.00030003 0 0 0 0 0 0 0 0 0 0 0 0 0 0 0 0.00030003 0.99939994 0.00030003 0 0 0 0 0 0 0 0 0 0 0 0 0 0 0 0.00030003 0.99939994 0.00030003 0 0 0 0 0 0 0 0 0 0 0 0 0 0 0 0.00030003 0.99939994 0.00030003 0 0 0 0 0 0 0 0 0 0 0 0 0 0 0 0.00030003 0.99939994 0.00030003 0 0 0 0 0 0 0 0 0 0 0 0 0 0 0 0.00030003 0.99939994 0.00030003 0 0 0 0 0 0 0 0 0 0 0 0 0 0 0 0.00030003 0.99939994 0.00030003 0 0 0 0 0 0 0 0 0 0 0 0 0 0 0 0.00030003 0.99939994 0.00030003 0 0 0 0 0 0 0 0 0 0 0 0 0 0 0 0.00030003 0.99939994 0.00030003 0 0 0 0 0 0 0 0 0 0 0 0 0 0 0 0.00030003 0.99939994 0.00030003 0 0 0 0 0 0 0 0 0 0 0 0 0 0 0 0.00030003 0.99939994 0.00030003 0 0 0 0 0 0 0 0 0 0 0 0 0 0 0 0.00030003 0.99939994 0.00030003 0 0.00030003 0.99939994 0.00030003 0 0 0 0 0 0 0 0 0 0 0 0 0 0 0 0.00030003 0.99939994 0.00030003 0 0 0 0 0 0 0 0 0 0 0 0 0 0 0 0.00030003 0.99939994 0.00030003 0 0 0 0 0 0 0 0 0 0 0 0 0 0 0 0.00030003 0.99939994 0.00030003 0 0 0 0 0 0 0 0 0 0 0 0 0 0 0 0.00030003 0.99939994 0.00030003 0 0 0 0 0 0 0 0 0 0 0 0 0 0 0 0.00030003 0.99939994 0.00030003 0 0 0 0 0 0 0 0 0 0 0 0 0 0 0 0.00030003 0.99939994 0.00030003 0 0 0 0 0 0 0 0 0 0 0 0 0 0 0 0.00030003 0.99939994 0.00030003 0 0 0 0 0 0 0 0 0 0 0 0 0 0 0 0.00030003 0.99939994 0.00030003 0 0 0 0 0 0 0 0 0 0 0 0 0 0 0 0.00030003 0.99939994 0.00030003 0 0 0 0 0 0 0 0 0 0 0 0 0 0 0 0.00030003 0.99939994 0.00030003 0 0 0 0 0 0 0 0 0 0 0 0 0 0 0 0.00030003 0.99939994 0.00030003 0 0 0 0 0 0 0 0 0 0 0 0 0 0 0 0.00030003 0.99939994 0.00030003 0 0 0.9997 0.0003 0 0 0 0 0 0 0 0 0 0 0 0 0 0 0 0.00030003 0.99939994 0.00030003 0 0 0 0 0 0 0 0 0 0 0 0 0 0 0 0.00030003 0.99939994 0.00030003 0 0 0 0 0 0 0 0 0 0 0 0 0 0 0 0.00030003 0.99939994 0.00030003 0 0 0 0 0 0 0 0 0 0 0 0 0 0 0 0.00030003 0.99939994 0.00030003 0 0 0 0 0 0 0 0 0 0 0 0 0 0 0 0.00030003 0.99939994 0.00030003 0 0 0 0 0 0 0 0 0 0 0 0 0 0 0 0.00030003 0.99939994 0.00030003 0 0 0 0 0 0 0 0 0 0 0 0 0 0 0 0.00030003 0.99939994 0.00030003 0 0 0 0 0 0 0 0 0 0 0 0 0 0 0 0.00030003 0.99939994 0.00030003 0 0 0 0 0 0 0 0 0 0 0 0 0 0 0 0.00030003 0.99939994 0.00030003 0 0 0 0 0 0 0 0 0 0 0 0 0 0 0 0.00030003 0.99939994 0.00030003 0 0 0 0 0 0 0 0 0 0 0 0 0 0 0 0.00030003 0.99939994 0.00030003 0 0 0 0 0 0 0 0 0 0 0 0 0 0 0 0.00030003 0.99939994 0.00030003 0 0 0</probabilities>
		</cpt>
		<cpt id="cho_bal_0">
			<state id="x6_0mmol_kg" label="F178" />
			<state id="x5_6mmol_kg" label="F179" />
			<state id="x5_2mmol_kg" label="F180" />
			<state id="x4_8mmol_kg" label="F181" />
			<state id="x4_4mmol_kg" label="F182" />
			<state id="x4_0mmol_kg" label="F183" />
			<state id="x3_6mmol_kg" label="F184" />
			<state id="x3_2mmol_kg" label="F185" />
			<state id="x2_8mmol_kg" label="F186" />
			<state id="x2_4mmol_kg" label="F187" />
			<state id="x2_0mmol_kg" label="F188" />
			<state id="x1_6mmol_kg" label="F189" />
			<state id="x1_2mmol_kg" label="F190" />
			<state id="x0_8mmol_kg" label="F191" />
			<state id="x0_4mmol_kg" label="F192" />
			<state id="x0_0mmol_kg" label="F193" />
			<parents>cho_0 gut_abs_0</parents>
			<probabilities>0.9997 0.0003 0 0 0 0 0 0 0 0 0 0 0 0 0 0 1 0 0 0 0 0 0 0 0 0 0 0 0 0 0 0 1 0 0 0 0 0 0 0 0 0 0 0 0 0 0 0 1 0 0 0 0 0 0 0 0 0 0 0 0 0 0 0 1 0 0 0 0 0 0 0 0 0 0 0 0 0 0 0 1 0 0 0 0 0 0 0 0 0 0 0 0 0 0 0 0.00030003 0.99939994 0.00030003 0 0 0 0 0 0 0 0 0 0 0 0 0 0.9997 0.0003 0 0 0 0 0 0 0 0 0 0 0 0 0 0 1 0 0 0 0 0 0 0 0 0 0 0 0 0 0 0 1 0 0 0 0 0 0 0 0 0 0 0 0 0 0 0 1 0 0 0 0 0 0 0 0 0 0 0 0 0 0 0 1 0 0 0 0 0 0 0 0 0 0 0 0 0 0 0 0 0.00030003 0.99939994 0.00030003 0 0 0 0 0 0 0 0 0 0 0 0 0.00030003 0.99939994 0.00030003 0 0 0 0 0 0 0 0 0 0 0 0 0 0.9997 0.0003 0 0 0 0 0 0 0 0 0 0 0 0 0 0 1 0 0 0 0 0 0 0 0 0 0 0 0 0 0 0 1 0 0 0 0 0 0 0 0 0 0 0 0 0 0 0 1 0 0 0 0 0 0 0 0 0 0 0 0 0 0 0 0 0 0.00030003 0.99939994 0.00030003 0 0 0 0 0 0 0 0 0 0 0 0 0.00030003 0.99939994 0.00030003 0 0 0 0 0 0 0 0 0 0 0 0 0.00030003 0.99939994 0.00030003 0 0 0 0 0 0 0 0 0 0 0 0 0 0.9997 0.0003 0 0 0 0 0 0 0 0 0 0 0 0 0 0 1 0 0 0 0 0 0 0 0 0 0 0 0 0 0 0 1 0 0 0 0 0 0 0 0 0 0 0 0 0 0 0 0 0 0 0.00030003 0.99939994 0.00030003 0 0 0 0 0 0 0 0 0 0 0 0 0.00030003 0.99939994 0.00030003 0 0 0 0 0 0 0 0 0 0 0 0 0.00030003 0.99939994 0.00030003 0 0 0 0 0 0 0 0 0 0 0 0 0.00030003 0.99939994 0.00030003 0 0 0 0 0 0 0 0 0 0 0 0 0 0.9997 0.0003 0 0 0 0 0 0 0 0 0 0 0 0 0 0 1 0 0 0 0 0 0 0 0 0 0 0 0 0 0 0 0 0 0 0 0.00030003 0.99939994 0.00030003 0 0 0 0 0 0 0 0 0 0 0 0 0.00030003 0.99939994 0.00030003 0 0 0 0 0 0 0 0 0 0 0 0 0.00030003 0.99939994 0.00030003 0 0 0 0 0 0 0 0 0 0 0 0 0.00030003 0.99939994 0.00030003 0 0 0 0 0 0 0 0 0 0 0 0 0.00030003 0.99939994 0.00030003 0 0 0 0 0 0 0 0 0 0 0 0 0 0.9997 0.0003 0 0 0 0 0 0 0 0 0 0 0 0 0 0 0 0 0 0 0 0.00030003 0.99939994 0.00030003 0 0 0 0 0 0 0 0 0 0 0 0 0.00030003 0.99939994 0.00030003 0 0 0 0 0 0 0 0 0 0 0 0 0.00030003 0.99939994 0.00030003 0 0 0 0 0 0 0 0 0 0 0 0 0.00030003 0.99939994 0.00030003 0 0 0 0 0 0 0 0 0 0 0 0 0.00030003 0.99939994 0.00030003 0 0 0 0 0 0 0 0 0 0 0 0 0.00030003 0.99939994 0.00030003 0 0 0 0 0 0 0 0 0 0 0 0 0 0 0 0 0 0 0 0.00030003 0.99939994 0.00030003 0 0 0 0 0 0 0 0 0 0 0 0 0.00030003 0.99939994 0.00030003 0 0 0 0 0 0 0 0 0 0 0 0 0.00030003 0.99939994 0.00030003 0 0 0 0 0 0 0 0 0 0 0 0 0.00030003 0.99939994 0.00030003 0 0 0 0 0 0 0 0 0 0 0 0 0.00030003 0.99939994 0.00030003 0 0 0 0 0 0 0 0 0 0 0 0 0.00030003 0.99939994 0.00030003 0 0 0 0 0 0 0 0 0 0 0 0 0 0 0 0 0 0 0 0.00030003 0.99939994 0.00030003 0 0 0 0 0 0 0 0 0 0 0 0 0.00030003 0.99939994 0.00030003 0 0 0 0 0 0 0 0 0 0 0 0 0.00030003 0.99939994 0.00030003 0 0 0 0 0 0 0 0 0 0 0 0 0.00030003 0.99939994 0.00030003 0 0 0 0 0 0 0 0 0 0 0 0 0.00030003 0.99939994 0.00030003 0 0 0 0 0 0 0 0 0 0 0 0 0.00030003 0.99939994 0.00030003 0 0 0 0 0 0 0 0 0 0 0 0 0 0 0 0 0 0 0 0.00030003 0.99939994 0.00030003 0 0 0 0 0 0 0 0 0 0 0 0 0.00030003 0.99939994 0.00030003 0 0 0 0 0 0 0 0 0 0 0 0 0.00030003 0.99939994 0.00030003 0 0 0 0 0 0 0 0 0 0 0 0 0.00030003 0.99939994 0.00030003 0 0 0 0 0 0 0 0 0 0 0 0 0.00030003 0.99939994 0.00030003 0 0 0 0 0 0 0 0 0 0 0 0 0.00030003 0.99939994 0.00030003 0 0 0 0 0 0 0 0 0 0 0 0 0 0 0 0 0 0 0 0.00030003 0.99939994 0.00030003 0 0 0 0 0 0 0 0 0 0 0 0 0.00030003 0.99939994 0.00030003 0 0 0 0 0 0 0 0 0 0 0 0 0.00030003 0.99939994 0.00030003 0 0 0 0 0 0 0 0 0 0 0 0 0.00030003 0.99939994 0.00030003 0 0 0 0 0 0 0 0 0 0 0 0 0.00030003 0.99939994 0.00030003 0 0 0 0 0 0 0 0 0 0 0 0 0.00030003 0.99939994 0.00030003 0 0 0 0 0 0 0 0 0 0 0 0 0 0 0 0 0 0 0 0.00030003 0.99939994 0.00030003 0 0 0 0 0 0 0 0 0 0 0 0 0.00030003 0.99939994 0.00030003 0 0 0 0 0 0 0 0 0 0 0 0 0.00030003 0.99939994 0.00030003 0 0 0 0 0 0 0 0 0 0 0 0 0.00030003 0.99939994 0.00030003 0 0 0 0 0 0 0 0 0 0 0 0 0.00030003 0.99939994 0.00030003 0 0 0 0 0 0 0 0 0 0 0 0 0.00030003 0.99939994 0.00030003 0 0 0 0 0 0 0 0 0 0 0 0 0 0 0 0 0 0 0 0.00030003 0.99939994 0.00030003 0 0 0 0 0 0 0 0 0 0 0 0 0.00030003 0.99939994 0.00030003 0 0 0 0 0 0 0 0 0 0 0 0 0.00030003 0.99939994 0.00030003 0 0 0 0 0 0 0 0 0 0 0 0 0.00030003 0.99939994 0.00030003 0 0 0 0 0 0 0 0 0 0 0 0 0.00030003 0.99939994 0.00030003 0 0 0 0 0 0 0 0 0 0 0 0 0.00030003 0.99939994 0.00030003 0 0 0 0 0 0 0 0 0 0 0 0 0 0 0 0 0 0 0 0.00030003 0.99939994 0.00030003 0 0 0 0 0 0 0 0 0 0 0 0 0.00030003 0.99939994 0.00030003 0 0 0 0 0 0 0 0 0 0 0 0 0.00030003 0.99939994 0.00030003 0 0 0 0 0 0 0 0 0 0 0 0 0.00030003 0.99939994 0.00030003 0 0 0 0 0 0 0 0 0 0 0 0 0.00030003 0.99939994 0.00030003 0 0 0 0 0 0 0 0 0 0 0 0 0.00030003 0.99939994 0.00030003 0 0 0 0 0 0 0 0 0 0 0 0 0 0 0 0 0 0 0 0.00030003 0.99939994 0.00030003 0 0 0 0 0 0 0 0 0 0 0 0 0.00030003 0.99939994 0.00030003 0 0 0 0 0 0 0 0 0 0 0 0 0.00030003 0.99939994 0.00030003 0 0 0 0 0 0 0 0 0 0 0 0 0.00030003 0.99939994 0.00030003 0 0 0 0 0 0 0 0 0 0 0 0 0.00030003 0.99939994 0.00030003 0 0 0 0 0 0 0 0 0 0 0 0 0.00030003 0.99939994 0.00030003 0 0 0 0 0 0 0 0 0 0 0 0 0 0 0 0 0 0 0 0.0003 0.9997 0 0 0 0 0 0 0 0 0 0 0 0 0 0.00030003 0.99939994 0.00030003 0 0 0 0 0 0 0 0 0 0 0 0 0.00030003 0.99939994 0.00030003 0 0 0 0 0 0 0 0 0 0 0 0 0.00030003 0.99939994 0.00030003 0 0 0 0 0 0 0 0 0 0 0 0 0.00030003 0.99939994 0.00030003 0 0 0 0 0 0 0 0 0 0 0 0 0.00030003 0.99939994 0.00030003 0 0 0 0 0 0 0 0 0 0 0 0 0 0 0 0 0 0 0 1 0 0 0 0 0 0 0 0 0 0 0 0 0 0 0.0003 0.9997 0 0 0 0 0 0 0 0 0 0 0 0 0 0.00030003 0.99939994 0.00030003 0 0 0 0 0 0 0 0 0 0 0 0 0.00030003 0.99939994 0.00030003 0 0 0 0 0 0 0 0 0 0 0 0 0.00030003 0.99939994 0.00030003 0 0 0 0 0 0 0 0 0 0 0 0 0.00030003 0.99939994 0.00030003 0 0 0 0 0 0 0 0 0 0 0 0 0 0 0 0 0 0 1 0 0 0 0 0 0 0 0 0 0 0 0 0 0 0 1 0 0 0 0 0 0 0 0 0 0 0 0 0 0 0.0003 0.9997 0 0 0 0 0 0 0 0 0 0 0 0 0 0.00030003 0.99939994 0.00030003 0 0 0 0 0 0 0 0 0 0 0 0 0.00030003 0.99939994 0.00030003 0 0 0 0 0 0 0 0 0 0 0 0 0.00030003 0.99939994 0.00030003 0 0 0 0 0 0 0 0 0 0 0 0 0 0 0 0 0 1 0 0 0 0 0 0 0 0 0 0 0 0 0 0 0 1 0 0 0 0 0 0 0 0 0 0 0 0 0 0 0 1 0 0 0 0 0 0 0 0 0 0 0 0 0 0 0.0003 0.9997 0 0 0 0 0 0 0 0 0 0 0 0 0 0.00030003 0.99939994 0.00030003 0 0 0 0 0 0 0 0 0 0 0 0 0.00030003 0.99939994 0.00030003 0 0 0 0 0 0 0 0 0 0 0 0 0 0 0 0 1 0 0 0 0 0 0 0 0 0 0 0 0 0 0 0 1 0 0 0 0 0 0 0 0 0 0 0 0 0 0 0 1 0 0 0 0 0 0 0 0 0 0 0 0 0 0 0 1 0 0 0 0 0 0 0 0 0 0 0 0 0 0 0.0003 0.9997 0 0 0 0 0 0 0 0 0 0 0 0 0 0.00030003 0.99939994 0.00030003 0 0 0 0 0 0 0 0 0 0 0 0 0 0 0 1 0 0 0 0 0 0 0 0 0 0 0 0 0 0 0 1 0 0 0 0 0 0 0 0 0 0 0 0 0 0 0 1 0 0 0 0 0 0 0 0 0 0 0 0 0 0 0 1 0 0 0 0 0 0 0 0 0 0 0 0 0 0 0 1 0 0 0 0 0 0 0 0 0 0 0 0 0 0 0.0003 0.9997</probabilities>
		</cpt>
		<cpt id="basal_bal_0">
			<state id="x2_8mmol_kg_h" label="F194" />
			<state id="x2_4mmol_kg_h" label="F195" />
			<state id="x2_0mmol_kg_h" label="F196" />
			<state id="x1_6mmol_kg_h" label="F197" />
			<state id="x1_2mmol_kg_h" label="F198" />
			<state id="x0_8mmol_kg_h" label="F199" />
			<state id="x0_4mmol_kg_h" label="F200" />
			<state id="x0_0mmol_kg_h" label="F201" />
			<state id="x_0_4mmol_kg_h" label="F202" />
			<state id="x_0_8mmol_kg_h" label="F203" />
			<state id="x_1_2mmol_kg_h" label="F204" />
			<state id="x_1_6mmol_kg_h" label="F205" />
			<state id="x_2_0mmol_kg_h" label="F206" />
			<state id="x_2_4mmol_kg_h" label="F207" />
			<state id="x_2_8mmol_kg_h" label="F208" />
			<state id="x_3_2mmol_kg_h" label="F209" />
			<state id="x_3_6mmol_kg_h" label="F210" />
			<state id="x_4_0mmol_kg_h" label="F211" />
			<state id="x_4_4mmol_kg_h" label="F212" />
			<parents>gut_abs_0 endo_bal_0</parents>
			<probabilities>1 0 0 0 0 0 0 0 0 0 0 0 0 0 0 0 0 0 0 1 0 0 0 0 0 0 0 0 0 0 0 0 0 0 0 0 0 0 1 0 0 0 0 0 0 0 0 0 0 0 0 0 0 0 0 0 0 0.9997 0.0003 0 0 0 0 0 0 0 0 0 0 0 0 0 0 0 0 0 0.00030003 0.99939994 0.00030003 0 0 0 0 0 0 0 0 0 0 0 0 0 0 0 0 0 0.00030003 0.99939994 0.00030003 0 0 0 0 0 0 0 0 0 0 0 0 0 0 0 0 0 0.00030003 0.99939994 0.00030003 0 0 0 0 0 0 0 0 0 0 0 0 0 0 0 0 0 0.00030003 0.99939994 0.00030003 0 0 0 0 0 0 0 0 0 0 0 0 0 0 0 0 0 0.00030003 0.99939994 0.00030003 0 0 0 0 0 0 0 0 0 0 0 0 0 0 0 0 0 0.00030003 0.99939994 0.00030003 0 0 0 0 0 0 0 0 0 0 0 0 0 0 0 0 0 0.00030003 0.99939994 0.00030003 0 0 0 0 0 0 0 0 0 0 0 0 0 0 0 0 0 0.00030003 0.99939994 0.00030003 0 0 0 0 0 0 0 0 0 0 0 0 0 0 0 0 0 0.00030003 0.99939994 0.00030003 0 0 0 0 0 0 0 0 0 0 0 0 0 0 0 0 0 0.00030003 0.99939994 0.00030003 0 0 0 0 0 0 0 0 0 0 0 0 0 0 0 0 0 0.00030003 0.99939994 0.00030003 0 0 0 0 0 0 0 0 0 0 0 0 0 0 0 0 0 0.00030003 0.99939994 0.00030003 0 0 0 0 0 0 0 0 0 0 0 0 0 0 0 0 0 0.00030003 0.99939994 0.00030003 0 0 0 0 1 0 0 0 0 0 0 0 0 0 0 0 0 0 0 0 0 0 0 1 0 0 0 0 0 0 0 0 0 0 0 0 0 0 0 0 0 0 0.9997 0.0003 0 0 0 0 0 0 0 0 0 0 0 0 0 0 0 0 0 0.00030003 0.99939994 0.00030003 0 0 0 0 0 0 0 0 0 0 0 0 0 0 0 0 0 0.00030003 0.99939994 0.00030003 0 0 0 0 0 0 0 0 0 0 0 0 0 0 0 0 0 0.00030003 0.99939994 0.00030003 0 0 0 0 0 0 0 0 0 0 0 0 0 0 0 0 0 0.00030003 0.99939994 0.00030003 0 0 0 0 0 0 0 0 0 0 0 0 0 0 0 0 0 0.00030003 0.99939994 0.00030003 0 0 0 0 0 0 0 0 0 0 0 0 0 0 0 0 0 0.00030003 0.99939994 0.00030003 0 0 0 0 0 0 0 0 0 0 0 0 0 0 0 0 0 0.00030003 0.99939994 0.00030003 0 0 0 0 0 0 0 0 0 0 0 0 0 0 0 0 0 0.00030003 0.99939994 0.00030003 0 0 0 0 0 0 0 0 0 0 0 0 0 0 0 0 0 0.00030003 0.99939994 0.00030003 0 0 0 0 0 0 0 0 0 0 0 0 0 0 0 0 0 0.00030003 0.99939994 0.00030003 0 0 0 0 0 0 0 0 0 0 0 0 0 0 0 0 0 0.00030003 0.99939994 0.00030003 0 0 0 0 0 0 0 0 0 0 0 0 0 0 0 0 0 0.00030003 0.99939994 0.00030003 0 0 0 0 0 0 0 0 0 0 0 0 0 0 0 0 0 0.00030003 0.99939994 0.00030003 0 0 0 0 0 0 0 0 0 0 0 0 0 0 0 0 0 0.00030003 0.99939994 0.00030003 0 0 0 1 0 0 0 0 0 0 0 0 0 0 0 0 0 0 0 0 0 0 0.9997 0.0003 0 0 0 0 0 0 0 0 0 0 0 0 0 0 0 0 0 0.00030003 0.99939994 0.00030003 0 0 0 0 0 0 0 0 0 0 0 0 0 0 0 0 0 0.00030003 0.99939994 0.00030003 0 0 0 0 0 0 0 0 0 0 0 0 0 0 0 0 0 0.00030003 0.99939994 0.00030003 0 0 0 0 0 0 0 0 0 0 0 0 0 0 0 0 0 0.00030003 0.99939994 0.00030003 0 0 0 0 0 0 0 0 0 0 0 0 0 0 0 0 0 0.00030003 0.99939994 0.00030003 0 0 0 0 0 0 0 0 0 0 0 0 0 0 0 0 0 0.00030003 0.99939994 0.00030003 0 0 0 0 0 0 0 0 0 0 0 0 0 0 0 0 0 0.00030003 0.99939994 0.00030003 0 0 0 0 0 0 0 0 0 0 0 0 0 0 0 0 0 0.00030003 0.99939994 0.00030003 0 0 0 0 0 0 0 0 0 0 0 0 0 0 0 0 0 0.00030003 0.99939994 0.00030003 0 0 0 0 0 0 0 0 0 0 0 0 0 0 0 0 0 0.00030003 0.99939994 0.00030003 0 0 0 0 0 0 0 0 0 0 0 0 0 0 0 0 0 0.00030003 0.99939994 0.00030003 0 0 0 0 0 0 0 0 0 0 0 0 0 0 0 0 0 0.00030003 0.99939994 0.00030003 0 0 0 0 0 0 0 0 0 0 0 0 0 0 0 0 0 0.00030003 0.99939994 0.00030003 0 0 0 0 0 0 0 0 0 0 0 0 0 0 0 0 0 0.00030003 0.99939994 0.00030003 0 0 0 0 0 0 0 0 0 0 0 0 0 0 0 0 0 0.00030003 0.99939994 0.00030003 0 0 0.9997 0.0003 0 0 0 0 0 0 0 0 0 0 0 0 0 0 0 0 0 0.00030003 0.99939994 0.00030003 0 0 0 0 0 0 0 0 0 0 0 0 0 0 0 0 0 0.00030003 0.99939994 0.00030003 0 0 0 0 0 0 0 0 0 0 0 0 0 0 0 0 0 0.00030003 0.99939994 0.00030003 0 0 0 0 0 0 0 0 0 0 0 0 0 0 0 0 0 0.00030003 0.99939994 0.00030003 0 0 0 0 0 0 0 0 0 0 0 0 0 0 0 0 0 0.00030003 0.99939994 0.00030003 0 0 0 0 0 0 0 0 0 0 0 0 0 0 0 0 0 0.00030003 0.99939994 0.00030003 0 0 0 0 0 0 0 0 0 0 0 0 0 0 0 0 0 0.00030003 0.99939994 0.00030003 0 0 0 0 0 0 0 0 0 0 0 0 0 0 0 0 0 0.00030003 0.99939994 0.00030003 0 0 0 0 0 0 0 0 0 0 0 0 0 0 0 0 0 0.00030003 0.99939994 0.00030003 0 0 0 0 0 0 0 0 0 0 0 0 0 0 0 0 0 0.00030003 0.99939994 0.00030003 0 0 0 0 0 0 0 0 0 0 0 0 0 0 0 0 0 0.00030003 0.99939994 0.00030003 0 0 0 0 0 0 0 0 0 0 0 0 0 0 0 0 0 0.00030003 0.99939994 0.00030003 0 0 0 0 0 0 0 0 0 0 0 0 0 0 0 0 0 0.00030003 0.99939994 0.00030003 0 0 0 0 0 0 0 0 0 0 0 0 0 0 0 0 0 0.00030003 0.99939994 0.00030003 0 0 0 0 0 0 0 0 0 0 0 0 0 0 0 0 0 0.00030003 0.99939994 0.00030003 0 0 0 0 0 0 0 0 0 0 0 0 0 0 0 0 0 0.00030003 0.99939994 0.00030003 0 0.00030003 0.99939994 0.00030003 0 0 0 0 0 0 0 0 0 0 0 0 0 0 0 0 0 0.00030003 0.99939994 0.00030003 0 0 0 0 0 0 0 0 0 0 0 0 0 0 0 0 0 0.00030003 0.99939994 0.00030003 0 0 0 0 0 0 0 0 0 0 0 0 0 0 0 0 0 0.00030003 0.99939994 0.00030003 0 0 0 0 0 0 0 0 0 0 0 0 0 0 0 0 0 0.00030003 0.99939994 0.00030003 0 0 0 0 0 0 0 0 0 0 0 0 0 0 0 0 0 0.00030003 0.99939994 0.00030003 0 0 0 0 0 0 0 0 0 0 0 0 0 0 0 0 0 0.00030003 0.99939994 0.00030003 0 0 0 0 0 0 0 0 0 0 0 0 0 0 0 0 0 0.00030003 0.99939994 0.00030003 0 0 0 0 0 0 0 0 0 0 0 0 0 0 0 0 0 0.00030003 0.99939994 0.00030003 0 0 0 0 0 0 0 0 0 0 0 0 0 0 0 0 0 0.00030003 0.99939994 0.00030003 0 0 0 0 0 0 0 0 0 0 0 0 0 0 0 0 0 0.00030003 0.99939994 0.00030003 0 0 0 0 0 0 0 0 0 0 0 0 0 0 0 0 0 0.00030003 0.99939994 0.00030003 0 0 0 0 0 0 0 0 0 0 0 0 0 0 0 0 0 0.00030003 0.99939994 0.00030003 0 0 0 0 0 0 0 0 0 0 0 0 0 0 0 0 0 0.00030003 0.99939994 0.00030003 0 0 0 0 0 0 0 0 0 0 0 0 0 0 0 0 0 0.00030003 0.99939994 0.00030003 0 0 0 0 0 0 0 0 0 0 0 0 0 0 0 0 0 0.00030003 0.99939994 0.00030003 0 0 0 0 0 0 0 0 0 0 0 0 0 0 0 0 0 0.00030003 0.99939994 0.00030003 0 0.00030003 0.99939994 0.00030003 0 0 0 0 0 0 0 0 0 0 0 0 0 0 0 0 0 0.00030003 0.99939994 0.00030003 0 0 0 0 0 0 0 0 0 0 0 0 0 0 0 0 0 0.00030003 0.99939994 0.00030003 0 0 0 0 0 0 0 0 0 0 0 0 0 0 0 0 0 0.00030003 0.99939994 0.00030003 0 0 0 0 0 0 0 0 0 0 0 0 0 0 0 0 0 0.00030003 0.99939994 0.00030003 0 0 0 0 0 0 0 0 0 0 0 0 0 0 0 0 0 0.00030003 0.99939994 0.00030003 0 0 0 0 0 0 0 0 0 0 0 0 0 0 0 0 0 0.00030003 0.99939994 0.00030003 0 0 0 0 0 0 0 0 0 0 0 0 0 0 0 0 0 0.00030003 0.99939994 0.00030003 0 0 0 0 0 0 0 0 0 0 0 0 0 0 0 0 0 0.00030003 0.99939994 0.00030003 0 0 0 0 0 0 0 0 0 0 0 0 0 0 0 0 0 0.00030003 0.99939994 0.00030003 0 0 0 0 0 0 0 0 0 0 0 0 0 0 0 0 0 0.00030003 0.99939994 0.00030003 0 0 0 0 0 0 0 0 0 0 0 0 0 0 0 0 0 0.00030003 0.99939994 0.00030003 0 0 0 0 0 0 0 0 0 0 0 0 0 0 0 0 0 0.00030003 0.99939994 0.00030003 0 0 0 0 0 0 0 0 0 0 0 0 0 0 0 0 0 0.00030003 0.99939994 0.00030003 0 0 0 0 0 0 0 0 0 0 0 0 0 0 0 0 0 0.00030003 0.99939994 0.00030003 0 0 0 0 0 0 0 0 0 0 0 0 0 0 0 0 0 0.00030003 0.99939994 0.00030003 0 0 0 0 0 0 0 0 0 0 0 0 0 0 0 0 0 0.0003 0.9997</probabilities>
		</cpt>
		<cpt id="met_irr_0">
			<state id="x1_2mmol_kg_h" label="F213" />
			<state id="x0_8mmol_kg_h" label="F214" />
			<state id="x0_4mmol_kg_h" label="F215" />
			<state id="x0_0mmol_kg_h" label="F216" />
			<state id="x_0_4mmol_kg_h" label="F217" />
			<state id="x_0_8mmol_kg_h" label="F218" />
			<state id="x_1_2mmol_kg_h" label="F219" />
			<probabilities>0.02 0.05 0.18 0.5 0.18 0.05 0.02</probabilities>
		</cpt>
		<cpt id="tot_bal_0">
			<state id="x2_8mmol_kg_h" label="F220" />
			<state id="x2_4mmol_kg_h" label="F221" />
			<state id="x2_0mmol_kg_h" label="F222" />
			<state id="x1_6mmol_kg_h" label="F223" />
			<state id="x1_2mmol_kg_h" label="F224" />
			<state id="x0_8mmol_kg_h" label="F225" />
			<state id="x0_4mmol_kg_h" label="F226" />
			<state id="x0_0mmol_kg_h" label="F227" />
			<state id="x_0_4mmol_kg_h" label="F228" />
			<state id="x_0_8mmol_kg_h" label="F229" />
			<state id="x_1_2mmol_kg_h" label="F230" />
			<state id="x_1_6mmol_kg_h" label="F231" />
			<state id="x_2_0mmol_kg_h" label="F232" />
			<state id="x_2_4mmol_kg_h" label="F233" />
			<state id="x_2_8mmol_kg_h" label="F234" />
			<parents>basal_bal_0 met_irr_0</parents>
			<probabilities>1 0 0 0 0 0 0 0 0 0 0 0 0 0 0 1 0 0 0 0 0 0 0 0 0 0 0 0 0 0 1 0 0 0 0 0 0 0 0 0 0 0 0 0 0 0.9997 0.0003 0 0 0 0 0 0 0 0 0 0 0 0 0 0.00030003 0.99939994 0.00030003 0 0 0 0 0 0 0 0 0 0 0 0 0 0.00030003 0.99939994 0.00030003 0 0 0 0 0 0 0 0 0 0 0 0 0 0.00030003 0.99939994 0.00030003 0 0 0 0 0 0 0 0 0 0 1 0 0 0 0 0 0 0 0 0 0 0 0 0 0 1 0 0 0 0 0 0 0 0 0 0 0 0 0 0 0.9997 0.0003 0 0 0 0 0 0 0 0 0 0 0 0 0 0.00030003 0.99939994 0.00030003 0 0 0 0 0 0 0 0 0 0 0 0 0 0.00030003 0.99939994 0.00030003 0 0 0 0 0 0 0 0 0 0 0 0 0 0.00030003 0.99939994 0.00030003 0 0 0 0 0 0 0 0 0 0 0 0 0 0.00030003 0.99939994 0.00030003 0 0 0 0 0 0 0 0 0 1 0 0 0 0 0 0 0 0 0 0 0 0 0 0 0.9997 0.0003 0 0 0 0 0 0 0 0 0 0 0 0 0 0.00030003 0.99939994 0.00030003 0 0 0 0 0 0 0 0 0 0 0 0 0 0.00030003 0.99939994 0.00030003 0 0 0 0 0 0 0 0 0 0 0 0 0 0.00030003 0.99939994 0.00030003 0 0 0 0 0 0 0 0 0 0 0 0 0 0.00030003 0.99939994 0.00030003 0 0 0 0 0 0 0 0 0 0 0 0 0 0.00030003 0.99939994 0.00030003 0 0 0 0 0 0 0 0 0.9997 0.0003 0 0 0 0 0 0 0 0 0 0 0 0 0 0.00030003 0.99939994 0.00030003 0 0 0 0 0 0 0 0 0 0 0 0 0 0.00030003 0.99939994 0.00030003 0 0 0 0 0 0 0 0 0 0 0 0 0 0.00030003 0.99939994 0.00030003 0 0 0 0 0 0 0 0 0 0 0 0 0 0.00030003 0.99939994 0.00030003 0 0 0 0 0 0 0 0 0 0 0 0 0 0.00030003 0.99939994 0.00030003 0 0 0 0 0 0 0 0 0 0 0 0 0 0.00030003 0.99939994 0.00030003 0 0 0 0 0 0 0 0.00030003 0.99939994 0.00030003 0 0 0 0 0 0 0 0 0 0 0 0 0 0.00030003 0.99939994 0.00030003 0 0 0 0 0 0 0 0 0 0 0 0 0 0.00030003 0.99939994 0.00030003 0 0 0 0 0 0 0 0 0 0 0 0 0 0.00030003 0.99939994 0.00030003 0 0 0 0 0 0 0 0 0 0 0 0 0 0.00030003 0.99939994 0.00030003 0 0 0 0 0 0 0 0 0 0 0 0 0 0.00030003 0.99939994 0.00030003 0 0 0 0 0 0 0 0 0 0 0 0 0 0.00030003 0.99939994 0.00030003 0 0 0 0 0 0 0 0.00030003 0.99939994 0.00030003 0 0 0 0 0 0 0 0 0 0 0 0 0 0.00030003 0.99939994 0.00030003 0 0 0 0 0 0 0 0 0 0 0 0 0 0.00030003 0.99939994 0.00030003 0 0 0 0 0 0 0 0 0 0 0 0 0 0.00030003 0.99939994 0.00030003 0 0 0 0 0 0 0 0 0 0 0 0 0 0.00030003 0.99939994 0.00030003 0 0 0 0 0 0 0 0 0 0 0 0 0 0.00030003 0.99939994 0.00030003 0 0 0 0 0 0 0 0 0 0 0 0 0 0.00030003 0.99939994 0.00030003 0 0 0 0 0 0 0 0.00030003 0.99939994 0.00030003 0 0 0 0 0 0 0 0 0 0 0 0 0 0.00030003 0.99939994 0.00030003 0 0 0 0 0 0 0 0 0 0 0 0 0 0.00030003 0.99939994 0.00030003 0 0 0 0 0 0 0 0 0 0 0 0 0 0.00030003 0.99939994 0.00030003 0 0 0 0 0 0 0 0 0 0 0 0 0 0.00030003 0.99939994 0.00030003 0 0 0 0 0 0 0 0 0 0 0 0 0 0.00030003 0.99939994 0.00030003 0 0 0 0 0 0 0 0 0 0 0 0 0 0.00030003 0.99939994 0.00030003 0 0 0 0 0 0 0 0.00030003 0.99939994 0.00030003 0 0 0 0 0 0 0 0 0 0 0 0 0 0.00030003 0.99939994 0.00030003 0 0 0 0 0 0 0 0 0 0 0 0 0 0.00030003 0.99939994 0.00030003 0 0 0 0 0 0 0 0 0 0 0 0 0 0.00030003 0.99939994 0.00030003 0 0 0 0 0 0 0 0 0 0 0 0 0 0.00030003 0.99939994 0.00030003 0 0 0 0 0 0 0 0 0 0 0 0 0 0.00030003 0.99939994 0.00030003 0 0 0 0 0 0 0 0 0 0 0 0 0 0.00030003 0.99939994 0.00030003 0 0 0 0 0 0 0 0.00030003 0.99939994 0.00030003 0 0 0 0 0 0 0 0 0 0 0 0 0 0.00030003 0.99939994 0.00030003 0 0 0 0 0 0 0 0 0 0 0 0 0 0.00030003 0.99939994 0.00030003 0 0 0 0 0 0 0 0 0 0 0 0 0 0.00030003 0.99939994 0.00030003 0 0 0 0 0 0 0 0 0 0 0 0 0 0.00030003 0.99939994 0.00030003 0 0 0 0 0 0 0 0 0 0 0 0 0 0.00030003 0.99939994 0.00030003 0 0 0 0 0 0 0 0 0 0 0 0 0 0.00030003 0.99939994 0.00030003 0 0 0 0 0 0 0 0.00030003 0.99939994 0.00030003 0 0 0 0 0 0 0 0 0 0 0 0 0 0.00030003 0.99939994 0.00030003 0 0 0 0 0 0 0 0 0 0 0 0 0 0.00030003 0.99939994 0.00030003 0 0 0 0 0 0 0 0 0 0 0 0 0 0.00030003 0.99939994 0.00030003 0 0 0 0 0 0 0 0 0 0 0 0 0 0.00030003 0.99939994 0.00030003 0 0 0 0 0 0 0 0 0 0 0 0 0 0.00030003 0.99939994 0.00030003 0 0 0 0 0 0 0 0 0 0 0 0 0 0.00030003 0.99939994 0.00030003 0 0 0 0 0 0 0 0.00030003 0.99939994 0.00030003 0 0 0 0 0 0 0 0 0 0 0 0 0 0.00030003 0.99939994 0.00030003 0 0 0 0 0 0 0 0 0 0 0 0 0 0.00030003 0.99939994 0.00030003 0 0 0 0 0 0 0 0 0 0 0 0 0 0.00030003 0.99939994 0.00030003 0 0 0 0 0 0 0 0 0 0 0 0 0 0.00030003 0.99939994 0.00030003 0 0 0 0 0 0 0 0 0 0 0 0 0 0.00030003 0.99939994 0.00030003 0 0 0 0 0 0 0 0 0 0 0 0 0 0.00030003 0.99939994 0.00030003 0 0 0 0 0 0 0 0.00030003 0.99939994 0.00030003 0 0 0 0 0 0 0 0 0 0 0 0 0 0.00030003 0.99939994 0.00030003 0 0 0 0 0 0 0 0 0 0 0 0 0 0.00030003 0.99939994 0.00030003 0 0 0 0 0 0 0 0 0 0 0 0 0 0.00030003 0.99939994 0.00030003 0 0 0 0 0 0 0 0 0 0 0 0 0 0.00030003 0.99939994 0.00030003 0 0 0 0 0 0 0 0 0 0 0 0 0 0.00030003 0.99939994 0.00030003 0 0 0 0 0 0 0 0 0 0 0 0 0 0.0003 0.9997 0 0 0 0 0 0 0 0 0.00030003 0.99939994 0.00030003 0 0 0 0 0 0 0 0 0 0 0 0 0 0.00030003 0.99939994 0.00030003 0 0 0 0 0 0 0 0 0 0 0 0 0 0.00030003 0.99939994 0.00030003 0 0 0 0 0 0 0 0 0 0 0 0 0 0.00030003 0.99939994 0.00030003 0 0 0 0 0 0 0 0 0 0 0 0 0 0.00030003 0.99939994 0.00030003 0 0 0 0 0 0 0 0 0 0 0 0 0 0.0003 0.9997 0 0 0 0 0 0 0 0 0 0 0 0 0 0 1 0 0 0 0 0 0 0 0 0 0.00030003 0.99939994 0.00030003 0 0 0 0 0 0 0 0 0 0 0 0 0 0.00030003 0.99939994 0.00030003 0 0 0 0 0 0 0 0 0 0 0 0 0 0.00030003 0.99939994 0.00030003 0 0 0 0 0 0 0 0 0 0 0 0 0 0.00030003 0.99939994 0.00030003 0 0 0 0 0 0 0 0 0 0 0 0 0 0.0003 0.9997 0 0 0 0 0 0 0 0 0 0 0 0 0 0 1 0 0 0 0 0 0 0 0 0 0 0 0 0 0 1 0 0 0 0 0 0 0 0 0 0 0.00030003 0.99939994 0.00030003 0 0 0 0 0 0 0 0 0 0 0 0 0 0.00030003 0.99939994 0.00030003 0 0 0 0 0 0 0 0 0 0 0 0 0 0.00030003 0.99939994 0.00030003 0 0 0 0 0 0 0 0 0 0 0 0 0 0.0003 0.9997 0 0 0 0 0 0 0 0 0 0 0 0 0 0 1 0 0 0 0 0 0 0 0 0 0 0 0 0 0 1 0 0 0 0 0 0 0 0 0 0 0 0 0 0 1 0 0 0 0 0 0 0 0 0 0 0 0.00030003 0.99939994 0.00030003 0 0 0 0 0 0 0 0 0 0 0 0 0 0.00030003 0.99939994 0.00030003 0 0 0 0 0 0 0 0 0 0 0 0 0 0.0003 0.9997 0 0 0 0 0 0 0 0 0 0 0 0 0 0 1 0 0 0 0 0 0 0 0 0 0 0 0 0 0 1 0 0 0 0 0 0 0 0 0 0 0 0 0 0 1 0 0 0 0 0 0 0 0 0 0 0 0 0 0 1 0 0 0 0 0 0 0 0 0 0 0 0 0.00030003 0.99939994 0.00030003 0 0 0 0 0 0 0 0 0 0 0 0 0 0.0003 0.9997 0 0 0 0 0 0 0 0 0 0 0 0 0 0 1 0 0 0 0 0 0 0 0 0 0 0 0 0 0 1 0 0 0 0 0 0 0 0 0 0 0 0 0 0 1 0 0 0 0 0 0 0 0 0 0 0 0 0 0 1 0 0 0 0 0 0 0 0 0 0 0 0 0 0 1 0 0 0 0 0 0 0 0 0 0 0 0 0 0.0003 0.9997 0 0 0 0 0 0 0 0 0 0 0 0 0 0 1 0 0 0 0 0 0 0 0 0 0 0 0 0 0 1 0 0 0 0 0 0 0 0 0 0 0 0 0 0 1 0 0 0 0 0 0 0 0 0 0 0 0 0 0 1 0 0 0 0 0 0 0 0 0 0 0 0 0 0 1 0 0 0 0 0 0 0 0 0 0 0 0 0 0 1 0 0 0 0 0 0 0 0 0 0 0 0 0 0 1 0 0 0 0 0 0 0 0 0 0 0 0 0 0 1 0 0 0 0 0 0 0 0 0 0 0 0 0 0 1 0 0 0 0 0 0 0 0 0 0 0 0 0 0 1 0 0 0 0 0 0 0 0 0 0 0 0 0 0 1 0 0 0 0 0 0 0 0 0 0 0 0 0 0 1 0 0 0 0 0 0 0 0 0 0 0 0 0 0 1</probabilities>
		</cpt>
		<cpt id="meal_1">
			<state id="x100g" label="F235" />
			<state id="x95g" label="F236" />
			<state id="x90g" label="F237" />
			<state id="x85g" label="F238" />
			<state id="x80g" label="F239" />
			<state id="x75g" label="F240" />
			<state id="x70g" label="F241" />
			<state id="x65g" label="F242" />
			<state id="x60g" label="F243" />
			<state id="x55g" label="F244" />
			<state id="x50g" label="F245" />
			<state id="x45g" label="F246" />
			<state id="x40g" label="F247" />
			<state id="x35g" label="F248" />
			<state id="x30g" label="F249" />
			<state id="x25g" label="F250" />
			<state id="x20g" label="F251" />
			<state id="x15g" label="F252" />
			<state id="x10g" label="F253" />
			<state id="x5g" label="F254" />
			<state id="x0g" label="F255" />
			<probabilities>0.01 0.01 0.01 0.01 0.01 0.01 0.01 0.01 0.01 0.01 0.01 0.01 0.01 0.01 0.01 0.01 0.01 0.01 0.01 0.01 0.8</probabilities>
		</cpt>
		<cpt id="cho_1">
			<state id="x8_0mmol_kg" label="F256" />
			<state id="x7_6mmol_kg" label="F257" />
			<state id="x7_2mmol_kg" label="F258" />
			<state id="x6_8mmol_kg" label="F259" />
			<state id="x6_4mmol_kg" label="F260" />
			<state id="x6_0mmol_kg" label="F261" />
			<state id="x5_6mmol_kg" label="F262" />
			<state id="x5_2mmol_kg" label="F263" />
			<state id="x4_8mmol_kg" label="F264" />
			<state id="x4_4mmol_kg" label="F265" />
			<state id="x4_0mmol_kg" label="F266" />
			<state id="x3_6mmol_kg" label="F267" />
			<state id="x3_2mmol_kg" label="F268" />
			<state id="x2_8mmol_kg" label="F269" />
			<state id="x2_4mmol_kg" label="F270" />
			<state id="x2_0mmol_kg" label="F271" />
			<state id="x1_6mmol_kg" label="F272" />
			<state id="x1_2mmol_kg" label="F273" />
			<state id="x0_8mmol_kg" label="F274" />
			<state id="x0_4mmol_kg" label="F275" />
			<state id="x0_0mmol_kg" label="F276" />
			<parents>meal_1 cho_bal_0</parents>
