<?xml version="1.0" encoding="ISO-8859-1"?>
<smile version="1.0" id="Obfuscated" numsamples="1000" discsamples="10000">
	<nodes>
		<cpt id="n0" target="true" diagtype="target" ranked="true">
			<state id="s0" fault="true" />
			<state id="s1" fault="true" />
			<state id="s2" />
			<probabilities>0.0019125 0.0003375000000000001 0.99775</probabilities>
		</cpt>
		<cpt id="n1" target="true" diagtype="target" ranked="true">
			<state id="s0" fault="true" />
			<state id="s1" fault="true" />
			<state id="s2" />
			<probabilities>0.0021375 0.0001125 0.99775</probabilities>
		</cpt>
		<cpt id="n2" target="true" diagtype="target" ranked="true">
			<state id="s0" fault="true" />
			<state id="s1" fault="true" />
			<state id="s2" />
			<probabilities>0.0021375 0.0001125 0.99775</probabilities>
		</cpt>
		<cpt id="n3" target="true" diagtype="target" ranked="true">
			<state id="s0" fault="true" />
			<state id="s1" fault="true" />
			<state id="s2" />
			<probabilities>0.0021375 0.0001125 0.99775</probabilities>
		</cpt>
		<cpt id="n4" target="true" diagtype="target" ranked="true">
			<state id="s0" fault="true" />
			<state id="s1" fault="true" />
			<state id="s2" />
			<probabilities>0.0021375 0.0001125 0.99775</probabilities>
		</cpt>
		<cpt id="n5" target="true" diagtype="target" ranked="true">
			<state id="s0" fault="true" />
			<state id="s1" fault="true" />
			<state id="s2" />
			<probabilities>0.0021375 0.0001125 0.99775</probabilities>
		</cpt>
		<cpt id="n6" target="true" diagtype="target" ranked="true">
			<state id="s0" fault="true" />
			<state id="s1" />
			<probabilities>0.0002500000000000001 0.99975</probabilities>
		</cpt>
		<cpt id="n7" target="true" diagtype="target" ranked="true">
			<state id="s0" fault="true" />
			<state id="s1" />
			<probabilities>7.500000000000001e-05 0.999925</probabilities>
		</cpt>
		<cpt id="n8" target="true" diagtype="target" ranked="true">
			<state id="s0" fault="true" />
			<state id="s1" />
			<probabilities>7.500000000000001e-05 0.999925</probabilities>
		</cpt>
		<cpt id="n9" target="true" diagtype="target" ranked="true">
			<state id="s0" fault="true" />
			<state id="s1" />
			<probabilities>0.0002500000000000001 0.99975</probabilities>
		</cpt>
		<cpt id="n10" target="true" diagtype="target" ranked="true">
			<state id="s0" fault="true" />
			<state id="s1" />
			<probabilities>0.0002500000000000001 0.99975</probabilities>
		</cpt>
		<cpt id="n11" target="true" diagtype="target" ranked="true">
			<state id="s0" fault="true" />
			<state id="s1" />
			<probabilities>0.0002500000000000001 0.99975</probabilities>
		</cpt>
		<cpt id="n12" target="true" diagtype="target" ranked="true">
			<state id="s0" fault="true" />
			<state id="s1" />
			<probabilities>0.0002500000000000001 0.99975</probabilities>
		</cpt>
		<cpt id="n13" target="true" diagtype="target" ranked="true">
			<state id="s0" fault="true" />
			<state id="s1" />
			<probabilities>7.500000000000001e-05 0.999925</probabilities>
		</cpt>
		<cpt id="n14" target="true" diagtype="target" ranked="true">
			<state id="s0" fault="true" />
			<state id="s1" />
			<probabilities>0.0002500000000000001 0.99975</probabilities>
		</cpt>
		<cpt id="n15" target="true" diagtype="target" ranked="true">
			<state id="s0" fault="true" />
			<state id="s1" />
			<probabilities>0.0002500000000000001 0.99975</probabilities>
		</cpt>
		<cpt id="n16" target="true" diagtype="target" ranked="true">
			<state id="s0" fault="true" />
			<state id="s1" />
			<probabilities>0.0002500000000000001 0.99975</probabilities>
		</cpt>
		<cpt id="n17" target="true" diagtype="target" ranked="true">
			<state id="s0" fault="true" />
			<state id="s1" />
			<probabilities>0.0002500000000000001 0.99975</probabilities>
		</cpt>
		<cpt id="n18" target="true" diagtype="target" ranked="true">
			<state id="s0" fault="true" />
			<state id="s1" />
			<probabilities>0.0002500000000000001 0.99975</probabilities>
		</cpt>
		<cpt id="n19" target="true" diagtype="target" ranked="true">
			<state id="s0" fault="true" />
			<state id="s1" />
			<probabilities>0.0002500000000000001 0.99975</probabilities>
		</cpt>
		<cpt id="n20" target="true" diagtype="target" ranked="true">
			<state id="s0" fault="true" />
			<state id="s1" />
			<probabilities>0.0002500000000000001 0.99975</probabilities>
		</cpt>
		<cpt id="n21" target="true" diagtype="target" ranked="true">
			<state id="s0" fault="true" />
			<state id="s1" />
			<probabilities>0.0002500000000000001 0.99975</probabilities>
		</cpt>
		<cpt id="n22" target="true" diagtype="target" ranked="true">
			<state id="s0" fault="true" />
			<state id="s1" />
			<probabilities>0.0002500000000000001 0.99975</probabilities>
		</cpt>
		<cpt id="n23" target="true" diagtype="target" ranked="true">
			<state id="s0" fault="true" />
			<state id="s1" />
			<probabilities>0.0002500000000000001 0.99975</probabilities>
		</cpt>
		<cpt id="n24" target="true" diagtype="target" ranked="true">
			<state id="s0" fault="true" />
			<state id="s1" />
			<probabilities>0.0002500000000000001 0.99975</probabilities>
		</cpt>
		<cpt id="n25" target="true" diagtype="target" ranked="true">
			<state id="s0" fault="true" />
			<state id="s1" />
			<probabilities>0.0002500000000000001 0.99975</probabilities>
		</cpt>
		<cpt id="n26" target="true" diagtype="target" ranked="true">
			<state id="s0" fault="true" />
			<state id="s1" />
			<probabilities>0.0002500000000000001 0.99975</probabilities>
		</cpt>
		<cpt id="n27" target="true" diagtype="target" ranked="true">
			<state id="s0" fault="true" />
			<state id="s1" />
			<probabilities>0.0002500000000000001 0.99975</probabilities>
		</cpt>
		<cpt id="n28" target="true" diagtype="target" ranked="true">
			<state id="s0" fault="true" />
			<state id="s1" />
			<probabilities>0.0002500000000000001 0.99975</probabilities>
		</cpt>
		<cpt id="n29" target="true" diagtype="target" ranked="true">
			<state id="s0" fault="true" />
			<state id="s1" />
			<probabilities>0.0002500000000000001 0.99975</probabilities>
		</cpt>
		<cpt id="n30" target="true" diagtype="target" ranked="true">
			<state id="s0" fault="true" />
			<state id="s1" />
			<probabilities>0.0002500000000000001 0.99975</probabilities>
		</cpt>
		<cpt id="n31" target="true" diagtype="target" ranked="true">
			<state id="s0" fault="true" />
			<state id="s1" />
			<probabilities>0.0002500000000000001 0.99975</probabilities>
		</cpt>
		<cpt id="n32" target="true" diagtype="target" ranked="true">
			<state id="s0" fault="true" />
			<state id="s1" />
			<probabilities>0.0002500000000000001 0.99975</probabilities>
		</cpt>
		<cpt id="n33" target="true" diagtype="target" ranked="true">
			<state id="s0" fault="true" />
			<state id="s1" />
			<probabilities>0.0002500000000000001 0.99975</probabilities>
		</cpt>
		<cpt id="n34" target="true" diagtype="target" ranked="true">
			<state id="s0" fault="true" />
			<state id="s1" />
			<probabilities>0.0002500000000000001 0.99975</probabilities>
		</cpt>
		<cpt id="n35" target="true" diagtype="target" ranked="true">
			<state id="s0" fault="true" />
			<state id="s1" />
			<probabilities>0.0002500000000000001 0.99975</probabilities>
		</cpt>
		<cpt id="n36" target="true" diagtype="target" ranked="true">
			<state id="s0" fault="true" />
			<state id="s1" />
			<probabilities>0.0002500000000000001 0.99975</probabilities>
		</cpt>
		<cpt id="n37" target="true" diagtype="target" ranked="true">
			<state id="s0" fault="true" />
			<state id="s1" />
			<probabilities>0.0005250000000000002 0.999475</probabilities>
		</cpt>
		<cpt id="n38" target="true" diagtype="target" ranked="true">
			<state id="s0" fault="true" />
			<state id="s1" />
			<probabilities>0.001708325 0.998291675</probabilities>
		</cpt>
		<cpt id="n39" target="true" diagtype="target" ranked="true">
			<state id="s0" fault="true" />
			<state id="s1" />
			<probabilities>4.166675e-05 0.9999583332500001</probabilities>
		</cpt>
		<cpt id="n40" target="true" diagtype="target" ranked="true">
			<state id="s0" fault="true" />
			<state id="s1" />
			<probabilities>0.000125 0.999875</probabilities>
		</cpt>
		<cpt id="n41" target="true" diagtype="target" ranked="true">
			<state id="s0" fault="true" />
			<state id="s1" />
			<probabilities>0.001708325 0.998291675</probabilities>
		</cpt>
		<cpt id="n42" target="true" diagtype="target" ranked="true">
			<state id="s0" fault="true" />
			<state id="s1" />
			<probabilities>0.000171875 0.999828125</probabilities>
		</cpt>
		<cpt id="n43" target="true" diagtype="target" ranked="true">
			<state id="s0" fault="true" />
			<state id="s1" />
			<probabilities>0.003265625 0.996734375</probabilities>
		</cpt>
		<cpt id="n44" target="true" diagtype="target" ranked="true">
			<state id="s0" fault="true" />
			<state id="s1" />
			<probabilities>7.500000000000001e-05 0.999925</probabilities>
		</cpt>
		<cpt id="n45" target="true" diagtype="target" ranked="true">
			<state id="s0" fault="true" />
			<state id="s1" />
			<probabilities>0.013 0.987</probabilities>
		</cpt>
		<cpt id="n46" target="true" diagtype="target" ranked="true">
			<state id="s0" fault="true" />
			<state id="s1" />
			<probabilities>0.0075 0.9925</probabilities>
		</cpt>
		<cpt id="n47" target="true" diagtype="target" ranked="true">
			<state id="s0" fault="true" />
			<state id="s1" />
			<probabilities>0.0002500000000000001 0.99975</probabilities>
		</cpt>
		<cpt id="n48" target="true" diagtype="target" ranked="true">
			<state id="s0" fault="true" />
			<state id="s1" />
			<probabilities>0.0002500000000000001 0.99975</probabilities>
		</cpt>
		<cpt id="n49" target="true" diagtype="target" ranked="true">
			<state id="s0" fault="true" />
			<state id="s1" />
			<probabilities>0.000125 0.999875</probabilities>
		</cpt>
		<cpt id="n50" target="true" diagtype="target" ranked="true">
			<state id="s0" fault="true" />
			<state id="s1" />
			<probabilities>0.000125 0.999875</probabilities>
		</cpt>
		<cpt id="n51" target="true" diagtype="target" ranked="true">
			<state id="s0" fault="true" />
			<state id="s1" fault="true" />
			<state id="s2" />
			<probabilities>4.166662500000001e-05 4.166662500000001e-05 0.99991666675</probabilities>
		</cpt>
		<cpt id="n52" target="true" diagtype="target" ranked="true">
			<state id="s0" fault="true" />
			<state id="s1" />
			<probabilities>2.5e-05 0.9999749999999999</probabilities>
		</cpt>
		<cpt id="n53" target="true" diagtype="target" ranked="true">
			<state id="s0" fault="true" />
			<state id="s1" />
			<probabilities>0.0005000000000000001 0.9995000000000001</probabilities>
		</cpt>
		<cpt id="n54" target="true" diagtype="target" ranked="true">
			<state id="s0" fault="true" />
			<state id="s1" />
			<probabilities>0.0005000000000000001 0.9995000000000001</probabilities>
		</cpt>
		<cpt id="n55" target="true" diagtype="target" ranked="true">
			<state id="s0" fault="true" />
			<state id="s1" />
			<probabilities>1.25e-05 0.9999875</probabilities>
		</cpt>
		<cpt id="n56" target="true" diagtype="target" ranked="true">
			<state id="s0" fault="true" />
			<state id="s1" />
			<probabilities>1.25e-05 0.9999875</probabilities>
		</cpt>
		<cpt id="n57" target="true" diagtype="target" ranked="true">
			<state id="s0" fault="true" />
			<state id="s1" />
			<probabilities>0.0002500000000000001 0.99975</probabilities>
		</cpt>
		<cpt id="n58" target="true" diagtype="target" ranked="true">
			<state id="s0" fault="true" />
			<state id="s1" />
			<probabilities>0.0075 0.9925</probabilities>
		</cpt>
		<cpt id="n59" target="true" diagtype="target" ranked="true">
			<state id="s0" fault="true" />
			<state id="s1" />
			<probabilities>0.000125 0.999875</probabilities>
		</cpt>
		<cpt id="n60" target="true" diagtype="target" ranked="true">
			<state id="s0" fault="true" />
			<state id="s1" />
			<probabilities>0.000125 0.999875</probabilities>
		</cpt>
		<cpt id="n61" target="true" diagtype="target" ranked="true">
			<state id="s0" fault="true" />
			<state id="s1" />
			<probabilities>0.000125 0.999875</probabilities>
		</cpt>
		<cpt id="n62" target="true" diagtype="target" ranked="true">
			<state id="s0" fault="true" />
			<state id="s1" />
			<probabilities>0.000125 0.999875</probabilities>
		</cpt>
		<cpt id="n63" target="true" diagtype="target" ranked="true">
			<state id="s0" fault="true" />
			<state id="s1" />
			<probabilities>0.0001875 0.9998125</probabilities>
		</cpt>
		<cpt id="n64" target="true" diagtype="target" ranked="true">
			<state id="s0" fault="true" />
			<state id="s1" />
			<probabilities>0.00015 0.99985</probabilities>
		</cpt>
		<cpt id="n65" target="true" diagtype="target" ranked="true">
			<state id="s0" fault="true" />
			<state id="s1" />
			<probabilities>0.00015 0.99985</probabilities>
		</cpt>
		<cpt id="n66" target="true" diagtype="target" ranked="true">
			<state id="s0" fault="true" />
			<state id="s1" />
			<probabilities>0.00015 0.99985</probabilities>
		</cpt>
		<cpt id="n67" target="true" diagtype="target" ranked="true">
			<state id="s0" fault="true" />
			<state id="s1" />
			<probabilities>0.00015 0.99985</probabilities>
		</cpt>
		<cpt id="n68" target="true" diagtype="target" ranked="true">
			<state id="s0" fault="true" />
			<state id="s1" />
			<probabilities>0.003625 0.996375</probabilities>
		</cpt>
		<cpt id="n69" target="true" diagtype="target" ranked="true">
			<state id="s0" fault="true" />
			<state id="s1" />
			<probabilities>5e-05 0.99995</probabilities>
		</cpt>
		<cpt id="n70" target="true" diagtype="target" ranked="true">
			<state id="s0" fault="true" />
			<state id="s1" />
			<probabilities>0.0002 0.9998</probabilities>
		</cpt>
		<cpt id="n71" target="true" diagtype="target" ranked="true">
			<state id="s0" fault="true" />
			<state id="s1" />
			<probabilities>0.0002500000000000001 0.99975</probabilities>
		</cpt>
		<cpt id="n72" target="true" diagtype="target" ranked="true">
			<state id="s0" fault="true" />
			<state id="s1" />
			<probabilities>0.0002500000000000001 0.99975</probabilities>
		</cpt>
		<cpt id="n73" target="true" diagtype="target" ranked="true">
			<state id="s0" fault="true" />
			<state id="s1" />
			<probabilities>0.0002500000000000001 0.99975</probabilities>
		</cpt>
		<cpt id="n74" target="true" diagtype="target" ranked="true">
			<state id="s0" fault="true" />
			<state id="s1" />
			<probabilities>4.166675e-05 0.9999583332500001</probabilities>
		</cpt>
		<cpt id="n75" target="true" diagtype="target" ranked="true">
			<state id="s0" fault="true" />
			<state id="s1" />
			<probabilities>0.0002500000000000001 0.99975</probabilities>
		</cpt>
		<cpt id="n76" target="true" diagtype="target" ranked="true">
			<state id="s0" fault="true" />
			<state id="s1" />
			<probabilities>0.0002500000000000001 0.99975</probabilities>
		</cpt>
		<cpt id="n77" target="true" diagtype="target" ranked="true">
			<state id="s0" fault="true" />
			<state id="s1" />
			<probabilities>2.5e-05 0.9999749999999999</probabilities>
		</cpt>
		<cpt id="n78" target="true" diagtype="target" ranked="true">
			<state id="s0" fault="true" />
			<state id="s1" />
			<probabilities>0.0002500000000000001 0.99975</probabilities>
		</cpt>
		<cpt id="n79" target="true" diagtype="target" ranked="true">
			<state id="s0" fault="true" />
			<state id="s1" />
			<probabilities>0.0002500000000000001 0.99975</probabilities>
		</cpt>
		<cpt id="n80" target="true" diagtype="target" ranked="true">
			<state id="s0" fault="true" />
			<state id="s1" />
			<probabilities>0.0002500000000000001 0.99975</probabilities>
		</cpt>
		<cpt id="n81" target="true" diagtype="target" ranked="true">
			<state id="s0" fault="true" />
			<state id="s1" />
			<probabilities>0.000384375 0.999615625</probabilities>
		</cpt>
		<cpt id="n82" target="true" diagtype="target" ranked="true">
			<state id="s0" fault="true" />
			<state id="s1" />
			<probabilities>0.000384375 0.999615625</probabilities>
		</cpt>
		<cpt id="n83" target="true" diagtype="target" ranked="true">
			<state id="s0" fault="true" />
			<state id="s1" />
			<probabilities>0.000125 0.999875</probabilities>
		</cpt>
		<cpt id="n84" target="true" diagtype="target" ranked="true">
			<state id="s0" fault="true" />
			<state id="s1" />
			<probabilities>0.0002500000000000001 0.99975</probabilities>
		</cpt>
		<cpt id="n85" target="true" diagtype="target" ranked="true">
			<state id="s0" fault="true" />
			<state id="s1" />
			<probabilities>0.0002500000000000001 0.99975</probabilities>
		</cpt>
		<cpt id="n86" target="true" diagtype="target" ranked="true">
			<state id="s0" fault="true" />
			<state id="s1" />
			<probabilities>2.5e-05 0.9999749999999999</probabilities>
		</cpt>
		<cpt id="n87" target="true" diagtype="target" ranked="true">
			<state id="s0" fault="true" />
			<state id="s1" />
			<probabilities>2.5e-05 0.9999749999999999</probabilities>
		</cpt>
		<cpt id="n88" target="true" diagtype="target" ranked="true">
			<state id="s0" fault="true" />
			<state id="s1" />
			<probabilities>2.5e-05 0.9999749999999999</probabilities>
		</cpt>
		<cpt id="n89" target="true" diagtype="target" ranked="true">
			<state id="s0" fault="true" />
			<state id="s1" />
			<probabilities>2.5e-05 0.9999749999999999</probabilities>
		</cpt>
		<cpt id="n90" target="true" diagtype="target" ranked="true">
			<state id="s0" fault="true" />
			<state id="s1" />
			<probabilities>0.0003125000000000001 0.9996875</probabilities>
		</cpt>
		<cpt id="n91" target="true" diagtype="target" ranked="true">
			<state id="s0" fault="true" />
			<state id="s1" />
			<probabilities>7.500000000000001e-05 0.999925</probabilities>
		</cpt>
		<cpt id="n92" target="true" diagtype="target" ranked="true">
			<state id="s0" fault="true" />
			<state id="s1" />
			<probabilities>2.5e-05 0.9999749999999999</probabilities>
		</cpt>
		<cpt id="n93" target="true" diagtype="target" ranked="true">
			<state id="s0" fault="true" />
			<state id="s1" />
			<probabilities>0.0004875000000000001 0.9995125</probabilities>
		</cpt>
		<cpt id="n94" target="true" diagtype="target" ranked="true">
			<state id="s0" fault="true" />
			<state id="s1" />
			<probabilities>0.0027625 0.9972375</probabilities>
		</cpt>
		<cpt id="n95" target="true" diagtype="target" ranked="true">
			<state id="s0" fault="true" />
			<state id="s1" />
			<probabilities>0.0004875000000000001 0.9995125</probabilities>
		</cpt>
		<cpt id="n96" target="true" diagtype="target" ranked="true">
			<state id="s0" fault="true" />
			<state id="s1" />
			<probabilities>0.0002500000000000001 0.99975</probabilities>
		</cpt>
		<cpt id="n97" target="true" diagtype="target" ranked="true">
			<state id="s0" fault="true" />
			<state id="s1" />
			<probabilities>0.0019125 0.9980875</probabilities>
		</cpt>
		<cpt id="n98" target="true" diagtype="target" ranked="true">
			<state id="s0" fault="true" />
			<state id="s1" />
			<probabilities>0.0019125 0.9980875</probabilities>
		</cpt>
		<cpt id="n99" target="true" diagtype="target" ranked="true">
			<state id="s0" fault="true" />
			<state id="s1" />
			<probabilities>0.0001125 0.9998875</probabilities>
		</cpt>
		<cpt id="n100" target="true" diagtype="target" ranked="true">
			<state id="s0" fault="true" />
			<state id="s1" />
			<probabilities>0.0001125 0.9998875</probabilities>
		</cpt>
		<cpt id="n101" target="true" diagtype="target" ranked="true">
			<state id="s0" fault="true" />
			<state id="s1" />
			<probabilities>2.5e-05 0.9999749999999999</probabilities>
		</cpt>
		<cpt id="n102" target="true" diagtype="target" ranked="true">
			<state id="s0" fault="true" />
			<state id="s1" />
			<probabilities>1.25e-05 0.9999875</probabilities>
		</cpt>
		<cpt id="n103" target="true" diagtype="target" ranked="true">
			<state id="s0" fault="true" />
			<state id="s1" />
			<probabilities>1.25e-05 0.9999875</probabilities>
		</cpt>
		<cpt id="n104" target="true" diagtype="target" ranked="true">
			<state id="s0" fault="true" />
			<state id="s1" />
			<probabilities>0.00045 0.99955</probabilities>
		</cpt>
		<cpt id="n105" target="true" diagtype="target" ranked="true">
			<state id="s0" fault="true" />
			<state id="s1" />
			<probabilities>0.00045 0.99955</probabilities>
		</cpt>
		<cpt id="n106" target="true" diagtype="target" ranked="true">
			<state id="s0" fault="true" />
			<state id="s1" />
			<probabilities>0.0009 0.9991</probabilities>
		</cpt>
		<cpt id="n107" target="true" diagtype="target" ranked="true">
			<state id="s0" fault="true" />
			<state id="s1" />
			<probabilities>0.00045 0.99955</probabilities>
		</cpt>
		<cpt id="n108" target="true" diagtype="target" ranked="true">
			<state id="s0" fault="true" />
			<state id="s1" />
			<probabilities>0.002500000000000001 0.9975000000000001</probabilities>
		</cpt>
		<cpt id="n109" target="true" diagtype="target" ranked="true">
			<state id="s0" fault="true" />
			<state id="s1" />
			<probabilities>0.001875 0.998125</probabilities>
		</cpt>
		<cpt id="n110" target="true" diagtype="target" ranked="true">
			<state id="s0" fault="true" />
			<state id="s1" />
			<probabilities>0.0006250000000000002 0.999375</probabilities>
		</cpt>
		<cpt id="n111" target="true" diagtype="target" ranked="true">
			<state id="s0" fault="true" />
			<state id="s1" />
			<probabilities>0.006875000000000001 0.993125</probabilities>
		</cpt>
		<cpt id="n112" target="true" diagtype="target" ranked="true">
			<state id="s0" fault="true" />
			<state id="s1" />
			<probabilities>0.0002500000000000001 0.99975</probabilities>
		</cpt>
		<cpt id="n113" target="true" diagtype="target" ranked="true">
			<state id="s0" fault="true" />
			<state id="s1" />
			<probabilities>0.0001 0.9999</probabilities>
		</cpt>
		<cpt id="n114" target="true" diagtype="target" ranked="true">
			<state id="s0" fault="true" />
			<state id="s1" />
			<probabilities>0.0006500000000000004 0.99935</probabilities>
		</cpt>
		<cpt id="n115" target="true" diagtype="target" ranked="true">
			<state id="s0" fault="true" />
			<state id="s1" />
			<probabilities>0.0013125 0.9986875</probabilities>
		</cpt>
		<cpt id="n116" target="true" diagtype="target" ranked="true">
			<state id="s0" fault="true" />
			<state id="s1" />
			<probabilities>0.0005250000000000002 0.999475</probabilities>
		</cpt>
		<cpt id="n117" target="true" diagtype="target" ranked="true">
			<state id="s0" fault="true" />
			<state id="s1" />
			<probabilities>0.003412500000000001 0.9965875</probabilities>
		</cpt>
		<cpt id="n118" target="true" diagtype="target" ranked="true">
			<state id="s0" fault="true" />
			<state id="s1" />
			<probabilities>0.001125 0.998875</probabilities>
		</cpt>
		<cpt id="n119" target="true" diagtype="target" ranked="true">
			<state id="s0" fault="true" />
			<state id="s1" />
			<probabilities>0.001125 0.998875</probabilities>
		</cpt>
		<cpt id="n120" target="true" diagtype="target" ranked="true">
			<state id="s0" fault="true" />
			<state id="s1" />
			<probabilities>0.0002500000000000001 0.99975</probabilities>
		</cpt>
		<cpt id="n121" target="true" diagtype="target" ranked="true">
			<state id="s0" fault="true" />
			<state id="s1" />
			<probabilities>0.0002500000000000001 0.99975</probabilities>
		</cpt>
		<cpt id="n122" target="true" diagtype="target" ranked="true">
			<state id="s0" fault="true" />
			<state id="s1" />
			<probabilities>0.0002500000000000001 0.99975</probabilities>
		</cpt>
		<cpt id="n123" target="true" diagtype="target" ranked="true">
			<state id="s0" fault="true" />
			<state id="s1" />
			<probabilities>0.0002500000000000001 0.99975</probabilities>
		</cpt>
		<cpt id="n124" target="true" diagtype="target" ranked="true">
			<state id="s0" fault="true" />
			<state id="s1" />
			<probabilities>0.0002500000000000001 0.99975</probabilities>
		</cpt>
		<cpt id="n125" target="true" diagtype="target" ranked="true">
			<state id="s0" fault="true" />
			<state id="s1" />
			<probabilities>0.0002500000000000001 0.99975</probabilities>
		</cpt>
		<cpt id="n126" target="true" diagtype="target" ranked="true">
			<state id="s0" fault="true" />
			<state id="s1" />
			<probabilities>0.0002500000000000001 0.99975</probabilities>
		</cpt>
		<cpt id="n127" target="true" diagtype="target" ranked="true">
			<state id="s0" fault="true" />
			<state id="s1" />
			<probabilities>0.0002500000000000001 0.99975</probabilities>
		</cpt>
		<cpt id="n128" target="true" diagtype="target" ranked="true">
			<state id="s0" fault="true" />
			<state id="s1" />
			<probabilities>0.0004833332500000003 0.9995166667499999</probabilities>
		</cpt>
		<cpt id="n129" target="true" diagtype="target" ranked="true">
			<state id="s0" fault="true" />
			<state id="s1" />
			<probabilities>0.00193333325 0.99806666675</probabilities>
		</cpt>
		<cpt id="n130" target="true" diagtype="target" ranked="true">
			<state id="s0" fault="true" />
			<state id="s1" />
			<probabilities>4.166675e-05 0.9999583332500001</probabilities>
		</cpt>
		<cpt id="n131" target="true" diagtype="target" ranked="true">
			<state id="s0" fault="true" />
			<state id="s1" />
			<probabilities>4.166675e-05 0.9999583332500001</probabilities>
		</cpt>
		<cpt id="n132" target="true" diagtype="target" ranked="true">
			<state id="s0" fault="true" />
			<state id="s1" />
			<probabilities>0.000175 0.999825</probabilities>
		</cpt>
		<cpt id="n133" target="true" diagtype="target" ranked="true">
			<state id="s0" fault="true" />
			<state id="s1" />
			<probabilities>0.0002500000000000001 0.99975</probabilities>
		</cpt>
		<cpt id="n134" target="true" diagtype="target" ranked="true">
			<state id="s0" fault="true" />
			<state id="s1" />
			<probabilities>0.0002500000000000001 0.99975</probabilities>
		</cpt>
		<cpt id="n135" target="true" diagtype="target" ranked="true">
			<state id="s0" fault="true" />
			<state id="s1" />
			<probabilities>0.0002500000000000001 0.99975</probabilities>
		</cpt>
		<cpt id="n136" target="true" diagtype="target" ranked="true">
			<state id="s0" fault="true" />
			<state id="s1" />
			<probabilities>0.0002500000000000001 0.99975</probabilities>
		</cpt>
		<cpt id="n137" target="true" diagtype="target" ranked="true">
			<state id="s0" fault="true" />
			<state id="s1" />
			<probabilities>0.0002500000000000001 0.99975</probabilities>
		</cpt>
		<cpt id="n138" target="true" diagtype="target" ranked="true">
			<state id="s0" fault="true" />
			<state id="s1" />
			<probabilities>0.0002500000000000001 0.99975</probabilities>
		</cpt>
		<cpt id="n139" target="true" diagtype="target" ranked="true">
			<state id="s0" fault="true" />
			<state id="s1" />
			<probabilities>0.0002500000000000001 0.99975</probabilities>
		</cpt>
		<cpt id="n140" target="true" diagtype="target" ranked="true">
			<state id="s0" fault="true" />
			<state id="s1" />
			<probabilities>0.0002500000000000001 0.99975</probabilities>
		</cpt>
		<cpt id="n141" target="true" diagtype="target" ranked="true">
			<state id="s0" fault="true" />
			<state id="s1" />
			<probabilities>0.0002500000000000001 0.99975</probabilities>
		</cpt>
		<cpt id="n142" target="true" diagtype="target" ranked="true">
			<state id="s0" fault="true" />
			<state id="s1" />
			<probabilities>0.0002500000000000001 0.99975</probabilities>
		</cpt>
		<cpt id="n143" target="true" diagtype="target" ranked="true">
			<state id="s0" fault="true" />
			<state id="s1" />
			<probabilities>0.0002500000000000001 0.99975</probabilities>
		</cpt>
		<cpt id="n144" target="true" diagtype="target" ranked="true">
			<state id="s0" fault="true" />
			<state id="s1" />
			<probabilities>0.0002500000000000001 0.99975</probabilities>
		</cpt>
		<cpt id="n145" target="true" diagtype="target" ranked="true">
			<state id="s0" fault="true" />
			<state id="s1" />
			<probabilities>0.00055 0.9994499999999999</probabilities>
		</cpt>
		<cpt id="n146" target="true" diagtype="target" ranked="true">
			<state id="s0" fault="true" />
			<state id="s1" />
			<probabilities>0.0022 0.9978</probabilities>
		</cpt>
		<cpt id="n147" target="true" diagtype="target" ranked="true">
			<state id="s0" fault="true" />
			<state id="s1" />
			<probabilities>0.00055 0.9994499999999999</probabilities>
		</cpt>
		<cpt id="n148" target="true" diagtype="target" ranked="true">
			<state id="s0" fault="true" />
			<state id="s1" />
			<probabilities>0.0022 0.9978</probabilities>
		</cpt>
		<cpt id="n149" target="true" diagtype="target" ranked="true">
			<state id="s0" fault="true" />
			<state id="s1" />
			<probabilities>0.000125 0.999875</probabilities>
		</cpt>
		<cpt id="n150" target="true" diagtype="target" ranked="true">
			<state id="s0" fault="true" />
			<state id="s1" />
			<probabilities>8.575e-05 0.99991425</probabilities>
		</cpt>
		<cpt id="n151" target="true" diagtype="target" ranked="true">
			<state id="s0" fault="true" />
			<state id="s1" />
			<probabilities>0.000686 0.999314</probabilities>
		</cpt>
		<cpt id="n152" target="true" diagtype="target" ranked="true">
			<state id="s0" fault="true" />
			<state id="s1" />
			<probabilities>8.575e-05 0.99991425</probabilities>
		</cpt>
		<cpt id="n153" target="true" diagtype="target" ranked="true">
			<state id="s0" fault="true" />
			<state id="s1" />
			<probabilities>8.575e-05 0.99991425</probabilities>
		</cpt>
		<cpt id="n154" target="true" diagtype="target" ranked="true">
			<state id="s0" fault="true" />
			<state id="s1" />
			<probabilities>0.000686 0.999314</probabilities>
		</cpt>
		<cpt id="n155" target="true" diagtype="target" ranked="true">
			<state id="s0" fault="true" />
			<state id="s1" />
			<probabilities>8.575e-05 0.99991425</probabilities>
		</cpt>
		<cpt id="n156" target="true" diagtype="target" ranked="true">
			<state id="s0" fault="true" />
			<state id="s1" />
			<probabilities>8.575e-05 0.99991425</probabilities>
		</cpt>
		<cpt id="n157" target="true" diagtype="target" ranked="true">
			<state id="s0" fault="true" />
			<state id="s1" />
			<probabilities>0.000686 0.999314</probabilities>
		</cpt>
		<cpt id="n158" target="true" diagtype="target" ranked="true">
			<state id="s0" fault="true" />
			<state id="s1" />
			<probabilities>8.575e-05 0.99991425</probabilities>
		</cpt>
		<cpt id="n159" target="true" diagtype="target" ranked="true">
			<state id="s0" fault="true" />
			<state id="s1" />
			<probabilities>8.575e-05 0.99991425</probabilities>
		</cpt>
		<cpt id="n160" target="true" diagtype="target" ranked="true">
			<state id="s0" fault="true" />
			<state id="s1" />
			<probabilities>0.000686 0.999314</probabilities>
		</cpt>
		<cpt id="n161" target="true" diagtype="target" ranked="true">
			<state id="s0" fault="true" />
			<state id="s1" />
			<probabilities>8.575e-05 0.99991425</probabilities>
		</cpt>
		<cpt id="n162" target="true" diagtype="target" ranked="true">
			<state id="s0" fault="true" />
			<state id="s1" />
			<probabilities>0.0002500000000000001 0.99975</probabilities>
		</cpt>
		<cpt id="n163" target="true" diagtype="target" ranked="true">
			<state id="s0" fault="true" />
			<state id="s1" />
			<probabilities>0.0002500000000000001 0.99975</probabilities>
		</cpt>
		<cpt id="n164" target="true" diagtype="target" ranked="true">
			<state id="s0" fault="true" />
			<state id="s1" />
			<probabilities>0.0002500000000000001 0.99975</probabilities>
		</cpt>
		<cpt id="n165" target="true" diagtype="target" ranked="true">
			<state id="s0" fault="true" />
			<state id="s1" />
			<probabilities>0.0002500000000000001 0.99975</probabilities>
		</cpt>
		<cpt id="n166" target="true" diagtype="target" ranked="true">
			<state id="s0" fault="true" />
			<state id="s1" />
			<probabilities>0.0002500000000000001 0.99975</probabilities>
		</cpt>
		<cpt id="n167" target="true" diagtype="target" ranked="true">
			<state id="s0" fault="true" />
			<state id="s1" />
			<probabilities>0.0006625000000000001 0.9993375</probabilities>
		</cpt>
		<cpt id="n168" target="true" diagtype="target" ranked="true">
			<state id="s0" fault="true" />
			<state id="s1" />
			<probabilities>0.0006625000000000001 0.9993375</probabilities>
		</cpt>
		<cpt id="n169" target="true" diagtype="target" ranked="true">
			<state id="s0" fault="true" />
			<state id="s1" />
			<probabilities>0.0006625000000000001 0.9993375</probabilities>
		</cpt>
		<cpt id="n170" target="true" diagtype="target" ranked="true">
			<state id="s0" fault="true" />
			<state id="s1" />
			<probabilities>0.0006625000000000001 0.9993375</probabilities>
		</cpt>
		<cpt id="n171" target="true" diagtype="target" ranked="true">
			<state id="s0" fault="true" />
			<state id="s1" />
			<probabilities>0.0006250000000000002 0.999375</probabilities>
		</cpt>
		<cpt id="n172" target="true" diagtype="target" ranked="true">
			<state id="s0" fault="true" />
			<state id="s1" />
			<probabilities>0.00228 0.9977200000000001</probabilities>
		</cpt>
		<cpt id="n173" target="true" diagtype="target" ranked="true">
			<state id="s0" fault="true" />
			<state id="s1" />
			<probabilities>0.00152 0.99848</probabilities>
		</cpt>
		<cpt id="n174" target="true" diagtype="target" ranked="true">
			<state id="s0" fault="true" />
			<state id="s1" />
			<probabilities>0.0002500000000000001 0.99975</probabilities>
		</cpt>
		<cpt id="n175" target="true" diagtype="target" ranked="true">
			<state id="s0" fault="true" />
			<state id="s1" />
			<probabilities>0.00325 0.99675</probabilities>
		</cpt>
		<cpt id="n176" target="true" diagtype="target" ranked="true">
			<state id="s0" fault="true" />
			<state id="s1" />
			<probabilities>6.250000000000001e-05 0.9999375</probabilities>
		</cpt>
		<cpt id="n177" target="true" diagtype="target" ranked="true">
			<state id="s0" fault="true" />
			<state id="s1" />
			<probabilities>0.0002500000000000001 0.99975</probabilities>
		</cpt>
		<cpt id="n178" target="true" diagtype="target" ranked="true">
			<state id="s0" fault="true" />
			<state id="s1" />
			<probabilities>0.0002500000000000001 0.99975</probabilities>
		</cpt>
		<cpt id="n179" target="true" diagtype="target" ranked="true">
			<state id="s0" fault="true" />
			<state id="s1" />
			<probabilities>0.0002500000000000001 0.99975</probabilities>
		</cpt>
		<cpt id="n180" target="true" diagtype="target" ranked="true">
			<state id="s0" fault="true" />
			<state id="s1" />
			<probabilities>0.0001875 0.9998125</probabilities>
		</cpt>
		<cpt id="n181" target="true" diagtype="target" ranked="true">
			<state id="s0" fault="true" />
			<state id="s1" />
			<probabilities>0.0001875 0.9998125</probabilities>
		</cpt>
		<cpt id="n182" target="true" diagtype="target" ranked="true">
			<state id="s0" fault="true" />
			<state id="s1" />
			<probabilities>0.000125 0.999875</probabilities>
		</cpt>
		<cpt id="n183" target="true" diagtype="target" ranked="true">
			<state id="s0" fault="true" />
			<state id="s1" />
			<probabilities>0.000125 0.999875</probabilities>
		</cpt>
		<cpt id="n184" target="true" diagtype="target" ranked="true">
			<state id="s0" fault="true" />
			<state id="s1" />
			<probabilities>0.001 0.999</probabilities>
		</cpt>
		<cpt id="n185" target="true" diagtype="target" ranked="true">
			<state id="s0" fault="true" />
			<state id="s1" />
			<probabilities>0.009375000000000001 0.990625</probabilities>
		</cpt>
		<cpt id="n186" target="true" diagtype="target" ranked="true">
			<state id="s0" fault="true" />
			<state id="s1" />
			<probabilities>0.009375000000000001 0.990625</probabilities>
		</cpt>
		<cpt id="n187" target="true" diagtype="target" ranked="true">
			<state id="s0" fault="true" />
			<state id="s1" />
			<probabilities>0.000375 0.999625</probabilities>
		</cpt>
		<cpt id="n188" target="true" diagtype="target" ranked="true">
			<state id="s0" fault="true" />
			<state id="s1" />
			<probabilities>0.000375 0.999625</probabilities>
		</cpt>
		<cpt id="n189" target="true" diagtype="target" ranked="true">
			<state id="s0" fault="true" />
			<state id="s1" />
			<probabilities>0.000375 0.999625</probabilities>
		</cpt>
		<cpt id="n190" target="true" diagtype="target" ranked="true">
			<state id="s0" fault="true" />
			<state id="s1" />
			<probabilities>0.000375 0.999625</probabilities>
		</cpt>
		<cpt id="n191" target="true" diagtype="target" ranked="true">
			<state id="s0" fault="true" />
			<state id="s1" />
			<probabilities>0.000384375 0.999615625</probabilities>
		</cpt>
		<cpt id="n192" target="true" diagtype="target" ranked="true">
			<state id="s0" fault="true" />
			<state id="s1" />
			<probabilities>0.000384375 0.999615625</probabilities>
		</cpt>
		<cpt id="n193" target="true" diagtype="target" ranked="true">
			<state id="s0" fault="true" />
			<state id="s1" />
			<probabilities>0.0005000000000000001 0.9995000000000001</probabilities>
		</cpt>
		<cpt id="n194" target="true" diagtype="target" ranked="true">
			<state id="s0" fault="true" />
			<state id="s1" />
			<probabilities>6.250000000000001e-05 0.9999375</probabilities>
		</cpt>
		<cpt id="n195" target="true" diagtype="target" ranked="true">
			<state id="s0" fault="true" />
			<state id="s1" />
			<probabilities>8.333325000000003e-05 0.99991666675</probabilities>
		</cpt>
		<cpt id="n196" target="true" diagtype="target" ranked="true">
			<state id="s0" fault="true" />
			<state id="s1" fault="true" />
			<state id="s2" />
			<probabilities>6.250000000000001e-05 6.250000000000001e-05 0.999875</probabilities>
		</cpt>
		<cpt id="n197" target="true" diagtype="target" ranked="true">
			<state id="s0" fault="true" />
			<state id="s1" fault="true" />
			<state id="s2" />
			<probabilities>0.0026125 0.0001375 0.99725</probabilities>
		</cpt>
		<cpt id="n198" target="true" diagtype="target" ranked="true">
			<state id="s0" fault="true" />
			<state id="s1" />
			<probabilities>0.000125 0.999875</probabilities>
		</cpt>
		<cpt id="n199" target="true" diagtype="target" ranked="true">
			<state id="s0" fault="true" />
			<state id="s1" />
			<probabilities>0.0005000000000000001 0.9995000000000001</probabilities>
		</cpt>
		<cpt id="n200" target="true" diagtype="target" ranked="true">
			<state id="s0" fault="true" />
			<state id="s1" />
			<probabilities>0.0045 0.9955000000000001</probabilities>
		</cpt>
		<cpt id="n201" target="true" diagtype="target" ranked="true">
			<state id="s0" fault="true" />
			<state id="s1" />
			<probabilities>0.00016666675 0.99983333325</probabilities>
		</cpt>
		<cpt id="n202" target="true" diagtype="target" ranked="true">
			<state id="s0" fault="true" />
			<state id="s1" />
			<probabilities>0.0003 0.9997</probabilities>
		</cpt>
		<cpt id="n203" target="true" diagtype="target" ranked="true">
			<state id="s0" fault="true" />
			<state id="s1" />
			<probabilities>0.0001 0.9999</probabilities>
		</cpt>
		<cpt id="n204" target="true" diagtype="target" ranked="true">
			<state id="s0" fault="true" />
			<state id="s1" />
			<probabilities>0.0001 0.9999</probabilities>
		</cpt>
		<cpt id="n205" target="true" diagtype="target" ranked="true">
			<state id="s0" fault="true" />
			<state id="s1" />
			<probabilities>0.00171 0.99829</probabilities>
		</cpt>
		<cpt id="n206" target="true" diagtype="target" ranked="true">
			<state id="s0" fault="true" />
			<state id="s1" />
			<probabilities>9.000000000000001e-05 0.99991</probabilities>
		</cpt>
		<cpt id="n207" target="true" diagtype="target" ranked="true">
			<state id="s0" fault="true" />
			<state id="s1" />
			<probabilities>0.0003500000000000002 0.99965</probabilities>
		</cpt>
		<cpt id="n208" target="true" diagtype="target" ranked="true">
			<state id="s0" fault="true" />
			<state id="s1" />
			<probabilities>0.0002500000000000001 0.99975</probabilities>
		</cpt>
		<cpt id="n209" target="true" diagtype="target" ranked="true">
			<state id="s0" fault="true" />
			<state id="s1" />
			<probabilities>0.0003500000000000002 0.99965</probabilities>
		</cpt>
		<cpt id="n210" target="true" diagtype="target" ranked="true">
			<state id="s0" fault="true" />
			<state id="s1" />
			<probabilities>0.0002375000000000001 0.9997625</probabilities>
		</cpt>
		<cpt id="n211" target="true" diagtype="target" ranked="true">
			<state id="s0" fault="true" />
			<state id="s1" />
			<probabilities>1.25e-05 0.9999875</probabilities>
		</cpt>
		<cpt id="n212" target="true" diagtype="target" ranked="true">
			<state id="s0" fault="true" />
			<state id="s1" />
			<probabilities>2.5e-05 0.9999749999999999</probabilities>
		</cpt>
		<cpt id="n213" target="true" diagtype="target" ranked="true">
			<state id="s0" fault="true" />
			<state id="s1" />
			<probabilities>0.0002500000000000001 0.99975</probabilities>
		</cpt>
		<cpt id="n214" target="true" diagtype="target" ranked="true">
			<state id="s0" fault="true" />
			<state id="s1" />
			<probabilities>0.0002500000000000001 0.99975</probabilities>
		</cpt>
		<cpt id="n215" target="true" diagtype="target" ranked="true">
			<state id="s0" fault="true" />
			<state id="s1" />
			<probabilities>3.125000000000001e-05 0.99996875</probabilities>
		</cpt>
		<cpt id="n216" target="true" diagtype="target" ranked="true">
			<state id="s0" fault="true" />
			<state id="s1" />
			<probabilities>3.125000000000001e-05 0.99996875</probabilities>
		</cpt>
		<cpt id="n217" target="true" diagtype="target" ranked="true">
			<state id="s0" fault="true" />
			<state id="s1" />
			<probabilities>0.0015 0.9985000000000001</probabilities>
		</cpt>
		<cpt id="n218" target="true" diagtype="target" ranked="true">
			<state id="s0" fault="true" />
			<state id="s1" />
			<probabilities>0.0015 0.9985000000000001</probabilities>
		</cpt>
		<cpt id="n219" target="true" diagtype="target" ranked="true">
			<state id="s0" fault="true" />
			<state id="s1" />
			<probabilities>0.0002500000000000001 0.99975</probabilities>
		</cpt>
		<cpt id="n220" target="true" diagtype="target" ranked="true">
			<state id="s0" fault="true" />
			<state id="s1" />
			<probabilities>0.000375 0.999625</probabilities>
		</cpt>
		<cpt id="n221" target="true" diagtype="target" ranked="true">
			<state id="s0" fault="true" />
			<state id="s1" />
			<probabilities>0.0015 0.9985000000000001</probabilities>
		</cpt>
		<cpt id="n222" target="true" diagtype="target" ranked="true">
			<state id="s0" fault="true" />
			<state id="s1" />
			<probabilities>0.000375 0.999625</probabilities>
		</cpt>
		<cpt id="n223" target="true" diagtype="target" ranked="true">
			<state id="s0" fault="true" />
			<state id="s1" />
			<probabilities>0.0015 0.9985000000000001</probabilities>
		</cpt>
		<cpt id="n224" target="true" diagtype="target" ranked="true">
			<state id="s0" fault="true" />
			<state id="s1" />
			<probabilities>0.004375 0.995625</probabilities>
		</cpt>
		<cpt id="n225" target="true" diagtype="target" ranked="true">
			<state id="s0" fault="true" />
			<state id="s1" />
			<probabilities>0.0002500000000000001 0.99975</probabilities>
		</cpt>
		<cpt id="n226" target="true" diagtype="target" ranked="true">
			<state id="s0" fault="true" />
			<state id="s1" />
			<probabilities>0.043 0.957</probabilities>
		</cpt>
		<cpt id="n227" target="true" diagtype="target" ranked="true">
			<state id="s0" fault="true" />
			<state id="s1" />
			<probabilities>0.0004629375000000001 0.9995370625</probabilities>
		</cpt>
		<cpt id="n228" target="true" diagtype="target" ranked="true">
			<state id="s0" fault="true" />
			<state id="s1" />
			<probabilities>0.00185175 0.99814825</probabilities>
		</cpt>
		<cpt id="n229" target="true" diagtype="target" ranked="true">
			<state id="s0" fault="true" />
			<state id="s1" />
			<probabilities>6.250000000000001e-05 0.9999375</probabilities>
		</cpt>
		<cpt id="n230" target="true" diagtype="target" ranked="true">
			<state id="s0" fault="true" />
			<state id="s1" />
			<probabilities>0.0001875 0.9998125</probabilities>
		</cpt>
		<cpt id="n231" target="true" diagtype="target" ranked="true">
			<state id="s0" fault="true" />
			<state id="s1" />
			<probabilities>0.0002500000000000001 0.99975</probabilities>
		</cpt>
		<cpt id="n232" target="true" diagtype="target" ranked="true">
			<state id="s0" fault="true" />
			<state id="s1" />
			<probabilities>0.000325 0.999675</probabilities>
		</cpt>
		<cpt id="n233" target="true" diagtype="target" ranked="true">
			<state id="s0" fault="true" />
			<state id="s1" />
			<probabilities>7.500000000000001e-05 0.999925</probabilities>
		</cpt>
		<cpt id="n234" target="true" diagtype="target" ranked="true">
			<state id="s0" fault="true" />
			<state id="s1" />
			<probabilities>0.0005750000000000003 0.999425</probabilities>
		</cpt>
		<cpt id="n235" target="true" diagtype="target" ranked="true">
			<state id="s0" fault="true" />
			<state id="s1" fault="true" />
			<state id="s2" />
			<probabilities>7.500000000000001e-05 0.0006750000000000001 0.99925</probabilities>
		</cpt>
		<cpt id="n236" target="true" diagtype="target" ranked="true">
			<state id="s0" fault="true" />
			<state id="s1" />
			<probabilities>0.0002500000000000001 0.99975</probabilities>
		</cpt>
		<cpt id="n237" target="true" diagtype="target" ranked="true">
			<state id="s0" fault="true" />
			<state id="s1" fault="true" />
			<state id="s2" />
			<probabilities>0.00011875 6.250000000000002e-06 0.999875</probabilities>
		</cpt>
		<cpt id="n238" target="true" diagtype="target" ranked="true">
			<state id="s0" fault="true" />
			<state id="s1" />
			<probabilities>3.75e-05 0.9999625</probabilities>
		</cpt>
		<cpt id="n239" target="true" diagtype="target" ranked="true">
			<state id="s0" fault="true" />
			<state id="s1" />
			<probabilities>0.00075 0.99925</probabilities>
		</cpt>
		<cpt id="n240" target="true" diagtype="target" ranked="true">
			<state id="s0" fault="true" />
			<state id="s1" />
			<probabilities>0.00075 0.99925</probabilities>
		</cpt>
		<cpt id="n241" target="true" diagtype="target" ranked="true">
			<state id="s0" fault="true" />
			<state id="s1" />
			<probabilities>0.001875 0.998125</probabilities>
		</cpt>
		<cpt id="n242" target="true" diagtype="target" ranked="true">
			<state id="s0" fault="true" />
			<state id="s1" />
			<probabilities>0.001875 0.998125</probabilities>
		</cpt>
		<cpt id="n243" target="true" diagtype="target" ranked="true">
			<state id="s0" fault="true" />
			<state id="s1" />
			<probabilities>0.0015 0.9985000000000001</probabilities>
		</cpt>
		<cpt id="n244" target="true" diagtype="target" ranked="true">
			<state id="s0" fault="true" />
			<state id="s1" />
			<probabilities>0.0015 0.9985000000000001</probabilities>
		</cpt>
		<cpt id="n245" target="true" diagtype="target" ranked="true">
			<state id="s0" fault="true" />
			<state id="s1" />
			<probabilities>0.00075 0.99925</probabilities>
		</cpt>
		<cpt id="n246" target="true" diagtype="target" ranked="true">
			<state id="s0" fault="true" />
			<state id="s1" />
			<probabilities>0.00075 0.99925</probabilities>
		</cpt>
		<cpt id="n247" target="true" diagtype="target" ranked="true">
			<state id="s0" fault="true" />
			<state id="s1" />
			<probabilities>0.0015 0.9985000000000001</probabilities>
		</cpt>
		<cpt id="n248" target="true" diagtype="target" ranked="true">
			<state id="s0" fault="true" />
			<state id="s1" />
			<probabilities>0.0015 0.9985000000000001</probabilities>
		</cpt>
		<cpt id="n249" target="true" diagtype="target" ranked="true">
			<state id="s0" fault="true" />
			<state id="s1" />
			<probabilities>0.0015 0.9985000000000001</probabilities>
		</cpt>
		<cpt id="n250" target="true" diagtype="target" ranked="true">
			<state id="s0" fault="true" />
			<state id="s1" />
			<probabilities>0.0015 0.9985000000000001</probabilities>
		</cpt>
		<cpt id="n251" target="true" diagtype="target" ranked="true">
			<state id="s0" fault="true" />
			<state id="s1" />
			<probabilities>0.000375 0.999625</probabilities>
		</cpt>
		<cpt id="n252" target="true" diagtype="target" ranked="true">
			<state id="s0" fault="true" />
			<state id="s1" />
			<probabilities>0.000375 0.999625</probabilities>
		</cpt>
		<cpt id="n253" target="true" diagtype="target" ranked="true">
			<state id="s0" fault="true" />
			<state id="s1" />
			<probabilities>0.002625 0.997375</probabilities>
		</cpt>
		<cpt id="n254" target="true" diagtype="target" ranked="true">
			<state id="s0" fault="true" />
			<state id="s1" />
			<probabilities>0.002625 0.997375</probabilities>
		</cpt>
		<cpt id="n255" target="true" diagtype="target" ranked="true">
			<state id="s0" fault="true" />
			<state id="s1" />
			<probabilities>1.25e-05 0.9999875</probabilities>
		</cpt>
		<cpt id="n256" target="true" diagtype="target" ranked="true">
			<state id="s0" fault="true" />
			<state id="s1" />
			<probabilities>1.25e-05 0.9999875</probabilities>
		</cpt>
		<cpt id="n257" target="true" diagtype="target" ranked="true">
			<state id="s0" fault="true" />
			<state id="s1" />
			<probabilities>0.0003 0.9997</probabilities>
		</cpt>
		<cpt id="n258" target="true" diagtype="target" ranked="true">
			<state id="s0" fault="true" />
			<state id="s1" />
			<probabilities>0.0005000000000000001 0.9995000000000001</probabilities>
		</cpt>
		<cpt id="n259" target="true" diagtype="target" ranked="true">
			<state id="s0" fault="true" />
			<state id="s1" />
			<probabilities>0.0012 0.9988</probabilities>
		</cpt>
		<cpt id="n260" target="true" diagtype="target" ranked="true">
			<state id="s0" fault="true" />
			<state id="s1" />
			<probabilities>0.0005000000000000001 0.9995000000000001</probabilities>
		</cpt>
		<cpt id="n261" target="true" diagtype="target" ranked="true">
			<state id="s0" fault="true" />
			<state id="s1" />
			<probabilities>7.2625e-05 0.999927375</probabilities>
		</cpt>
		<cpt id="n262" target="true" diagtype="target" ranked="true">
			<state id="s0" fault="true" />
			<state id="s1" />
			<probabilities>0.000134875 0.999865125</probabilities>
		</cpt>
		<cpt id="n263" target="true" diagtype="target" ranked="true">
			<state id="s0" fault="true" />
			<state id="s1" />
			<probabilities>0.0002500000000000001 0.99975</probabilities>
		</cpt>
		<cpt id="n264" target="true" diagtype="target" ranked="true">
			<state id="s0" fault="true" />
			<state id="s1" />
			<probabilities>7.2625e-05 0.999927375</probabilities>
		</cpt>
		<cpt id="n265" target="true" diagtype="target" ranked="true">
			<state id="s0" fault="true" />
			<state id="s1" />
			<probabilities>0.000134875 0.999865125</probabilities>
		</cpt>
		<cpt id="n266" target="true" diagtype="target" ranked="true">
			<state id="s0" fault="true" />
			<state id="s1" />
			<probabilities>0.0002500000000000001 0.99975</probabilities>
		</cpt>
		<cpt id="n267" target="true" diagtype="target" ranked="true">
			<state id="s0" fault="true" />
			<state id="s1" />
			<probabilities>0.0002500000000000001 0.99975</probabilities>
		</cpt>
		<cpt id="n268" target="true" diagtype="target" ranked="true">
			<state id="s0" fault="true" />
			<state id="s1" />
			<probabilities>4.166675e-05 0.9999583332500001</probabilities>
		</cpt>
		<cpt id="n269" target="true" diagtype="target" ranked="true">
			<state id="s0" fault="true" />
			<state id="s1" />
			<probabilities>0.000125 0.999875</probabilities>
		</cpt>
		<cpt id="n270" target="true" diagtype="target" ranked="true">
			<state id="s0" fault="true" />
			<state id="s1" />
			<probabilities>0.0003437500000000001 0.99965625</probabilities>
		</cpt>
		<cpt id="n271" target="true" diagtype="target" ranked="true">
			<state id="s0" fault="true" />
			<state id="s1" />
			<probabilities>0.00309375 0.99690625</probabilities>
		</cpt>
		<cpt id="n272" target="true" diagtype="target" ranked="true">
			<state id="s0" fault="true" />
			<state id="s1" />
			<probabilities>0.000325 0.999675</probabilities>
		</cpt>
		<cpt id="n273" target="true" diagtype="target" ranked="true">
			<state id="s0" fault="true" />
			<state id="s1" />
			<probabilities>0.0001875 0.9998125</probabilities>
		</cpt>
		<cpt id="n274" target="true" diagtype="target" ranked="true">
			<state id="s0" fault="true" />
			<state id="s1" />
			<probabilities>0.000375 0.999625</probabilities>
		</cpt>
		<cpt id="n275" target="true" diagtype="target" ranked="true">
			<state id="s0" fault="true" />
			<state id="s1" />
			<probabilities>0.00125 0.99875</probabilities>
		</cpt>
		<cpt id="n276" target="true" diagtype="target" ranked="true">
			<state id="s0" fault="true" />
			<state id="s1" />
			<probabilities>0.000175 0.999825</probabilities>
		</cpt>
		<cpt id="n277" target="true" diagtype="target" ranked="true">
			<state id="s0" fault="true" />
			<state id="s1" />
			<probabilities>6.250000000000002e-06 0.99999375</probabilities>
		</cpt>
		<cpt id="n278" target="true" diagtype="target" ranked="true">
			<state id="s0" fault="true" />
			<state id="s1" />
			<probabilities>1.09375e-05 0.9999890625</probabilities>
		</cpt>
		<cpt id="n279" target="true" diagtype="target" ranked="true">
			<state id="s0" fault="true" />
			<state id="s1" />
			<probabilities>3.125000000000001e-06 0.999996875</probabilities>
		</cpt>
		<cpt id="n280" target="true" diagtype="target" ranked="true">
			<state id="s0" fault="true" />
			<state id="s1" />
			<probabilities>1.09375e-05 0.9999890625</probabilities>
		</cpt>
		<cpt id="n281" target="true" diagtype="target" ranked="true">
			<state id="s0" fault="true" />
			<state id="s1" />
			<probabilities>3.25e-05 0.9999675</probabilities>
		</cpt>
		<cpt id="n282" target="true" diagtype="target" ranked="true">
			<state id="s0" fault="true" />
			<state id="s1" />
			<probabilities>1.75e-05 0.9999825</probabilities>
		</cpt>
		<cpt id="n283" target="true" diagtype="target" ranked="true">
			<state id="s0" fault="true" />
			<state id="s1" />
			<probabilities>2.5e-06 0.9999975</probabilities>
		</cpt>
		<cpt id="n284" target="true" diagtype="target" ranked="true">
			<state id="s0" fault="true" />
			<state id="s1" />
			<probabilities>1e-05 0.99999</probabilities>
		</cpt>
		<cpt id="n285" target="true" diagtype="target" ranked="true">
			<state id="s0" fault="true" />
			<state id="s1" />
			<probabilities>6.250000000000002e-06 0.99999375</probabilities>
		</cpt>
		<cpt id="n286" target="true" diagtype="target" ranked="true">
			<state id="s0" fault="true" />
			<state id="s1" />
			<probabilities>6.250000000000002e-06 0.99999375</probabilities>
		</cpt>
		<cpt id="n287" target="true" diagtype="target" ranked="true">
			<state id="s0" fault="true" />
			<state id="s1" />
			<probabilities>0.000125 0.999875</probabilities>
		</cpt>
		<cpt id="n288" target="true" diagtype="target" ranked="true">
			<state id="s0" fault="true" />
			<state id="s1" />
			<probabilities>0.0002500000000000001 0.99975</probabilities>
		</cpt>
		<cpt id="n289" target="true" diagtype="target" ranked="true">
			<state id="s0" fault="true" />
			<state id="s1" />
			<probabilities>0.000375 0.999625</probabilities>
		</cpt>
		<cpt id="n290" target="true" diagtype="target" ranked="true">
			<state id="s0" fault="true" />
			<state id="s1" />
			<probabilities>0.0015 0.9985000000000001</probabilities>
		</cpt>
		<cpt id="n291" target="true" diagtype="target" ranked="true">
			<state id="s0" fault="true" />
			<state id="s1" />
			<probabilities>0.0008750000000000001 0.999125</probabilities>
		</cpt>
		<cpt id="n292" target="true" diagtype="target" ranked="true">
			<state id="s0" fault="true" />
			<state id="s1" />
			<probabilities>0.000125 0.999875</probabilities>
		</cpt>
		<cpt id="n293" target="true" diagtype="target" ranked="true">
			<state id="s0" fault="true" />
			<state id="s1" />
			<probabilities>0.00075 0.99925</probabilities>
		</cpt>
		<cpt id="n294" target="true" diagtype="target" ranked="true">
			<state id="s0" fault="true" />
			<state id="s1" />
			<probabilities>0.0008750000000000001 0.999125</probabilities>
		</cpt>
		<cpt id="n295" target="true" diagtype="target" ranked="true">
			<state id="s0" fault="true" />
			<state id="s1" />
			<probabilities>0.0008750000000000001 0.999125</probabilities>
		</cpt>
		<cpt id="n296" target="true" diagtype="target" ranked="true">
			<state id="s0" fault="true" />
			<state id="s1" />
			<probabilities>0.000125 0.999875</probabilities>
		</cpt>
		<cpt id="n297" target="true" diagtype="target" ranked="true">
			<state id="s0" fault="true" />
			<state id="s1" />
			<probabilities>0.00075 0.99925</probabilities>
		</cpt>
		<cpt id="n298" target="true" diagtype="target" ranked="true">
			<state id="s0" fault="true" />
			<state id="s1" />
			<probabilities>0.0008750000000000001 0.999125</probabilities>
		</cpt>
		<cpt id="n299" target="true" diagtype="target" ranked="true">
			<state id="s0" fault="true" />
			<state id="s1" />
			<probabilities>7.500000000000001e-05 0.999925</probabilities>
		</cpt>
		<cpt id="n300" target="true" diagtype="target" ranked="true">
			<state id="s0" fault="true" />
			<state id="s1" />
			<probabilities>0.0003 0.9997</probabilities>
		</cpt>
		<cpt id="n301" target="true" diagtype="target" ranked="true">
			<state id="s0" fault="true" />
			<state id="s1" />
			<probabilities>0.0002500000000000001 0.99975</probabilities>
		</cpt>
		<cpt id="n302" target="true" diagtype="target" ranked="true">
			<state id="s0" fault="true" />
			<state id="s1" />
			<probabilities>0.0002500000000000001 0.99975</probabilities>
		</cpt>
		<cpt id="n303" target="true" diagtype="target" ranked="true">
			<state id="s0" fault="true" />
			<state id="s1" />
			<probabilities>0.0002500000000000001 0.99975</probabilities>
		</cpt>
		<cpt id="n304" target="true" diagtype="target" ranked="true">
			<state id="s0" fault="true" />
			<state id="s1" />
			<probabilities>0.0002500000000000001 0.99975</probabilities>
		</cpt>
		<cpt id="n305" target="true" diagtype="target" ranked="true">
			<state id="s0" fault="true" />
			<state id="s1" />
			<probabilities>0.0002500000000000001 0.99975</probabilities>
		</cpt>
		<cpt id="n306" target="true" diagtype="target" ranked="true">
			<state id="s0" fault="true" />
			<state id="s1" />
			<probabilities>0.0002500000000000001 0.99975</probabilities>
		</cpt>
		<cpt id="n307" target="true" diagtype="target" ranked="true">
			<state id="s0" fault="true" />
			<state id="s1" />
			<probabilities>0.000125 0.999875</probabilities>
		</cpt>
		<cpt id="n308" target="true" diagtype="target" ranked="true">
			<state id="s0" fault="true" />
			<state id="s1" />
			<probabilities>0.000125 0.999875</probabilities>
		</cpt>
		<cpt id="n309" target="true" diagtype="target" ranked="true">
			<state id="s0" fault="true" />
			<state id="s1" />
			<probabilities>0.0002500000000000001 0.99975</probabilities>
		</cpt>
		<cpt id="n310" target="true" diagtype="target" ranked="true">
			<state id="s0" fault="true" />
			<state id="s1" />
			<probabilities>0.000125 0.999875</probabilities>
		</cpt>
		<cpt id="n311" target="true" diagtype="target" ranked="true">
			<state id="s0" fault="true" />
			<state id="s1" />
			<probabilities>0.000125 0.999875</probabilities>
		</cpt>
		<cpt id="n312" target="true" diagtype="target" ranked="true">
			<state id="s0" fault="true" />
			<state id="s1" />
			<probabilities>0.00013333325 0.99986666675</probabilities>
		</cpt>
		<cpt id="n313" target="true" diagtype="target" ranked="true">
			<state id="s0" fault="true" />
			<state id="s1" />
			<probabilities>3.333325e-05 0.99996666675</probabilities>
		</cpt>
		<cpt id="n314" target="true" diagtype="target" ranked="true">
			<state id="s0" fault="true" />
			<state id="s1" />
			<probabilities>0.0002500000000000001 0.99975</probabilities>
		</cpt>
		<cpt id="n315" target="true" diagtype="target" ranked="true">
			<state id="s0" fault="true" />
			<state id="s1" />
			<probabilities>0.0002500000000000001 0.99975</probabilities>
		</cpt>
		<cpt id="n316" target="true" diagtype="target" ranked="true">
			<state id="s0" fault="true" />
			<state id="s1" fault="true" />
			<state id="s2" />
			<probabilities>0.0002500000000000001 0.0002500000000000001 0.9995000000000001</probabilities>
		</cpt>
		<cpt id="n317" target="true" diagtype="target" ranked="true">
			<state id="s0" fault="true" />
			<state id="s1" />
			<probabilities>0.00175 0.99825</probabilities>
		</cpt>
		<cpt id="n318" target="true" diagtype="target" ranked="true">
			<state id="s0" fault="true" />
			<state id="s1" />
			<probabilities>0.00175 0.99825</probabilities>
		</cpt>
		<cpt id="n319" target="true" diagtype="target" ranked="true">
			<state id="s0" fault="true" />
			<state id="s1" />
			<probabilities>0.0002500000000000001 0.99975</probabilities>
		</cpt>
		<cpt id="n320" target="true" diagtype="target" ranked="true">
			<state id="s0" fault="true" />
			<state id="s1" />
			<probabilities>0.0002500000000000001 0.99975</probabilities>
		</cpt>
		<cpt id="n321" target="true" diagtype="target" ranked="true">
			<state id="s0" fault="true" />
			<state id="s1" />
			<probabilities>0.0002500000000000001 0.99975</probabilities>
		</cpt>
		<cpt id="n322" target="true" diagtype="target" ranked="true">
			<state id="s0" fault="true" />
			<state id="s1" />
			<probabilities>0.0001125 0.9998875</probabilities>
		</cpt>
		<cpt id="n323" target="true" diagtype="target" ranked="true">
			<state id="s0" fault="true" />
			<state id="s1" />
			<probabilities>0.0001125 0.9998875</probabilities>
		</cpt>
		<cpt id="n324" target="true" diagtype="target" ranked="true">
			<state id="s0" fault="true" />
			<state id="s1" />
			<probabilities>0.0001125 0.9998875</probabilities>
		</cpt>
		<cpt id="n325" target="true" diagtype="target" ranked="true">
			<state id="s0" fault="true" />
			<state id="s1" />
			<probabilities>0.0001125 0.9998875</probabilities>
		</cpt>
		<cpt id="n326" target="true" diagtype="target" ranked="true">
			<state id="s0" fault="true" />
			<state id="s1" />
			<probabilities>0.0001125 0.9998875</probabilities>
		</cpt>
		<cpt id="n327" target="true" diagtype="target" ranked="true">
			<state id="s0" fault="true" />
			<state id="s1" />
			<probabilities>0.0001125 0.9998875</probabilities>
		</cpt>
		<cpt id="n328" target="true" diagtype="target" ranked="true">
			<state id="s0" fault="true" />
			<state id="s1" />
			<probabilities>0.0001125 0.9998875</probabilities>
		</cpt>
		<cpt id="n329" target="true" diagtype="target" ranked="true">
			<state id="s0" fault="true" />
			<state id="s1" />
			<probabilities>0.0001125 0.9998875</probabilities>
		</cpt>
		<cpt id="n330" target="true" diagtype="target" ranked="true">
			<state id="s0" fault="true" />
			<state id="s1" />
			<probabilities>7.500000000000001e-05 0.999925</probabilities>
		</cpt>
		<cpt id="n331" target="true" diagtype="target" ranked="true">
			<state id="s0" fault="true" />
			<state id="s1" />
			<probabilities>7.500000000000001e-05 0.999925</probabilities>
		</cpt>
		<cpt id="n332" target="true" diagtype="target" ranked="true">
			<state id="s0" fault="true" />
			<state id="s1" />
			<probabilities>0.0002500000000000001 0.99975</probabilities>
		</cpt>
		<cpt id="n333" target="true" diagtype="target" ranked="true">
			<state id="s0" fault="true" />
			<state id="s1" fault="true" />
			<state id="s2" />
			<probabilities>7.500000000000001e-05 2.5e-05 0.9999</probabilities>
		</cpt>
		<cpt id="n334" target="true" diagtype="target" ranked="true">
			<state id="s0" fault="true" />
			<state id="s1" />
			<probabilities>7.500000000000001e-05 0.999925</probabilities>
		</cpt>
		<cpt id="n335" target="true" diagtype="target" ranked="true">
			<state id="s0" fault="true" />
			<state id="s1" />
			<probabilities>7.500000000000001e-05 0.999925</probabilities>
		</cpt>
		<cpt id="n336" target="true" diagtype="target" ranked="true">
			<state id="s0" fault="true" />
			<state id="s1" />
			<probabilities>0.0002500000000000001 0.99975</probabilities>
		</cpt>
		<cpt id="n337" target="true" diagtype="target" ranked="true">
			<state id="s0" fault="true" />
			<state id="s1" fault="true" />
			<state id="s2" />
			<probabilities>7.500000000000001e-05 2.5e-05 0.9999</probabilities>
		</cpt>
		<cpt id="n338" target="true" diagtype="target" ranked="true">
			<state id="s0" fault="true" />
			<state id="s1" />
			<probabilities>7.500000000000001e-05 0.999925</probabilities>
		</cpt>
		<cpt id="n339" target="true" diagtype="target" ranked="true">
			<state id="s0" fault="true" />
			<state id="s1" />
			<probabilities>7.500000000000001e-05 0.999925</probabilities>
		</cpt>
		<cpt id="n340" target="true" diagtype="target" ranked="true">
			<state id="s0" fault="true" />
			<state id="s1" />
			<probabilities>0.0002500000000000001 0.99975</probabilities>
		</cpt>
		<cpt id="n341" target="true" diagtype="target" ranked="true">
			<state id="s0" fault="true" />
			<state id="s1" fault="true" />
			<state id="s2" />
			<probabilities>7.500000000000001e-05 2.5e-05 0.9999</probabilities>
		</cpt>
		<cpt id="n342" target="true" diagtype="target" ranked="true">
			<state id="s0" fault="true" />
			<state id="s1" />
			<probabilities>0.0001 0.9999</probabilities>
		</cpt>
		<cpt id="n343" target="true" diagtype="target" ranked="true">
			<state id="s0" fault="true" />
			<state id="s1" />
			<probabilities>7.500000000000001e-05 0.999925</probabilities>
		</cpt>
		<cpt id="n344" target="true" diagtype="target" ranked="true">
			<state id="s0" fault="true" />
			<state id="s1" />
			<probabilities>0.0002500000000000001 0.99975</probabilities>
		</cpt>
		<cpt id="n345" target="true" diagtype="target" ranked="true">
			<state id="s0" fault="true" />
			<state id="s1" fault="true" />
			<state id="s2" />
			<probabilities>0.0001875 6.25e-05 0.99975</probabilities>
		</cpt>
		<cpt id="n346" target="true" diagtype="target" ranked="true">
			<state id="s0" fault="true" />
			<state id="s1" />
			<probabilities>7.500000000000001e-05 0.999925</probabilities>
		</cpt>
		<cpt id="n347" target="true" diagtype="target" ranked="true">
			<state id="s0" fault="true" />
			<state id="s1" />
			<probabilities>7.500000000000001e-05 0.999925</probabilities>
		</cpt>
		<cpt id="n348" target="true" diagtype="target" ranked="true">
			<state id="s0" fault="true" />
			<state id="s1" />
			<probabilities>0.0002500000000000001 0.99975</probabilities>
		</cpt>
		<cpt id="n349" target="true" diagtype="target" ranked="true">
			<state id="s0" fault="true" />
			<state id="s1" fault="true" />
			<state id="s2" />
			<probabilities>7.500000000000001e-05 2.5e-05 0.9999</probabilities>
		</cpt>
		<cpt id="n350" target="true" diagtype="target" ranked="true">
			<state id="s0" fault="true" />
			<state id="s1" />
			<probabilities>7.500000000000001e-05 0.999925</probabilities>
		</cpt>
		<cpt id="n351" target="true" diagtype="target" ranked="true">
			<state id="s0" fault="true" />
			<state id="s1" />
			<probabilities>7.500000000000001e-05 0.999925</probabilities>
		</cpt>
		<cpt id="n352" target="true" diagtype="target" ranked="true">
			<state id="s0" fault="true" />
			<state id="s1" />
			<probabilities>7.500000000000001e-05 0.999925</probabilities>
		</cpt>
		<cpt id="n353" target="true" diagtype="target" ranked="true">
			<state id="s0" fault="true" />
			<state id="s1" fault="true" />
			<state id="s2" />
			<probabilities>7.500000000000001e-05 2.5e-05 0.9999</probabilities>
		</cpt>
		<cpt id="n354" target="true" diagtype="target" ranked="true">
			<state id="s0" fault="true" />
			<state id="s1" />
			<probabilities>0.00058333325 0.99941666675</probabilities>
		</cpt>
		<cpt id="n355" target="true" diagtype="target" ranked="true">
			<state id="s0" fault="true" />
			<state id="s1" />
			<probabilities>0.0002375000000000001 0.9997625</probabilities>
		</cpt>
		<cpt id="n356" target="true" diagtype="target" ranked="true">
			<state id="s0" fault="true" />
			<state id="s1" />
			<probabilities>0.00275 0.99725</probabilities>
		</cpt>
		<cpt id="n357" target="true" diagtype="target" ranked="true">
			<state id="s0" fault="true" />
			<state id="s1" />
			<probabilities>0.00275 0.99725</probabilities>
		</cpt>
		<cpt id="n358" target="true" diagtype="target" ranked="true">
			<state id="s0" fault="true" />
			<state id="s1" />
			<probabilities>0.00275 0.99725</probabilities>
		</cpt>
		<cpt id="n359" target="true" diagtype="target" ranked="true">
			<state id="s0" fault="true" />
			<state id="s1" />
			<probabilities>0.00275 0.99725</probabilities>
		</cpt>
		<cpt id="n360" target="true" diagtype="target" ranked="true">
			<state id="s0" fault="true" />
			<state id="s1" />
			<probabilities>0.00275 0.99725</probabilities>
		</cpt>
		<cpt id="n361" target="true" diagtype="target" ranked="true">
			<state id="s0" fault="true" />
			<state id="s1" />
			<probabilities>0.00275 0.99725</probabilities>
		</cpt>
		<cpt id="n362" target="true" diagtype="target" ranked="true">
			<state id="s0" fault="true" />
			<state id="s1" />
			<probabilities>0.002500000000000001 0.9975000000000001</probabilities>
		</cpt>
		<cpt id="n363" target="true" diagtype="target" ranked="true">
			<state id="s0" fault="true" />
			<state id="s1" />
			<probabilities>7.500000000000001e-05 0.999925</probabilities>
		</cpt>
		<cpt id="n364" target="true" diagtype="target" ranked="true">
			<state id="s0" fault="true" />
			<state id="s1" />
			<probabilities>0.00015 0.99985</probabilities>
		</cpt>
		<cpt id="n365" target="true" diagtype="target" ranked="true">
			<state id="s0" fault="true" />
			<state id="s1" />
			<probabilities>0.00015 0.99985</probabilities>
		</cpt>
		<cpt id="n366" target="true" diagtype="target" ranked="true">
			<state id="s0" fault="true" />
			<state id="s1" />
			<probabilities>0.000125 0.999875</probabilities>
		</cpt>
		<cpt id="n367" target="true" diagtype="target" ranked="true">
			<state id="s0" fault="true" />
			<state id="s1" fault="true" />
			<state id="s2" />
			<probabilities>0.0004750000000000001 2.5e-05 0.9995000000000001</probabilities>
		</cpt>
		<cpt id="n368" target="true" diagtype="target" ranked="true">
			<state id="s0" fault="true" />
			<state id="s1" />
			<probabilities>0.005625000000000002 0.994375</probabilities>
		</cpt>
		<cpt id="n369" target="true" diagtype="target" ranked="true">
			<state id="s0" fault="true" />
			<state id="s1" />
			<probabilities>0.001875 0.998125</probabilities>
		</cpt>
		<cpt id="n370" target="true" diagtype="target" ranked="true">
			<state id="s0" fault="true" />
			<state id="s1" />
			<probabilities>0.001125 0.998875</probabilities>
		</cpt>
		<cpt id="n371" target="true" diagtype="target" ranked="true">
			<state id="s0" fault="true" />
			<state id="s1" />
			<probabilities>0.000375 0.999625</probabilities>
		</cpt>
		<cpt id="n372" target="true" diagtype="target" ranked="true">
			<state id="s0" fault="true" />
			<state id="s1" />
			<probabilities>0.001125 0.998875</probabilities>
		</cpt>
		<cpt id="n373" target="true" diagtype="target" ranked="true">
			<state id="s0" fault="true" />
			<state id="s1" />
			<probabilities>0.000375 0.999625</probabilities>
		</cpt>
		<cpt id="n374" target="true" diagtype="target" ranked="true">
			<state id="s0" fault="true" />
			<state id="s1" />
			<probabilities>0.0013125 0.9986875</probabilities>
		</cpt>
		<cpt id="n375" target="true" diagtype="target" ranked="true">
			<state id="s0" fault="true" />
			<state id="s1" />
			<probabilities>0.0004375000000000002 0.9995625</probabilities>
		</cpt>
		<cpt id="n376" target="true" diagtype="target" ranked="true">
			<state id="s0" fault="true" />
			<state id="s1" />
			<probabilities>3.75e-05 0.9999625</probabilities>
		</cpt>
		<cpt id="n377" target="true" diagtype="target" ranked="true">
			<state id="s0" fault="true" />
			<state id="s1" />
			<probabilities>0.00026 0.99974</probabilities>
		</cpt>
		<cpt id="n378" target="true" diagtype="target" ranked="true">
			<state id="s0" fault="true" />
			<state id="s1" />
			<probabilities>0.00104 0.99896</probabilities>
		</cpt>
		<cpt id="n379" target="true" diagtype="target" ranked="true">
			<state id="s0" fault="true" />
			<state id="s1" />
			<probabilities>0.0014 0.9986</probabilities>
		</cpt>
		<cpt id="n380" target="true" diagtype="target" ranked="true">
			<state id="s0" fault="true" />
			<state id="s1" />
			<probabilities>0.0005000000000000001 0.9995000000000001</probabilities>
		</cpt>
		<cpt id="n381" target="true" diagtype="target" ranked="true">
			<state id="s0" fault="true" />
			<state id="s1" />
			<probabilities>0.0002500000000000001 0.99975</probabilities>
		</cpt>
		<cpt id="n382" target="true" diagtype="target" ranked="true">
			<state id="s0" fault="true" />
			<state id="s1" />
			<probabilities>0.0002500000000000001 0.99975</probabilities>
		</cpt>
		<cpt id="n383" target="true" diagtype="target" ranked="true">
			<state id="s0" fault="true" />
			<state id="s1" />
			<probabilities>0.0002500000000000001 0.99975</probabilities>
		</cpt>
		<cpt id="n384" target="true" diagtype="target" ranked="true">
			<state id="s0" fault="true" />
			<state id="s1" />
			<probabilities>0.00129 0.99871</probabilities>
		</cpt>
		<cpt id="n385" target="true" diagtype="target" ranked="true">
			<state id="s0" fault="true" />
			<state id="s1" />
			<probabilities>0.0008600000000000002 0.99914</probabilities>
		</cpt>
		<cpt id="n386" target="true" diagtype="target" ranked="true">
			<state id="s0" fault="true" />
			<state id="s1" />
			<probabilities>0.00129 0.99871</probabilities>
		</cpt>
		<cpt id="n387" target="true" diagtype="target" ranked="true">
			<state id="s0" fault="true" />
			<state id="s1" />
			<probabilities>0.0008600000000000002 0.99914</probabilities>
		</cpt>
		<cpt id="n388" target="true" diagtype="target" ranked="true">
			<state id="s0" fault="true" />
			<state id="s1" />
			<probabilities>0.0002500000000000001 0.99975</probabilities>
		</cpt>
		<cpt id="n389" target="true" diagtype="target" ranked="true">
			<state id="s0" fault="true" />
			<state id="s1" />
			<probabilities>0.0002500000000000001 0.99975</probabilities>
		</cpt>
		<cpt id="n390" target="true" diagtype="target" ranked="true">
			<state id="s0" fault="true" />
			<state id="s1" />
			<probabilities>0.0002500000000000001 0.99975</probabilities>
		</cpt>
		<cpt id="n391" target="true" diagtype="target" ranked="true">
			<state id="s0" fault="true" />
			<state id="s1" />
			<probabilities>0.0002500000000000001 0.99975</probabilities>
		</cpt>
		<cpt id="n392" target="true" diagtype="target" ranked="true">
			<state id="s0" fault="true" />
			<state id="s1" />
			<probabilities>0.0002500000000000001 0.99975</probabilities>
		</cpt>
		<cpt id="n393" target="true" diagtype="target" ranked="true">
			<state id="s0" fault="true" />
			<state id="s1" />
			<probabilities>0.00175 0.99825</probabilities>
		</cpt>
		<cpt id="n394" target="true" diagtype="target" ranked="true">
			<state id="s0" fault="true" />
			<state id="s1" />
			<probabilities>0.00175 0.99825</probabilities>
		</cpt>
		<cpt id="n395" target="true" diagtype="target" ranked="true">
			<state id="s0" fault="true" />
			<state id="s1" />
			<probabilities>0.00175 0.99825</probabilities>
		</cpt>
		<cpt id="n396" target="true" diagtype="target" ranked="true">
			<state id="s0" fault="true" />
			<state id="s1" />
			<probabilities>0.00175 0.99825</probabilities>
		</cpt>
		<cpt id="n397" target="true" diagtype="target" ranked="true">
			<state id="s0" fault="true" />
			<state id="s1" />
			<probabilities>8.333325000000003e-05 0.99991666675</probabilities>
		</cpt>
		<cpt id="n398" target="true" diagtype="target" ranked="true">
			<state id="s0" fault="true" />
			<state id="s1" />
			<probabilities>7.500000000000001e-05 0.999925</probabilities>
		</cpt>
		<cpt id="n399" target="true" diagtype="target" ranked="true">
			<state id="s0" fault="true" />
			<state id="s1" />
			<probabilities>0.0001 0.9999</probabilities>
		</cpt>
		<cpt id="n400" target="true" diagtype="target" ranked="true">
			<state id="s0" fault="true" />
			<state id="s1" />
			<probabilities>0.0001 0.9999</probabilities>
		</cpt>
		<cpt id="n401" target="true" diagtype="target" ranked="true">
			<state id="s0" fault="true" />
			<state id="s1" />
			<probabilities>0.0002500000000000001 0.99975</probabilities>
		</cpt>
		<cpt id="n402" target="true" diagtype="target" ranked="true">
			<state id="s0" fault="true" />
			<state id="s1" />
			<probabilities>4.166675e-05 0.9999583332500001</probabilities>
		</cpt>
		<cpt id="n403" target="true" diagtype="target" ranked="true">
			<state id="s0" fault="true" />
			<state id="s1" />
			<probabilities>0.00225 0.99775</probabilities>
		</cpt>
		<cpt id="n404" target="true" diagtype="target" ranked="true">
			<state id="s0" fault="true" />
			<state id="s1" />
			<probabilities>0.00175 0.99825</probabilities>
		</cpt>
		<cpt id="n405" target="true" diagtype="target" ranked="true">
			<state id="s0" fault="true" />
			<state id="s1" />
			<probabilities>0.0004750000000000001 0.999525</probabilities>
		</cpt>
		<cpt id="n406" target="true" diagtype="target" ranked="true">
			<state id="s0" fault="true" />
			<state id="s1" />
			<probabilities>2.5e-05 0.9999749999999999</probabilities>
		</cpt>
		<cpt id="n407" target="true" diagtype="target" ranked="true">
			<state id="s0" fault="true" />
			<state id="s1" />
			<probabilities>0.00275 0.99725</probabilities>
		</cpt>
		<cpt id="n408" target="true" diagtype="target" ranked="true">
			<state id="s0" fault="true" />
			<state id="s1" />
			<probabilities>7.500000000000001e-05 0.999925</probabilities>
		</cpt>
		<cpt id="n409" target="true" diagtype="target" ranked="true">
			<state id="s0" fault="true" />
			<state id="s1" />
			<probabilities>0.0003 0.9997</probabilities>
		</cpt>
		<cpt id="n410" target="true" diagtype="target" ranked="true">
			<state id="s0" fault="true" />
			<state id="s1" />
			<probabilities>0.00275 0.99725</probabilities>
		</cpt>
		<cpt id="n411" target="true" diagtype="target" ranked="true">
			<state id="s0" fault="true" />
			<state id="s1" />
			<probabilities>0.005000000000000001 0.995</probabilities>
		</cpt>
		<cpt id="n412" target="true" diagtype="target" ranked="true">
			<state id="s0" fault="true" />
			<state id="s1" />
			<probabilities>0.00015125 0.99984875</probabilities>
		</cpt>
		<cpt id="n413" target="true" diagtype="target" ranked="true">
			<state id="s0" fault="true" />
			<state id="s1" />
			<probabilities>0.00012375 0.99987625</probabilities>
		</cpt>
		<cpt id="n414" target="true" diagtype="target" ranked="true">
			<state id="s0" fault="true" />
			<state id="s1" />
			<probabilities>3.75e-05 0.9999625</probabilities>
		</cpt>
		<cpt id="n415" target="true" diagtype="target" ranked="true">
			<state id="s0" fault="true" />
			<state id="s1" />
			<probabilities>0.002625 0.997375</probabilities>
		</cpt>
		<cpt id="n416" target="true" diagtype="target" ranked="true">
			<state id="s0" fault="true" />
			<state id="s1" />
			<probabilities>0.002625 0.997375</probabilities>
		</cpt>
		<cpt id="n417" target="true" diagtype="target" ranked="true">
			<state id="s0" fault="true" />
			<state id="s1" />
			<probabilities>0.007000000000000001 0.993</probabilities>
		</cpt>
		<cpt id="n418" target="true" diagtype="target" ranked="true">
			<state id="s0" fault="true" />
			<state id="s1" />
			<probabilities>0.00525 0.99475</probabilities>
		</cpt>
		<cpt id="n419" target="true" diagtype="target" ranked="true">
			<state id="s0" fault="true" />
			<state id="s1" />
			<probabilities>0.002625 0.997375</probabilities>
		</cpt>
		<cpt id="n420" target="true" diagtype="target" ranked="true">
			<state id="s0" fault="true" />
			<state id="s1" />
			<probabilities>0.002625 0.997375</probabilities>
		</cpt>
		<cpt id="n421" target="true" diagtype="target" ranked="true">
			<state id="s0" fault="true" />
			<state id="s1" />
			<probabilities>0.007000000000000001 0.993</probabilities>
		</cpt>
		<cpt id="n422" target="true" diagtype="target" ranked="true">
			<state id="s0" fault="true" />
			<state id="s1" />
			<probabilities>0.00525 0.99475</probabilities>
		</cpt>
		<cpt id="n423" target="true" diagtype="target" ranked="true">
			<state id="s0" fault="true" />
			<state id="s1" />
			<probabilities>0.002625 0.997375</probabilities>
		</cpt>
		<cpt id="n424" target="true" diagtype="target" ranked="true">
			<state id="s0" fault="true" />
			<state id="s1" />
			<probabilities>0.002625 0.997375</probabilities>
		</cpt>
		<cpt id="n425" target="true" diagtype="target" ranked="true">
			<state id="s0" fault="true" />
			<state id="s1" />
			<probabilities>0.007000000000000001 0.993</probabilities>
		</cpt>
		<cpt id="n426" target="true" diagtype="target" ranked="true">
			<state id="s0" fault="true" />
			<state id="s1" />
			<probabilities>0.00525 0.99475</probabilities>
		</cpt>
		<cpt id="n427" target="true" diagtype="target" ranked="true">
			<state id="s0" fault="true" />
			<state id="s1" />
			<probabilities>0.002625 0.997375</probabilities>
		</cpt>
		<cpt id="n428" target="true" diagtype="target" ranked="true">
			<state id="s0" fault="true" />
			<state id="s1" />
			<probabilities>0.002625 0.997375</probabilities>
		</cpt>
		<cpt id="n429" target="true" diagtype="target" ranked="true">
			<state id="s0" fault="true" />
			<state id="s1" />
			<probabilities>0.007000000000000001 0.993</probabilities>
		</cpt>
		<cpt id="n430" target="true" diagtype="target" ranked="true">
			<state id="s0" fault="true" />
			<state id="s1" />
			<probabilities>0.00525 0.99475</probabilities>
		</cpt>
		<cpt id="n431" target="true" diagtype="target" ranked="true">
			<state id="s0" fault="true" />
			<state id="s1" />
			<probabilities>0.002625 0.997375</probabilities>
		</cpt>
		<cpt id="n432" target="true" diagtype="target" ranked="true">
			<state id="s0" fault="true" />
			<state id="s1" />
			<probabilities>0.002625 0.997375</probabilities>
		</cpt>
		<cpt id="n433" target="true" diagtype="target" ranked="true">
			<state id="s0" fault="true" />
			<state id="s1" />
			<probabilities>0.007000000000000001 0.993</probabilities>
		</cpt>
		<cpt id="n434" target="true" diagtype="target" ranked="true">
			<state id="s0" fault="true" />
			<state id="s1" />
			<probabilities>0.00525 0.99475</probabilities>
		</cpt>
		<cpt id="n435" target="true" diagtype="target" ranked="true">
			<state id="s0" fault="true" />
			<state id="s1" />
			<probabilities>0.002625 0.997375</probabilities>
		</cpt>
		<cpt id="n436" target="true" diagtype="target" ranked="true">
			<state id="s0" fault="true" />
			<state id="s1" />
			<probabilities>0.002625 0.997375</probabilities>
		</cpt>
		<cpt id="n437" target="true" diagtype="target" ranked="true">
			<state id="s0" fault="true" />
			<state id="s1" />
			<probabilities>0.007000000000000001 0.993</probabilities>
		</cpt>
		<cpt id="n438" target="true" diagtype="target" ranked="true">
			<state id="s0" fault="true" />
			<state id="s1" />
			<probabilities>0.00525 0.99475</probabilities>
		</cpt>
		<cpt id="n439" target="true" diagtype="target" ranked="true">
			<state id="s0" fault="true" />
			<state id="s1" />
			<probabilities>0.000325 0.999675</probabilities>
		</cpt>
		<cpt id="n440" target="true" diagtype="target" ranked="true">
			<state id="s0" fault="true" />
			<state id="s1" />
			<probabilities>0.000325 0.999675</probabilities>
		</cpt>
		<cpt id="n441" target="true" diagtype="target" ranked="true">
			<state id="s0" fault="true" />
			<state id="s1" />
			<probabilities>0.0001875 0.9998125</probabilities>
		</cpt>
		<cpt id="n442" target="true" diagtype="target" ranked="true">
			<state id="s0" fault="true" />
			<state id="s1" />
			<probabilities>0.000375 0.999625</probabilities>
		</cpt>
		<cpt id="n443" target="true" diagtype="target" ranked="true">
			<state id="s0" fault="true" />
			<state id="s1" />
			<probabilities>0.0001875 0.9998125</probabilities>
		</cpt>
		<cpt id="n444" target="true" diagtype="target" ranked="true">
			<state id="s0" fault="true" />
			<state id="s1" />
			<probabilities>0.000375 0.999625</probabilities>
		</cpt>
		<cpt id="n445" target="true" diagtype="target" ranked="true">
			<state id="s0" fault="true" />
			<state id="s1" />
			<probabilities>0.001625 0.998375</probabilities>
		</cpt>
		<cpt id="n446" target="true" diagtype="target" ranked="true">
			<state id="s0" fault="true" />
			<state id="s1" />
			<probabilities>0.0006250000000000002 0.999375</probabilities>
		</cpt>
		<cpt id="n447" target="true" diagtype="target" ranked="true">
			<state id="s0" fault="true" />
			<state id="s1" />
			<probabilities>0.0002500000000000001 0.99975</probabilities>
		</cpt>
		<cpt id="n448" target="true" diagtype="target" ranked="true">
			<state id="s0" fault="true" />
			<state id="s1" />
			<probabilities>0.001625 0.998375</probabilities>
		</cpt>
		<cpt id="n449" target="true" diagtype="target" ranked="true">
			<state id="s0" fault="true" />
			<state id="s1" />
			<probabilities>0.0006250000000000002 0.999375</probabilities>
		</cpt>
		<cpt id="n450" target="true" diagtype="target" ranked="true">
			<state id="s0" fault="true" />
			<state id="s1" />
			<probabilities>0.0002500000000000001 0.99975</probabilities>
		</cpt>
		<cpt id="n451" target="true" diagtype="target" ranked="true">
			<state id="s0" fault="true" />
			<state id="s1" />
			<probabilities>0.00195 0.99805</probabilities>
		</cpt>
		<cpt id="n452" target="true" diagtype="target" ranked="true">
			<state id="s0" fault="true" />
			<state id="s1" />
			<probabilities>0.00195 0.99805</probabilities>
		</cpt>
		<cpt id="n453" target="true" diagtype="target" ranked="true">
			<state id="s0" fault="true" />
			<state id="s1" />
			<probabilities>0.00275 0.99725</probabilities>
		</cpt>
		<cpt id="n454" target="true" diagtype="target" ranked="true">
			<state id="s0" fault="true" />
			<state id="s1" />
			<probabilities>0.0002500000000000001 0.99975</probabilities>
		</cpt>
		<cpt id="n455" target="true" diagtype="target" ranked="true">
			<state id="s0" fault="true" />
			<state id="s1" />
			<probabilities>0.0006250000000000002 0.999375</probabilities>
		</cpt>
		<cpt id="n456" target="true" diagtype="target" ranked="true">
			<state id="s0" fault="true" />
			<state id="s1" />
			<probabilities>0.0006250000000000002 0.999375</probabilities>
		</cpt>
		<cpt id="n457" target="true" diagtype="target" ranked="true">
			<state id="s0" fault="true" />
			<state id="s1" />
			<probabilities>0.00125 0.99875</probabilities>
		</cpt>
		<cpt id="n458" target="true" diagtype="target" ranked="true">
			<state id="s0" fault="true" />
			<state id="s1" />
			<probabilities>0.0009500000000000002 0.99905</probabilities>
		</cpt>
		<cpt id="n459" target="true" diagtype="target" ranked="true">
			<state id="s0" fault="true" />
			<state id="s1" />
			<probabilities>0.0019125 0.9980875</probabilities>
		</cpt>
		<cpt id="n460" target="true" diagtype="target" ranked="true">
			<state id="s0" fault="true" />
			<state id="s1" fault="true" />
			<state id="s2" />
			<probabilities>0.0003125000625 0.0001041666875 0.99958333325</probabilities>
		</cpt>
		<cpt id="n461" target="true" diagtype="target" ranked="true">
			<state id="s0" fault="true" />
			<state id="s1" />
			<probabilities>0.00125 0.99875</probabilities>
		</cpt>
		<cpt id="n462" target="true" diagtype="target" ranked="true">
			<state id="s0" fault="true" />
			<state id="s1" fault="true" />
			<state id="s2" />
			<probabilities>0.0003125000625 0.0001041666875 0.99958333325</probabilities>
		</cpt>
		<cpt id="n463" target="true" diagtype="target" ranked="true">
			<state id="s0" fault="true" />
			<state id="s1" />
			<probabilities>0.00125 0.99875</probabilities>
		</cpt>
		<cpt id="n464" target="true" diagtype="target" ranked="true">
			<state id="s0" fault="true" />
			<state id="s1" fault="true" />
			<state id="s2" />
			<probabilities>0.0003125000625 0.0001041666875 0.99958333325</probabilities>
		</cpt>
		<cpt id="n465" target="true" diagtype="target" ranked="true">
			<state id="s0" fault="true" />
			<state id="s1" />
			<probabilities>0.00125 0.99875</probabilities>
		</cpt>
		<cpt id="n466" target="true" diagtype="target" ranked="true">
			<state id="s0" fault="true" />
			<state id="s1" fault="true" />
			<state id="s2" />
			<probabilities>0.0003125000625 0.0001041666875 0.99958333325</probabilities>
		</cpt>
		<cpt id="n467" target="true" diagtype="target" ranked="true">
			<state id="s0" fault="true" />
			<state id="s1" />
			<probabilities>0.00125 0.99875</probabilities>
		</cpt>
		<cpt id="n468" target="true" diagtype="target" ranked="true">
			<state id="s0" fault="true" />
			<state id="s1" fault="true" />
			<state id="s2" />
			<probabilities>0.0003125000625 0.0001041666875 0.99958333325</probabilities>
		</cpt>
		<cpt id="n469" target="true" diagtype="target" ranked="true">
			<state id="s0" fault="true" />
			<state id="s1" />
			<probabilities>0.00125 0.99875</probabilities>
		</cpt>
		<cpt id="n470" target="true" diagtype="target" ranked="true">
			<state id="s0" fault="true" />
			<state id="s1" fault="true" />
			<state id="s2" />
			<probabilities>0.0003125000625 0.0001041666875 0.99958333325</probabilities>
		</cpt>
		<cpt id="n471" target="true" diagtype="target" ranked="true">
			<state id="s0" fault="true" />
			<state id="s1" />
			<probabilities>0.00125 0.99875</probabilities>
		</cpt>
		<cpt id="n472" target="true" diagtype="target" ranked="true">
			<state id="s0" fault="true" />
			<state id="s1" />
			<probabilities>0.0006000000000000005 0.9994</probabilities>
		</cpt>
		<cpt id="n473" target="true" diagtype="target" ranked="true">
			<state id="s0" fault="true" />
			<state id="s1" />
			<probabilities>0.0024 0.9976</probabilities>
		</cpt>
		<cpt id="n474" target="true" diagtype="target" ranked="true">
			<state id="s0" fault="true" />
			<state id="s1" />
			<probabilities>0.0006000000000000005 0.9994</probabilities>
		</cpt>
		<cpt id="n475" target="true" diagtype="target" ranked="true">
			<state id="s0" fault="true" />
			<state id="s1" />
			<probabilities>0.0024 0.9976</probabilities>
		</cpt>
		<cpt id="n476" target="true" diagtype="target" ranked="true">
			<state id="s0" fault="true" />
			<state id="s1" />
			<probabilities>0.003 0.997</probabilities>
		</cpt>
		<cpt id="n477" target="true" diagtype="target" ranked="true">
			<state id="s0" fault="true" />
			<state id="s1" />
			<probabilities>0.003 0.997</probabilities>
		</cpt>
		<cpt id="n478" target="true" diagtype="target" ranked="true">
			<state id="s0" fault="true" />
			<state id="s1" />
			<probabilities>0.0002500000000000001 0.99975</probabilities>
		</cpt>
		<cpt id="n479" target="true" diagtype="target" ranked="true">
			<state id="s0" fault="true" />
			<state id="s1" />
			<probabilities>0.0005000000000000001 0.9995000000000001</probabilities>
		</cpt>
		<cpt id="n480" target="true" diagtype="target" ranked="true">
			<state id="s0" fault="true" />
			<state id="s1" />
			<probabilities>0.0002500000000000001 0.99975</probabilities>
		</cpt>
		<cpt id="n481" target="true" diagtype="target" ranked="true">
			<state id="s0" fault="true" />
			<state id="s1" />
			<probabilities>0.000275 0.999725</probabilities>
		</cpt>
		<cpt id="n482" target="true" diagtype="target" ranked="true">
			<state id="s0" fault="true" />
			<state id="s1" />
			<probabilities>0.00019375 0.99980625</probabilities>
		</cpt>
		<cpt id="n483" target="true" diagtype="target" ranked="true">
			<state id="s0" fault="true" />
			<state id="s1" />
			<probabilities>0.0002500000000000001 0.99975</probabilities>
		</cpt>
		<cpt id="n484" target="true" diagtype="target" ranked="true">
			<state id="s0" fault="true" />
			<state id="s1" />
			<probabilities>2.5e-06 0.9999975</probabilities>
		</cpt>
		<cpt id="n485" target="true" diagtype="target" ranked="true">
			<state id="s0" fault="true" />
			<state id="s1" />
			<probabilities>8.333325e-07 0.9999991666675</probabilities>
		</cpt>
		<cpt id="n486" target="true" diagtype="target" ranked="true">
			<state id="s0" fault="true" />
			<state id="s1" />
			<probabilities>4.166675e-06 0.999995833325</probabilities>
		</cpt>
		<cpt id="n487" target="true" diagtype="target" ranked="true">
			<state id="s0" fault="true" />
			<state id="s1" />
			<probabilities>0.0018 0.9982</probabilities>
		</cpt>
		<cpt id="n488" target="true" diagtype="target" ranked="true">
			<state id="s0" fault="true" />
			<state id="s1" />
			<probabilities>0.0027 0.9973</probabilities>
		</cpt>
		<cpt id="n489" target="true" diagtype="target" ranked="true">
			<state id="s0" fault="true" />
			<state id="s1" />
			<probabilities>0.0005000000000000001 0.9995000000000001</probabilities>
		</cpt>
		<noisymax id="n490">
			<state id="s0" />
			<state id="s1" />
			<parents>n110 n98 n97 n53</parents>
			<strengths>0 1 0 1 0 1 0 1</strengths>
			<parameters>1 0 0 1 1 0 0 1 1 0 0 1 1 0 0 1 0 1</parameters>
		</noisymax>
		<noisymax id="n491">
			<state id="s0" />
			<state id="s1" />
			<parents>n203 n116 n113 n128</parents>
			<strengths>0 1 0 1 0 1 0 1</strengths>
			<parameters>1 0 0 1 1 0 0 1 1 0 0 1 1 0 0 1 0 1</parameters>
		</noisymax>
		<noisymax id="n492">
			<state id="s0" />
			<state id="s1" />
			<parents>n487 n456</parents>
			<strengths>0 1 0 1</strengths>
			<parameters>1 0 0 1 1 0 0 1 0 1</parameters>
		</noisymax>
		<noisymax id="n493">
			<state id="s0" />
			<state id="s1" />
			<parents>n490 n491 n492</parents>
			<strengths>0 1 0 1 0 1</strengths>
			<parameters>1 0 0 1 1 0 0 1 1 0 0 1 1e-05 0.99999</parameters>
		</noisymax>
		<noisymax id="n494">
			<state id="s0" />
			<state id="s1" />
			<parents>n417 n421 n425 n461</parents>
			<strengths>0 1 0 1 0 1 0 1</strengths>
			<parameters>1 0 0 1 1 0 0 1 1 0 0 1 1 0 0 1 0 1</parameters>
		</noisymax>
		<noisymax id="n495">
			<state id="s0" />
			<state id="s1" />
			<parents>n463 n465</parents>
			<strengths>0 1 0 1</strengths>
			<parameters>1 0 0 1 1 0 0 1 0 1</parameters>
		</noisymax>
		<noisymax id="n496">
			<state id="s0" />
			<state id="s1" />
			<parents>n494 n495</parents>
			<strengths>0 1 0 1</strengths>
			<parameters>1 0 0 1 1 0 0 1 1e-05 0.99999</parameters>
		</noisymax>
		<noisymax id="n497">
			<state id="s0" />
			<state id="s1" />
			<parents>n418 n422 n426 n460</parents>
			<strengths>0 1 0 1 0 1 0 1 2</strengths>
			<parameters>1 0 0 1 1 0 0 1 1 0 0 1 1 0 1e-05 0.99999 0 1 0 1</parameters>
		</noisymax>
		<noisymax id="n498">
			<state id="s0" />
			<state id="s1" />
			<parents>n462 n464</parents>
			<strengths>0 1 2 0 1 2</strengths>
			<parameters>1 0 1e-05 0.99999 0 1 1 0 1e-05 0.99999 0 1 0 1</parameters>
		</noisymax>
		<noisymax id="n499">
			<state id="s0" />
			<state id="s1" />
			<parents>n497 n498</parents>
			<strengths>0 1 0 1</strengths>
			<parameters>1 0 0 1 1 0 0 1 1e-05 0.99999</parameters>
		</noisymax>
		<noisymax id="n500">
			<state id="s0" />
			<state id="s1" />
			<parents>n429 n433 n437 n467</parents>
			<strengths>0 1 0 1 0 1 0 1</strengths>
			<parameters>1 0 0 1 1 0 0 1 1 0 0 1 1 0 0 1 0 1</parameters>
		</noisymax>
		<noisymax id="n501">
			<state id="s0" />
			<state id="s1" />
			<parents>n469 n471</parents>
			<strengths>0 1 0 1</strengths>
			<parameters>1 0 0 1 1 0 0 1 0 1</parameters>
		</noisymax>
		<noisymax id="n502">
			<state id="s0" />
			<state id="s1" />
			<parents>n500 n501</parents>
			<strengths>0 1 0 1</strengths>
			<parameters>1 0 0 1 1 0 0 1 1e-05 0.99999</parameters>
		</noisymax>
		<noisymax id="n503">
			<state id="s0" />
			<state id="s1" />
			<parents>n430 n434 n438 n466</parents>
			<strengths>0 1 0 1 0 1 0 1 2</strengths>
			<parameters>1 0 0 1 1 0 0 1 1 0 0 1 1 0 1e-05 0.99999 0 1 0 1</parameters>
		</noisymax>
		<noisymax id="n504">
			<state id="s0" />
			<state id="s1" />
			<parents>n468 n470</parents>
			<strengths>0 1 2 0 1 2</strengths>
			<parameters>1 0 1e-05 0.99999 0 1 1 0 1e-05 0.99999 0 1 0 1</parameters>
		</noisymax>
		<noisymax id="n505">
			<state id="s0" />
			<state id="s1" />
			<parents>n503 n504</parents>
			<strengths>0 1 0 1</strengths>
			<parameters>1 0 0 1 1 0 0 1 1e-05 0.99999</parameters>
		</noisymax>
		<noisymax id="n506">
			<state id="s0" />
			<state id="s1" />
			<parents>n111 n43 n39 n41</parents>
			<strengths>0 1 0 1 0 1 0 1</strengths>
			<parameters>1 0 0 1 1 0 0 1 1 0 0 1 1 0 0 1 0 1</parameters>
		</noisymax>
		<noisymax id="n507">
			<state id="s0" />
			<state id="s1" />
			<parents>n224 n184 n132 n182</parents>
			<strengths>0 1 0 1 0 1 0 1</strengths>
			<parameters>1 0 0 1 1 0 0 1 1 0 0 1 1 0 0 1 0 1</parameters>
		</noisymax>
		<noisymax id="n508">
			<state id="s0" />
			<state id="s1" />
			<parents>n286 n271 n268 n278</parents>
			<strengths>0 1 0 1 0 1 0 1</strengths>
			<parameters>1 0 0 1 1 0 0 1 1 0 0 1 1 0 0 1 0 1</parameters>
		</noisymax>
		<noisymax id="n509">
			<state id="s0" />
			<state id="s1" />
			<parents>n479 n480 n478 n362</parents>
			<strengths>0 1 0 1 0 1 0 1</strengths>
			<parameters>1 0 0 1 1 0 0 1 1 0 0 1 1 0 0 1 0 1</parameters>
		</noisymax>
		<noisymax id="n510">
			<state id="s0" />
			<state id="s1" />
			<parents>n506 n507 n508 n509</parents>
			<strengths>0 1 0 1 0 1 0 1</strengths>
			<parameters>1 0 0 1 1 0 0 1 1 0 0 1 1 0 0 1 0 1</parameters>
		</noisymax>
		<noisymax id="n511">
			<state id="s0" />
			<state id="s1" />
			<parents>n481 n483 n482</parents>
			<strengths>0 1 0 1 0 1</strengths>
			<parameters>1 0 0 1 1 0 0 1 1 0 0 1 0 1</parameters>
		</noisymax>
		<noisymax id="n512">
			<state id="s0" />
			<state id="s1" />
			<parents>n511</parents>
			<strengths>0 1</strengths>
			<parameters>1 0 0 1 0 1</parameters>
		</noisymax>
		<noisymax id="n513">
			<state id="s0" />
			<state id="s1" />
			<parents>n510 n512</parents>
			<strengths>0 1 0 1</strengths>
			<parameters>1 0 0 1 1 0 0 1 1e-05 0.99999</parameters>
		</noisymax>
		<noisymax id="n514">
			<state id="s0" />
			<state id="s1" />
			<parents>n282 n285 n310 n280</parents>
			<strengths>0 1 0 1 0 1 0 1</strengths>
			<parameters>1 0 0 1 1 0 0 1 1 0 0 1 1 0 0 1 0 1</parameters>
		</noisymax>
		<noisymax id="n515">
			<state id="s0" />
			<state id="s1" />
			<parents>n354 n314 n400 n313</parents>
			<strengths>0 1 0 1 0 1 0 1</strengths>
			<parameters>1 0 0 1 1 0 0 1 1 0 0 1 1 0 0 1 0 1</parameters>
		</noisymax>
		<noisymax id="n516">
			<state id="s0" />
			<state id="s1" />
			<parents>n403 n406 n454</parents>
			<strengths>0 1 0 1 0 1</strengths>
			<parameters>1 0 0 1 1 0 0 1 1 0 0 1 0 1</parameters>
		</noisymax>
		<noisymax id="n517">
			<state id="s0" />
			<state id="s1" />
			<parents>n514 n515 n516</parents>
			<strengths>0 1 0 1 0 1</strengths>
			<parameters>1 0 0 1 1 0 0 1 1 0 0 1 1e-05 0.99999</parameters>
		</noisymax>
		<noisymax id="n518" diagtype="observation">
			<state id="s0" />
			<state id="s1" />
			<parents>n42 n379 n40 n307</parents>
			<strengths>0 1 0 1 0 1 0 1</strengths>
			<parameters>0.35 0.6499999999999999 0 1 0.35 0.6499999999999999 0 1 0.15 0.85 0 1 0.1 0.9 0 1 0.005000000000000001 0.995</parameters>
		</noisymax>
		<noisymax id="n519" diagtype="observation" ranked="true">
			<state id="s0" />
			<state id="s1" />
			<parents>n480</parents>
			<strengths>0 1</strengths>
			<parameters>0.65 0.35 0 1 1e-05 0.99999</parameters>
		</noisymax>
		<noisymax id="n520" diagtype="observation" ranked="true">
			<state id="s0" />
			<state id="s1" />
			<parents>n481</parents>
			<strengths>0 1</strengths>
			<parameters>0.65 0.35 0 1 1e-05 0.99999</parameters>
		</noisymax>
		<noisymax id="n521" diagtype="observation" ranked="true">
			<state id="s0" />
			<state id="s1" />
			<parents>n482</parents>
			<strengths>0 1</strengths>
			<parameters>0.65 0.35 0 1 1e-05 0.99999</parameters>
		</noisymax>
		<noisymax id="n522">
			<state id="s0" />
			<state id="s1" />
			<parents>n151 n96 n84 n45</parents>
			<strengths>0 1 0 1 0 1 0 1</strengths>
			<parameters>0.05 0.95 0 1 0.05 0.95 0 1 0.65 0.35 0 1 0.1 0.9 0 1 0 1</parameters>
		</noisymax>
		<noisymax id="n523">
			<state id="s0" />
